tree
version=v4
num_class=1
num_tree_per_iteration=1
label_index=0
max_feature_idx=6
objective=binary sigmoid:1
feature_names=Column_0 Column_1 Column_2 Column_3 Column_4 Column_5 Column_6
feature_infos=[-1.7031033449161386:3.4753279856588541] [-1.0760258615186451:3.0021063919388502] [-0.29892210653707763:115.79934223183358] [-0.28883121054039473:11.784084947034993] [-0.29255077566900889:11.442526690736022] [-0.32481184191526125:59.823571728901548] [-0.33437602608756511:64.066390163384639]
tree_sizes=3387 3442 3483 3461 3496 3468 3444 3486 3478 3510 3497 3475 3489 3506 3487 3496 3491 3489 3512 3495 3493 3496 3492 3509 3511 3512 3512 3526 3491 3531 3513 3497 3546 3498 3513 3537 3513 3526 3505 3536 3528 3543 3533 3552 3531 3531 3533 3524 3536 3519 3578 3529 3494 3524 3534 3545 3527 3543 3543 3551 3550 3514 3528 3545 3551 3556 3544 3526 3538 3543 3545 3546 3517 3517 3475 3530 3520 3531 3531 3521 3512 3507 3550 3553 3568 3557 3530 3547 3560 3588 3548 3544 3546 3578 3560 3563 3550 3593 3553 3531 3568 3662 3605 3541 3625 3617 3605 3555 3527 3621 3585 3548 3576 3579 3576 3567 3616 3607 3633 3565 3546 3563 3561 3564 3560 3547 3552 3539 3542 3543 3514 3492 3517 3523 3523 3528 3514 3534 3579 3536 3506 3520 3520 3531 3543 3562 3530 3531 3556 3540 3556 3574 3575 3557 3563 3555 3589 3581 3572 3548 3510 3563 3532 3533 3548 3531 3542 3550 3576 3558 3533 3554 3574 3559 3566 3558 3560 3562 3559 3544 3513 3532 3560 3511 3533 2895 3548 3540 3528 3532 3554 3505 3551 3525 3527 3460 3559 3326 3545 3119 3529 3227 2826 3611 3584 2359 2824 3591 3239 3569 3560 3018 3534 3363 3144 3538 2373 3549 2808 3112 2699 2783 2696 3432 3544 3560 3547 3554 2919 1915 3070 3193 3571 2129 3580 3591 3557 3604 3525 3595 3596 3595 3585 3567 3616 3548 3550 3575 3583 3558 3603 3550 3530 3347 3234 3557 3545 3550 3570 3001 3449 3035 3577 3592 2152 3618 2911 3534 2910 2787 2439 3345 3550 3042 3584 3008 3582 3570 2575 3584 3536 3588 3561 3592 3583 2368 3582 3639 3601 3347 3585 3553 3554 3594 2564 2906 3262 3404 3588 3575 3575 3549 3572 3582 2821 3564 3270 3011 2704 3594 3391 3044 3556 3560 3573 2163 2585 2812 2365 3130 3557 3581 2150 2036 2491 3576 2925 3450 3573 3265 3588 3468 3560 3343 3009 3578 3563 2914 3579 2453 2568 3364 2452 3225 3505 3509 3249 3006 3516 3245 2994 3531 2152 2471 2791 3566 3560 3567 3585 3575 3577 3585 3597 2949 3557 3559 3542 2813 3569 3540 2463 3498 3531 3566 3511 3568 2349 3556 3544 3569 3554 3565 2922 2805 2583 1909 1928 2688 3559 3645 3569 3561 3566 2558 2567 3260 3575 3595 3253 3157 2807 2255 3582 3566 2698 3145 3587 3239 3592 3042 3475 2360 3561 1922 2154 2714 3147 2484 3365 3460 2385 2166 2368 3551 3553 2814 2022 3454 2683 3049 2056 2476 3543 3575 2885 3578 3136 2600 3578 3578 3595 3548 3572 2361 3561 3568 3525 3313 3575 2608 3589 3462 2508 3603 3400 1819 2923 1829 2365 2798 2241 2881 2030 2151 3552 3544 3579 3557 3551 3580 3568 3555 3536 3547 3561 3557 3572 3546 3533 3564 3561 3579 3583 3552 2044 3537 3581 3525 3533 3556 2478 3554 2579 3547 3523 3497 3020 3499 3577 3553 3554 3570 3547 3543 3538 3557 3534 2787 3102 3554 2356 2575 2564 2361 3454 2260 2921 2920 2693 3574 3575 3572 3560 3570 3543 3570 3555 3581 2911 3597 3551 2775 3542 3536 2124 3324 3486 2581 2692 1482 2224 3567 3530 3552 3548 3563 3541 3555 3456 3560 3556 3548 3547 3550 3569 3556 3541 3361 3565 1929 3586 3032 3553 3561 3595 3542 3557 3579 3607 3578 3535 3532 3548 3563 3565 2807 3035 3610 3623 2599 2380 3256 3266 3585 3592 3589 3599 3612 3572 3582 3567 3558 3567 3547 3568 3467 3559 3255 3477 3577 2039 2926 2789 3583 3536 3210 3573 3549 3338 3226 2354 2262 3536 3546 3553 2775 3527 3426 3557 3573 3550 3569 2916 2813 3547 3549 3546 3565 3559 3551 3571 3540 3545 3539 3559 3573 3552 2451 3521 2674 3527 3524 3537 3553 3549 3544 3545 3548 3577 3556 3548 3567 1837 3563 2815 3567 3563 3592 3543 3531 3566 3466 3568 3555 3593 3011 3582 3004 3089 3030 3549 3563 3589 3000 3557 3539 3572 3546 3556 3562 3573 3560 2125 3559 2702 3531 3562 3561 3554 3549 3529 2246 2984 3535 3565 3001 3573 3559 2821 3533 3533 3535 3544 3535 3523 2233 3330 2569 3546 2127 3455 3526 3525 3531 3556 3587 2784 3588 3589 3555 3551 3553 3550 3208 3572 3566 3585 3591 3553 3465 3557 3560 3552 2668 3573 3551 3548 3527 3510 3536 3572 3563 3560 3590 2565 3550 2483 3451 3254 3583 3646 3594 3560 3536 3444 3553 3104 2337 1702 3076 2992 3228 3558 3547 3564 3589 3555 3241 2661 3548 3564 2241 3552 3553 2679 3534 3537 3552 3537 3596 2676 3000 2907 3239 3566 2802 3571 3576 2679 2907 3551 2477 2676 2029 2685 3568 3567 3232 3032 3155 3591 3597 3560 3555 3571 1383 2681 2035 2350 3569 2029 2009 3562 2682 3539 2351 3548 3341 3576 2017 2472 3452 3551 3582 3579 2462 3140 2778 2251 2364 2272 3567 3627 3599 3131 3038 2894 3467 2821 3552 2913 2135 3536 3381 1701 3248 3551 3556 3563 3551 3560 3549 3458 3553 3229 3129 2789 3556 3554 3559 2243 2227 3443 3114 3133 2693 3360 3546 2671 3539 3545 3550 2348 3547 3568 2795 3567 3611 3133 3565 2922 3262 2606 2261 2019 2800 3238 2713 3347 3568 3567 1789 3572 3137 3576 2368 2143 3577 2246 3569 3357 3590 3591 2694 2023 2910 3596 3344 3546 3572 3556 3456 2698 2805 3574 3582 3584 3019 2462 3239 3376 3532 3548 3547 3588 3559 3578 3575 3555 3567 3570 3564 3452 1595 3557 3463 3581 3568 3430 2351 2685 3552 3246 3549 3546 3564 3547 3551 2991 3556 3551 3544 3426 3532 3579 3113 3582 3562 2802 2020 2146 3556 3541 3445 2562 3540 3573 3540 3573 2473 3587 3554 3358 2015 3562 3573 3554 1924 3368 3566 3476 3578 3470 3559 3546 3532 3546 3547 2577 3580 3570 3560 2472 2674 3027 3574 3556 3131 2907 2363

Tree=0
num_leaves=31
num_cat=0
split_feature=0 2 2 3 4 3 2 3 4 3 2 0 1 6 5 0 3 6 3 2 0 1 3 3 2 2 1 3 3 1
split_gain=36673.5 76283.1 29813.3 621093 11952.3 35185 10617.4 528573 262705 76697.4 74980.1 22150.5 6046.54 748103 432575 10873.2 4885.56 4423.28 1804.3 3667.61 1138.21 2685.23 11560.9 739.647 1956.12 506.801 310.672 1385.87 229.86 202.23
threshold=3.3172347632193198 0.2010948997619364 4.3857786030725103 0.66852946656213186 -0.29255033307082018 -0.27042437116248336 0.89162308428819281 -0.043560783412465706 -0.2924295259806648 0.04628917995438412 1.4258164647838927 -1.6223001423359316 1.4728067968922898 -0.33437473234704895 -0.32481132402411184 -1.5660892188018747 -0.17760585081276967 -0.31670121336827178 -0.25024981018032028 -0.12069163088031269 1.1601405725998855 -0.56625932983645799 -0.21755185129970919 -0.28129121579804056 -0.15204458716283001 -0.29629534558881238 -0.56625932983645799 -0.25131867878313741 -0.23565039566739238 1.4728067968922898
decision_type=2 2 2 2 2 2 2 2 2 2 2 2 2 2 2 2 2 2 2 2 2 2 2 2 2 2 2 2 2 2
left_child=2 4 6 -4 5 23 12 -8 9 10 -9 -11 20 14 15 -14 -3 -7 19 -19 26 22 -22 25 -25 -2 27 -1 -20 -27
right_child=1 16 3 -5 -6 17 7 8 -10 11 -12 -13 13 -15 -16 -17 -18 18 28 -21 21 -23 -24 24 -26 29 -28 -29 -30 -31
leaf_value=-6.6898997472449322 1.0558909793338724 10.162120664341879 -6.7012676412284335 32.038516217097275 -6.7012676412284335 32.084525461583972 -6.700609702905556 22.32270787166302 -6.5742399345598317 0.42265354092074858 -6.7012676412284335 30.691665488279142 15.201297875653863 -6.7001002778820862 -6.7012676412284335 31.370827492053124 32.084525461584406 20.772002473263242 18.50949787559906 -4.7619779860878557 -6.5202289318838611 -6.7012676412284335 -4.3176067708479824 10.752339255036754 -6.7012676412284327 -6.5581466334689758 -6.7012676412284335 -6.5495744063867241 25.032563079253961 -2.6889442167996052
leaf_weight=1710.9589536725543 0.025782636366784573 0.029650031821802258 21.574910111725334 1.0867381228599686 0.98489670921116967 0.061878327280282974 151.98993051401339 0.57366365916095752 1.1808447455987323 0.063167459098622536 0.36353517277166247 1.3999971547164016 0.10957620455883521 342.65252644638531 1.2259643592406053 2.0316717457026243 0.17790019093081344 0.030939163640141487 0.025782636366784573 0.025782636366784573 99.978618171298876 195.27639871020801 6.3347937553189686 0.025782636366784573 0.042541350005194545 0.34935472276993096 3006.8123053126037 196.11949091940187 0.028360900003462919 0.03738482273183763
leaf_count=1327218 20 23 16736 843 764 48 117901 445 916 49 282 1086 85 265801 951 1576 138 24 20 20 77555 151479 4914 20 33 271 2332432 152133 22 29
internal_value=-6.6512 0.395016 -6.65347 -4.8435 -3.22245 2.0198 -6.66064 -6.25324 12.7335 22.2319 11.0644 29.3849 -6.67204 -6.46963 16.983 30.5434 28.9528 21.375 15.3976 9.16565 -6.68547 -6.59118 -6.38898 -4.93355 -0.115001 -5.73162 -6.69126 -6.67547 21.9263 -6.18412
internal_weight=5741.58 1.84604 5739.73 22.6616 1.63849 0.65359 5717.07 155.571 3.58121 2.40036 0.937199 1.46316 5561.5 346.02 3.36721 2.14125 0.20755 0.172744 0.110865 0.0567218 5215.48 301.59 106.313 0.480846 0.068324 0.412522 4913.89 1907.08 0.0541435 0.38674
internal_count=4453834 1432 4452402 17579 1271 507 4434823 120679 2778 1862 727 1135 4314144 268413 2612 1661 161 134 86 44 4045731 233948 82469 373 53 320 3811783 1479351 42 300
is_linear=0
shrinkage=1


Tree=1
num_leaves=31
num_cat=0
split_feature=1 3 4 3 2 0 3 0 0 2 2 0 3 0 6 0 5 0 3 4 5 3 2 0 3 3 3 0 2 3
split_gain=956.537 2468.96 8965.64 19564 6561.97 5717.54 8006.36 14248.5 4629.45 4106.61 2869.48 6332.53 1723.75 1031.59 333.677 595.883 2033.86 569.042 346.469 1056.93 292.312 466.576 223.419 160.236 472.169 1209.53 240.792 155.244 404.908 1213.89
threshold=-0.56625932983645799 -0.25131867878313741 -0.29255033307082018 -0.17257755334844463 -0.1047493593372794 -1.5731155842436317 -0.13679741768947498 1.1601405725998855 1.1601405725998855 0.42357757840655302 -0.026426685866007184 1.1601405725998855 -0.23073525954030832 0.057001198244018426 -0.30511423721210801 -1.6574319695447171 -0.32275038283490576 1.1390614762746141 -0.28137771735532618 -0.29255033307082018 -0.31342374752257235 -0.28877051066761622 -0.26278327423728781 3.3172347632193198 -0.28063207393152451 -0.26641825741050856 -0.26894731209102246 1.1601405725998855 -0.11764181989879118 -0.27603889660065734
decision_type=2 2 2 2 2 2 2 2 2 2 2 2 2 2 2 2 2 2 2 2 2 2 2 2 2 2 2 2 2 2
left_child=1 14 3 4 8 -5 9 -8 13 -7 11 -6 -12 -3 15 16 -1 -17 22 -20 21 -18 -19 27 -25 26 -26 -16 29 -29
right_child=-2 2 -4 5 10 6 7 -9 -10 -11 12 -13 -14 -15 23 17 20 18 19 -21 -22 -23 -24 24 25 -27 -28 28 -30 -31
leaf_value=12.953854681415249 -0.05333764106196686 8.9254835235270544 -0.049982100447332159 0.1923471010709604 0.88576247735470037 3.685963296750538 12.312876735847949 3.5437041902295938 26.251038544925535 0.10171085591573592 -0.039787598813250169 7.0224984700633186 0.46279567062864785 1.7022987345627865 -0.042748956463464431 0.0073707410465450804 -0.050062167522018225 0.58025349399318171 1.5459540557129459 -0.050073274634229725 -0.050062167522019564 8.3483007974165684 -0.050073416336997356 -0.15472167530524805 -12.351534182832216 0.61991252510567696 -5.7237461273211983 0.041172907736492216 -0.050073654404372996 0.91111509879647157
leaf_weight=0.038449953659437597 3554.1189316423088 0.11698441044427088 207.13792188442346 1.349223305783396 5.9305389538639899 2.0340417063563123 0.65922790432505673 1.5579917447644398 0.032318025105285919 1.3163039449136817 34.033024656795533 0.45245208614715782 34.210428521014975 0.08559834910556674 1517.8013849609988 130.58715279551771 0.037209632573649287 2.0981071366695687 2.0676403449361604 2.0816053148591926 0.24186261172871937 0.02976770605891943 4.260543605661951 0.52562679687980562 0.028449891476348022 0.074593039948494311 0.026439471995454156 27.946253972128034 64.629572177422233 4.6817026602802789
leaf_count=31 2887908 82 112133 304 4157 648 1071 649 25 709 23823 323 19170 60 1223741 105285 30 1309 1427 1426 195 24 2912 106 33 26 10 19024 44006 3187
internal_value=-0.0376588 -0.010424 0.125028 0.568316 0.333242 3.11255 3.82022 6.15097 8.67702 2.27776 0.306979 1.32076 0.212157 5.87343 -0.0326953 0.0409458 2.10952 0.0358543 0.389834 0.745255 0.759419 3.68254 0.15791 -0.039142 -0.820958 -3.52551 -9.15902 -0.0388249 0.0224143 0.165999
internal_weight=5600.19 2046.07 288.916 81.7781 74.8613 6.91679 5.56757 2.21722 0.234901 3.35035 74.6264 6.38299 68.2435 0.202583 1757.16 141.442 0.34729 141.095 10.5079 4.14925 0.30884 0.0669773 6.35865 1615.71 0.655109 0.129482 0.0548894 1615.06 97.2575 32.628
internal_count=4453834 1565926 163154 51021 47640 3381 3077 1720 167 1357 47473 4480 42993 142 1402772 112639 280 112359 7074 2853 249 54 4221 1290133 175 69 43 1289958 66217 22211
is_linear=0
shrinkage=0.05


Tree=2
num_leaves=31
num_cat=0
split_feature=2 3 3 1 0 3 4 3 0 1 3 4 2 3 3 2 2 0 3 4 3 4 3 0 0 3 2 0 3 0
split_gain=472.407 1894.66 6921.12 12778.4 2730.08 11340.2 10493 18114.7 890.097 360.571 606.334 1344.32 953.282 2124.32 923.168 760.576 336.205 578.928 411.636 515.825 271.603 725.924 173.98 1919.77 139.023 294.46 133.311 116.349 90.3696 573.691
threshold=0.49365767865957993 -0.13679741768947498 -0.12958185741790731 1.0000000180025095e-35 1.1250087453911 0.04628917995438412 -0.29255033307082018 -0.043560783412465706 -1.4536673717337609 -0.56625932983645799 -0.23951250162679824 -0.29255033307082018 0.26072423054797084 -0.19926767113002888 -0.17760585081276967 0.12864604492467882 -0.11764181989879118 1.1601405725998855 -0.28856738079067368 -0.29255033307082018 -0.2781657415301983 -0.29255033307082018 0.10590693728151528 -1.6223001423359316 3.3172347632193198 -0.26255224158071333 -0.29834205321063406 -1.6574319695447171 -0.17257755334844463 -1.6574319695447171
decision_type=2 2 2 2 2 2 2 2 2 2 2 2 2 2 2 2 2 2 2 2 2 2 2 2 2 2 2 2 2 2
left_child=9 -2 3 8 5 6 7 -4 -3 10 16 12 13 15 -15 -12 17 20 26 -20 27 -22 23 -7 -18 -26 -19 -1 -14 -30
right_child=1 2 4 -5 -6 22 -8 -9 -10 -11 11 -13 28 14 -16 -17 24 18 19 -21 21 -23 -24 -25 25 -27 -28 -29 29 -31
leaf_value=-0.40275558378040177 -0.050413910995200262 -7.9418941627333446 -3.111463089811215 -0.050058311979148486 0.11304253765924975 -0.1008262692636013 -0.050061155022378991 -14.968820196243072 -15.772900931408499 -0.051233573018288403 0.34937258699862239 -0.049947329161027884 -0.05028703009030791 1.0863714446320039 3.5398946736306196 -0.053136162085510696 -0.052516647674117928 0.82451815890785474 0.35137458791688475 -0.050138438428004611 0.20405360367043907 -0.054249433104119706 -0.07258376985306618 -3.5434679795064201 -0.31996971757837916 -3.5774346048065397 -0.048966261481993262 -0.036789572873026082 28.882264589745905 0.073632000309452481
leaf_weight=2.1811942813219494 284.8135586214637 0.044072272372432053 3.1674573773411754 0.41187924088444561 21.942285256832882 4.6380461372900754 2.4358490885930588 0.35856691480967162 0.20539642078801179 3114.0134178502608 35.989169299021917 178.85484566655845 19.565190944354981 4.6616712386796451 0.41774612851438675 17.415717619737933 1092.8040927827019 0.44558326108381408 27.870101864346111 11.219234596987006 44.738809801405296 69.384220050648423 19.301798812012976 0.44369278150063962 0.37612040847808448 0.085065923414491595 22.196788871195167 504.87613534147386 0.0017281692707901133 56.065179118188112
leaf_count=479 240575 20 2261 354 2360 66 2007 593 65 2675010 10018 98818 7960 1200 66 7468 848554 57 10884 4934 36422 55582 11291 501 84 23 14024 421024 1 1133
internal_value=-0.0441724 -0.101474 -0.376125 -5.45905 -0.311835 -0.619057 -2.5738 -4.31726 -14.3894 -0.0404526 -0.024383 0.0397871 0.159455 0.311046 1.28816 0.218112 -0.03569 -0.00816617 0.137868 0.236134 -0.0226788 0.0470112 -0.141113 -0.401407 -0.0528829 -0.92081 -0.0317768 -0.0383638 0.0422338 0.07452
internal_weight=5540.92 337.763 52.949 0.661348 52.2877 30.3454 5.96187 3.52602 0.249469 5203.16 2089.15 312.971 134.116 58.4843 5.07942 53.4049 1776.18 682.912 61.7317 39.0893 621.18 114.123 24.3835 5.08174 1093.27 0.461186 22.6424 507.057 75.6321 56.0669
internal_count=4453834 260093 19518 439 19079 16719 4861 2854 85 4193741 1518731 126664 27846 18752 1266 17486 1392067 543406 29899 15818 513507 92004 11858 567 848661 107 14081 421503 9094 1134
is_linear=0
shrinkage=0.05


Tree=3
num_leaves=31
num_cat=0
split_feature=1 0 3 4 3 4 2 3 3 2 6 2 3 3 2 4 2 3 2 2 3 4 2 0 2 3 3 0 5 6
split_gain=363.948 389.682 732.047 921.882 498.283 581.634 1360.64 1269.85 493.885 3885.79 630.502 412.609 348.494 246.738 647.491 567.958 2118.31 2789.66 1376.75 405.86 265.942 298.358 3621.9 216.166 400.599 2016.33 165.81 163.725 3219.95 1088.7
threshold=-0.56625932983645799 1.1390614762746141 -0.13679741768947498 -0.29255033307082018 -0.2479893272648977 -0.29255033307082018 -0.085187008158769409 -0.24573403444291222 -0.12958185741790731 0.49365767865957993 -0.051364141559143754 1.0000000180025095e-35 -0.10312832658559255 -0.23282709036949126 -0.11764181989879118 -0.29255033307082018 0.042146159515136471 -0.23073525954030832 0.0081704375538504629 0.12864604492467882 -0.28832586844273239 -0.29255033307082018 -0.28992827314236364 3.3172347632193198 0.11701324881269684 -0.26641825741050856 -0.21029309042040192 -1.6574319695447171 -0.32275038283490576 -0.31094134548479352
decision_type=2 2 2 2 2 2 2 2 2 2 2 2 2 2 2 2 2 2 2 2 2 2 2 2 2 2 2 2 2 2
left_child=1 2 4 8 27 6 7 -6 9 10 -4 -8 -10 14 20 16 17 -15 -19 26 -3 22 -22 -16 25 -25 -18 28 29 -1
right_child=-2 13 3 -5 5 -7 11 -9 12 -11 -12 -13 -14 15 23 -17 19 18 -20 -21 21 -23 -24 24 -26 -27 -28 -29 -30 -31
leaf_value=-12.413636218664953 -0.053652495828905279 -0.027491387868860684 -6.5118363813703626 -0.050064725087730466 1.3397936756733131 -0.049553292939364224 0.37602027511633729 6.9747596062490249 -0.60693501939197347 -0.055634505609306883 -13.365122014903186 0.070166892906447703 -0.20056679630046514 0.3692129054491084 -0.07248619030676097 -0.05058703243034867 0.43204278471841007 11.221792995857875 4.109763591787349 0.11335282206787477 10.031366546905705 -0.050127302275118184 0.21683007867243351 -0.050043867034142465 -0.49257572184626952 -21.906705485992823 1.16779099331078 -0.039489754300566907 -0.13952331998297871 -1.5113760002541305
leaf_weight=0.072235619416460395 3201.5477251562261 24.215725763700902 0.08390136102882606 33.679704539745657 0.57555683702230453 97.768392863334157 12.318536410224622 0.12099774414673348 11.507325569946262 0.64234012160619613 0.055934240575881811 105.16231487249024 9.7427431706235215 0.47915106290020049 134.28246688028497 49.535021899500919 2.4831434977360209 0.10202308605084165 0.20433038849238661 67.394068469160075 0.094231979222945905 11.421007181859983 38.506536033743529 0.045631494987862897 0.22785425158508588 0.013726060100177739 1.1072028340019544 1541.7757379618706 4.8917488381264311 0.033527094637974986
leaf_count=28 2887908 15746 31 26106 176 75745 4311 37 239 85 20 35515 788 32 48202 5233 239 32 68 1645 37 5517 10584 68 15 28 43 1334101 1229 26
internal_value=-0.0429693 -0.0270503 -0.0361229 -0.21457 -0.030483 0.0406641 0.115301 2.31864 -0.466041 -1.69995 -9.25315 0.102237 -0.420623 0.0229268 -0.0100208 0.0796408 0.169523 2.75179 6.47824 0.140948 0.108522 0.174367 0.240789 -0.075417 -1.44566 -5.10426 0.658935 -0.0404159 -0.326141 -8.95759
internal_weight=5350.09 2148.54 1818.43 55.7119 1762.72 215.946 118.177 0.696555 22.0322 0.782176 0.139836 117.481 21.2501 330.112 208.807 121.305 71.7699 0.785505 0.306353 70.9844 74.2375 50.0218 38.6008 134.57 0.287212 0.0593576 3.59035 1546.77 4.99751 0.105763
internal_count=4453834 1565926 1478437 27269 1451168 115784 40039 213 1163 136 51 39826 1027 87489 80197 7292 2059 132 100 1927 31884 16138 10621 48313 111 96 282 1335384 1283 54
is_linear=0
shrinkage=0.05


Tree=4
num_leaves=31
num_cat=0
split_feature=1 3 4 2 3 2 2 3 0 2 2 3 2 2 6 2 2 3 3 6 2 4 0 4 3 6 6 5 3 2
split_gain=370.073 341.42 276.101 3373.33 1113.95 1293.98 1029.39 2096.58 691.624 687.705 491.502 438.244 726.606 501.562 357.212 144.044 142.923 1789.45 46008.8 23580.2 18420.9 28610.7 3788.39 72753.7 571985 531.683 285.104 108.947 133.628 97.4509
threshold=-0.56625932983645799 -0.28320359222650998 -0.29255033307082018 -0.26453340993109919 -0.28230189999336519 -0.26858948892445811 -0.21461050747818858 -0.27379948892465183 -0.083526110591123845 -0.22416711735828002 -0.23060113756385944 -0.23951250162679824 0.4673860905197787 -0.11764181989879118 -0.31779788090260941 -0.29834205321063406 0.89162308428819281 -0.043560783412465706 -1.0000000180025095e-35 -0.11877030559958417 1.4258164647838927 -0.29176969752501519 -1.6223001423359316 -0.2924295259806648 0.04628917995438412 -0.33219928992806408 -0.29526498520423922 -0.32352814615620001 -0.28877051066761622 -0.27454067956545819
decision_type=2 2 2 2 2 2 2 2 2 2 2 2 2 2 2 2 2 2 2 2 2 2 2 2 2 2 2 2 2 2
left_child=1 15 3 4 5 14 7 10 -6 -9 -5 13 -13 -8 -3 27 -2 -18 19 26 21 -21 -20 24 -24 -25 -19 28 -1 -17
right_child=16 2 -4 6 8 -7 11 9 -10 -11 -12 12 -14 -15 -16 29 17 18 22 20 -22 -23 23 25 -26 -27 -28 -29 -30 -31
leaf_value=2.5773075306706756 -0.051363180121239263 10.201418574115216 -0.050941368589903495 0.42803686485075193 14.588344902705984 0.25657839175265823 0.065531158323267599 7.3534669499456813 6.0741028256426963 2.3186435460305765 -0.026245135205783629 0.1020719341097187 -0.092844492166306969 -0.058531014323134394 4.4738280774201211 0.016819452594234532 -0.049687495828223724 0.041067399716052069 -0.10321196518425753 -73.93647448576904 -0.050061837310995574 -0.050062215330485431 -24.429928458070297 13.362612624912561 -817.08588181943946 -0.050059016293614901 -9.0025347209508819 0.25834340203763723 -0.050081544480893449 -0.049489321724005109
leaf_weight=0.11713023378979415 2886.3120089886215 0.053650412941351533 248.93615270908776 14.087728124048684 0.037572406348772347 0.16304784512612969 104.22831935894334 0.074285766575485468 0.065314287785439684 0.77952048287261178 10.312616411722502 181.35039398420193 64.931605643246797 373.06963415782735 0.055261881556361914 58.403131733008649 136.98610743088648 0.03985018676812465 11.266810726946938 0.054063910490262934 0.018506492254608958 0.017292864853515499 0.049039859850361127 0.0074556339546710806 0.0023866762433907901 0.82177731418057565 0.011154189938679344 1.7376355428718842 0.082465030252933391 1080.966800021065
leaf_count=30 2753350 31 170642 9384 33 129 63478 23 37 275 6660 27197 5563 257696 41 49316 131955 96 211 80 198 14 211 118 932 733 10 1137 63 974191
internal_value=-0.0426055 -0.0266787 -0.00532039 0.00983787 4.75187 3.07537 0.00746414 0.321258 9.18335 2.7567 0.236038 -0.00348779 0.0506827 -0.0314394 7.29525 -0.0453579 -0.0538305 -0.101537 -0.679539 -29.0902 -44.5019 -56.0306 -0.350076 -3.50836 -61.2166 0.0705343 -1.93669 0.385425 1.49177 -0.0460904
internal_weight=5175.04 2139.45 998.145 749.209 0.374847 0.27196 748.834 25.2542 0.102887 0.853806 24.4003 723.58 246.282 477.298 0.108912 1141.31 3035.59 149.274 12.2883 0.140868 0.0898633 0.0713568 12.1475 0.880659 0.0514265 0.829233 0.0510044 1.93723 0.199595 1139.37
internal_count=4453834 1565926 541189 370547 271 201 370276 16342 70 298 16044 353934 32760 321174 72 1024737 2887908 134558 2603 398 292 94 2205 1994 1143 851 106 1230 93 1023507
is_linear=0
shrinkage=0.05


Tree=5
num_leaves=31
num_cat=0
split_feature=2 3 6 2 6 3 3 2 0 0 3 1 3 4 2 3 3 2 3 4 2 2 6 0 0 0 2 6 3 3
split_gain=7111.51 5.42579e+06 9.06465e+07 3046.87 125468 398481 46003.3 11415.6 1226.76 3279.51 493.074 246.525 368.717 263.223 1038.48 2275.78 318.539 130.609 260.261 1503.57 98.9049 68.9945 629.018 861.292 2255.1 55.7756 472.086 51.6138 106.846 38.971
threshold=4.3857786030725103 -0.10312832658559255 0.52364016277252268 1.2056528033560532 -0.33219928992806408 0.17369472690355223 0.04628917995438412 1.7051303236804343 1.4411951902701701 1.2866151505515135 0.49540281911702982 -0.56625932983645799 -0.28147183104965284 -0.29255033307082018 -0.23060113756385944 -0.27603889660065734 -0.23565039566739238 -0.27510193602106886 -0.28688198444852159 -0.29255033307082018 -0.29834205321063406 1.0267136615809862 -0.33437473234704895 1.2866151505515135 1.0969032836240715 3.3172347632193198 0.11701324881269684 -0.32799824699008001 -0.28320359222650998 -0.28087889747508316
decision_type=2 2 2 2 2 2 2 2 2 2 2 2 2 2 2 2 2 2 2 2 2 2 2 2 2 2 2 2 2 2
left_child=3 -2 -3 11 5 6 8 -8 9 -5 -4 12 17 14 15 -14 -16 18 20 -20 -1 25 23 24 -23 -13 29 28 -19 -27
right_child=1 2 10 4 -6 -7 7 -9 -10 -11 -12 21 13 -15 16 -17 -18 27 19 -21 -22 22 -24 -25 -26 26 -28 -29 -30 -31
leaf_value=0.27962357845102431 -0.050049962584976328 13764.930638832106 -0.050047545092841511 12.200315450747484 -0.053651285227478057 70.940620536393965 25.669217069070712 10.544420203612564 0.45853830255105787 0.45878575119105824 -27.082179914257832 -0.051175970552056207 0.33433762095308533 -0.050849726208184877 -0.022547670957226831 4.1380271105911772 0.049013771942681 -0.050065973361198016 1.3090592803393069 -0.055916525991892063 -0.041734802795763477 10.050534715118054 -0.050086314854705619 0.45852181603260683 0.45618420907676765 -0.091361626696327719 -2.9013682188909682 -0.049676386078360439 -0.36789071869741308 -0.5553000087915213
leaf_weight=2.5162883664015672 16.486494619970475 0.0012677097330200905 0.019172589101534611 0.085718169956876866 95.606885519805232 0.25124361237976689 0.25024351268075395 0.24878129363059998 1.5546365564223377 0.1942119300365448 0.0018496505219352767 2751.500141082216 12.619266988309503 232.15610801771982 449.6109070346065 0.40589051164715684 237.72638221138629 8.1001073380466533 2.554109427612274 9.6027428032834887 49.38819198240526 0.089245826237162817 16.24511962535367 1.4575305935239236 0.19520998687949032 5.3145647884775826 0.15794162497962894 1100.4784548739253 3.9261098912106709 0.49479069895511241
leaf_count=1076 16612 486 119 109 85912 359 130 53 18 2 404 2767523 5009 166693 278673 126 26448 6984 1756 7927 41479 114 16375 31 3 477 49 1027335 1049 503
internal_value=-0.0321023 1.00393 780.571 -0.0355349 0.240229 11.1102 4.66858 18.129 1.00719 4.05419 -2.42848 -0.0410785 -0.0281928 -0.00471005 0.0105843 0.452868 0.00220298 -0.0468047 0.0226179 0.23086 -0.0261556 -0.0508704 0.0467374 0.94968 3.46634 -0.0515071 -0.204205 -0.0508022 -0.153824 -0.130876
internal_weight=4999.24 16.5088 0.0222899 4982.73 98.1917 2.58484 2.33359 0.499025 1.83457 0.27993 0.0210222 4884.54 2109.08 932.519 700.362 13.0252 687.337 1176.57 64.0613 12.1569 51.9045 2775.45 17.9871 1.74199 0.284456 2757.47 5.9673 1112.5 12.0262 5.80936
internal_count=4453834 17621 1009 4436213 86583 671 312 183 129 111 523 4349630 1564555 476949 310256 5135 305121 1087606 52238 9683 42555 2785075 16523 148 117 2768552 1029 1035368 8033 980
is_linear=0
shrinkage=0.05


Tree=6
num_leaves=31
num_cat=0
split_feature=2 6 2 0 3 0 5 2 5 0 0 0 0 1 3 4 2 2 3 0 2 6 2 3 4 3 2 3 0 0
split_gain=1866.82 72581.9 299126 3.1375e+06 7.14567e+06 221766 1.11597e+06 60818.6 693147 4.97628e+06 675.434 737.149 4879.73 274.087 347.414 238.172 727.976 467.617 429.198 348.57 298.244 278.596 120.687 148.921 287.857 1046.5 76.9352 148.879 93.8063 55.7235
threshold=1.2056528033560532 -0.33219928992806408 2.1075863873046043 -0.38565982458667974 -0.17760585081276967 -1.6152737768941745 -0.32481132402411184 1.4258164647838927 -0.32432973099489099 -1.5590628533601176 2.6286509499271227 1.061771456415286 -1.3693509864326756 -0.56625932983645799 -0.28147183104965284 -0.29255033307082018 -0.26185414565957532 -0.2438831742790622 -0.27770607225478278 -1.65040560410296 -0.11764181989879118 -0.30808928632882621 -0.27454067956545819 -0.28688198444852159 -0.29255033307082018 -0.28417085264007724 -0.29479613939913724 -0.28876356632259736 1.6519861535228835 3.3172347632193198
decision_type=2 2 2 2 2 2 2 2 2 2 2 2 2 2 2 2 2 2 2 2 2 2 2 2 2 2 2 2 2 2
left_child=13 2 7 5 -5 -4 -7 10 9 -9 11 12 -2 14 22 16 19 18 -18 -16 -19 -21 23 26 25 -25 27 -1 -28 -15
right_child=1 -3 3 4 -6 6 -8 8 -10 -11 -12 -13 -14 29 15 -17 17 20 -20 21 -22 -23 -24 24 -26 -27 28 -29 -30 -31
leaf_value=0.015342993930567823 -5.8440736942276343 -0.054729771304223379 -5.291519025251179 -9.9931307699014553 2310.028193108928 823.60760464963573 -9.5409286976791083 -9.9854368435729342 -6.3995820907056 1697.3818694871331 0.52299583716725317 1.4363035745492472 9.4608684276039288 -0.051875353942616845 0.05764098649891064 -0.050856598084259644 0.36542875896311783 0.070159120525024696 3.4597681919249674 2.353755067870587 -0.012277668391515412 6.2460698772832224 -0.050816006054620035 0.2798061951101109 -0.056003007935153892 5.0075908572850256 -0.035036574607412156 0.54292179693241693 -0.31912878102746739 -0.2096899778003575
leaf_weight=8.7606872296892089 0.076460025054292391 107.0650653849259 0.1871199868619442 0.0099568050354722493 0.0049784025177351818 0.0049784025177359572 0.020862412988208567 0.029893316027477801 0.21699040892235999 0.0049784025177355131 1.6305392724461851 0.8367133466526866 0.16333414847032457 2635.2475335899421 0.11498905718326569 220.8046326604283 6.809283166192472 135.55213618698201 0.11393792042485884 0.16634700662541491 575.63914882635595 0.063530184793988975 1057.5666287683705 8.8078925769077596 9.1916524304544946 0.11862486996688204 38.297842527157627 1.5780773811275128 3.1442780768265939 5.6053979921680357
leaf_count=6217 20 103067 29 2 587 189 5 8 28 172 21 31 45 2784041 1 166693 1966 59064 15 28 249158 24 1034121 1853 8006 27 34865 1002 1515 1034
internal_value=-0.0367743 0.166603 7.60257 62.7997 763.347 13.6694 150.971 3.35127 26.8524 233.764 1.16473 2.13674 4.58078 -0.0415374 -0.0278995 -0.00543955 0.00851851 0.00741556 0.416353 2.30519 0.00343468 3.42946 -0.0466104 0.0170203 0.140399 0.342634 -0.0261499 0.095871 -0.0565911 -0.0522103
internal_weight=4817.83 110.252 3.1868 0.227896 0.0149352 0.212961 0.0258408 2.95891 0.251862 0.0348717 2.70705 1.07651 0.239794 4707.58 2066.73 939.264 718.459 718.115 6.92322 0.344866 711.191 0.229877 1127.47 69.8991 18.1182 8.92652 51.7809 10.3388 41.4421 2640.85
internal_count=4453834 104204 1137 812 589 223 194 325 208 180 117 96 65 4349630 1564555 476949 310256 310203 1981 53 308222 52 1087606 53485 9886 1880 43599 7219 36380 2785075
is_linear=0
shrinkage=0.05


Tree=7
num_leaves=31
num_cat=0
split_feature=0 3 4 6 2 1 2 6 3 3 1 3 4 2 3 2 2 1 3 4 2 0 3 6 2 2 0 2 3 3
split_gain=264.277 301.207 591.841 316.878 178.317 254.574 544.262 599.723 239.382 186.82 165.971 390.146 456.436 659.288 413.492 212.965 139.743 174.561 318.763 585.83 659.786 122.399 111.237 3676.89 6164.06 15251.3 1511.66 104.308 256.089 98.9703
threshold=1.1601405725998855 -0.22411704096266957 -0.29255033307082018 -0.24955199056138486 0.49365767865957993 1.4728067968922898 1.0267136615809862 -0.33437473234704895 -0.12958185741790731 -0.090959417258994327 -0.56625932983645799 -0.24435453182775799 -0.29255033307082018 -0.055043887590418977 -0.23951250162679824 0.1593020218751344 -0.11764181989879118 -0.56625932983645799 -0.26715542022163385 -0.29255033307082018 -0.17269441581236114 -0.80021538565034944 -0.062022687951713805 -0.33219928992806408 1.2056528033560532 1.0267136615809862 -1.6223001423359316 -0.19891307701405062 -0.27042437116248336 -0.20164334989931978
decision_type=2 2 2 2 2 2 2 2 2 2 2 2 2 2 2 2 2 2 2 2 2 2 2 2 2 2 2 2 2 2
left_child=4 16 3 29 10 6 8 21 -6 -10 11 -1 13 14 -13 -15 17 18 27 20 -20 -8 -7 24 25 -24 -26 28 -2 -3
right_child=1 2 -4 -5 5 22 7 -9 9 -11 -12 12 -14 15 -16 -17 -18 -19 19 -21 -22 -23 23 -25 26 -27 -28 -29 -30 -31
leaf_value=-0.040452051154527213 0.042452208340387911 0.18241681844936186 -0.050862792464957479 0.096634532215073066 -0.048230394521088439 -0.058847528185569202 -0.69329738412827924 -0.13791618903823283 -0.30456286886602552 -0.086531241342348089 -0.051288840311072115 0.71832551169920844 -0.049566634280502737 0.16814529212403515 2.8140809073261646 0.032482796147878475 -0.068554677006573986 -0.054343099460548765 2.3735905246875304 -0.050104691825915419 0.50693049090529085 -1.3599056737884294 0.04235343084083551 -0.088827799079316344 -0.14423997344392633 65.97985722614203 5.4971581978780986 -0.054850848737394264 0.89303141252688834 0.47340414284423704
leaf_weight=1366.8425307925954 49.143620216207395 4.6113429553949947 82.53776769905059 78.723309493505383 53.266843467228512 170.00032529683256 1.0877606350695717 3.3354314967783827 22.670223191911646 17.33936248135096 2251.0348962616545 1.4963364375289527 102.83126331551478 43.506848098710194 0.27928434638306399 86.333707392398409 161.05278518148765 91.072353496505656 0.53627711055114868 5.1968934064495427 4.0363773665543556 1.8766471120042068 0.024592099272811363 11.234300305830997 0.23681859985666168 0.013630190970101097 0.238170978574999 34.898009852859417 0.90113967197176137 7.9769100409550679
leaf_count=1309310 14428 205 52047 2297 53015 176088 19 1930 629 11643 2508262 346 97462 14201 37 16326 79719 96967 64 3098 470 54 60 1226 10 39 554 12172 352 804
internal_value=-0.0411134 -0.00754351 0.0461709 0.133881 -0.0453419 -0.0837708 -0.148029 -0.597827 -0.11765 -0.210072 -0.0425356 -0.0302306 0.029361 0.0910269 1.04796 0.0779405 -0.0344674 -0.00491785 0.0426079 0.313083 0.725851 -1.1153 -0.0485648 0.100238 4.23892 23.5559 2.68449 0.0114997 0.0577683 0.366809
internal_weight=4654.34 520.687 173.849 91.3116 4133.65 281.324 99.5763 6.29984 93.2764 40.0096 3852.32 1601.29 234.447 131.616 1.77562 129.841 346.837 185.785 94.7123 9.76955 4.57265 2.96441 181.748 11.7475 0.513212 0.0382223 0.47499 84.9428 50.0448 12.5883
internal_count=4453834 262623 55353 3306 4191211 245267 67290 2003 65287 12272 3945944 1437682 128372 30910 383 30527 207270 127551 30584 3632 534 73 177977 1889 663 99 564 26952 14780 1009
is_linear=0
shrinkage=0.05


Tree=8
num_leaves=31
num_cat=0
split_feature=1 3 4 2 2 3 2 3 2 3 3 2 3 2 2 2 3 4 2 3 3 2 0 2 2 6 2 3 3 4
split_gain=272.414 343.779 218.46 480.804 299.917 1989.76 1272.12 529.348 499.426 330.833 220.027 150.564 111.505 184.376 164.978 100.051 74.0713 96.2011 165.78 455.182 121.235 67.405 48.8882 573.337 2703.11 4223.19 404.334 1115.18 104.901 1013.4
threshold=-0.56625932983645799 -0.28087889747508316 -0.29255033307082018 -0.24706232899571817 -0.11764181989879118 -0.25853784616964393 -0.14270239284777583 -0.23951250162679824 0.49365767865957993 -0.27068612487482951 -0.27835639096245574 -0.1047493593372794 -0.27947987318848072 -0.24858698530127121 -0.25526917736135529 -0.27510193602106886 -0.28877706056553393 -0.29255033307082018 -0.29479613939913724 -0.28825147710346677 -0.28744405772751408 -0.29864324337115994 3.3172347632193198 0.079804971744748515 0.11143242214587537 -0.21736909800049745 0.2010948997619364 -0.18467520442218213 -0.28117821535369614 -0.29176969752501519
decision_type=2 2 2 2 2 2 2 2 2 2 2 2 2 2 2 2 2 2 2 2 2 2 2 2 2 2 2 2 2 2
left_child=1 15 3 10 5 9 -7 11 -9 -5 12 -6 14 -14 -3 16 21 18 19 -18 -20 -1 -2 28 -25 26 -26 -28 -24 -30
right_child=22 2 -4 4 7 6 -8 8 -10 -11 -12 -13 13 -15 -16 -17 17 -19 20 -21 -22 -23 23 24 25 -27 27 -29 29 -31
leaf_value=0.29470906479314113 -0.051397592681713511 0.82272389095865739 -0.050748217539393181 -0.0021435221486187025 -0.21413937130828573 4.1170724175504434 0.90155952720483057 0.073905968086810089 -0.081489982057120061 0.18703353929089384 2.5805273683334722 -0.050074406918222625 1.5172057523764 -0.050444019177665722 0.014521768268818642 -0.050209575659531228 0.45413957729883841 -0.05699771453978824 -0.12138307209428489 4.8476649515833463 0.15379439766049627 -0.050060060522951255 -0.075044058426733382 -0.051881091789933304 -0.050112339189624405 -52.397097623589929 -43.74303125318955 0.050029254611074339 -11.329220729557925 -0.050022242904678361
leaf_weight=1.4734484899090592 2494.5292770925325 1.0710876698140062 199.72755866180478 106.67390089009817 14.739236779790074 0.33593639116897245 3.644909347392554 220.26098398431105 67.565435616994193 29.502261081301441 0.13304216507810807 272.90247778093988 0.57394525548443198 0.27861220203340042 1.5382967933546754 1005.9733584362228 1.3616885587107388 11.170789135678318 5.2740836296579827 0.061619730317036381 16.602560736064333 37.450353030289989 5.1373212850849086 0.10730371982210993 0.011331795250363808 0.0066733840908739231 0.0022834653500467521 0.0040004992813535813 0.022160654335767777 0.19645634229530393
leaf_count=474 2886831 119 164933 40416 7482 123 1383 27846 4914 11094 34 194386 99 66 372 1059262 510 9869 4258 26 2486 35774 466 7 16 7 2 76 59 444
internal_value=-0.0407248 -0.0269623 -0.0044864 0.00836052 0.00546298 0.071052 1.17291 -0.0105114 0.0374277 0.0388413 0.58515 -0.0584814 0.508468 1.0049 0.346269 -0.0460977 0.0102605 0.0636364 0.121473 0.64435 0.0874538 -0.0370089 -0.0517255 -0.200801 -3.46133 -18.5235 -5.69112 -15.8635 -0.120691 -1.19337
internal_weight=4498.33 1998.32 918.948 719.22 715.625 140.157 3.98085 575.468 287.826 136.176 3.59498 287.642 3.46194 0.852557 2.60938 1079.37 73.3945 34.4707 23.3 1.42331 21.8766 38.9238 2500.02 5.48753 0.131593 0.0242891 0.0176158 0.00628396 5.35594 0.218617
internal_count=4453834 1565926 453267 288334 287644 53016 1506 234628 32760 51510 690 201868 656 165 491 1112659 53397 17149 7280 536 6744 36248 2887908 1077 108 101 94 78 969 503
is_linear=0
shrinkage=0.05


Tree=9
num_leaves=31
num_cat=0
split_feature=0 2 3 6 2 1 3 4 2 3 2 1 2 4 2 3 3 3 3 4 2 3 2 0 2 2 3 4 2 0
split_gain=271.746 282.226 274.222 212.67 167.018 169.119 339.202 258.348 974.841 989.304 260.761 163.071 185.239 141.199 120.515 102.332 114.702 83.9934 120.153 116.742 138.833 115.878 80.19 66.1633 64.1132 62.6024 58.7122 136.322 49.2598 101.667
threshold=1.1601405725998855 0.042146159515136471 -0.21755185129970919 -0.33437473234704895 0.52243837079875233 -0.56625932983645799 -0.27068612487482951 -0.29255033307082018 -0.1959444339608449 -0.26796270984525061 -0.16082738560515755 1.4728067968922898 0.89162308428819281 -0.29255033307082018 0.084967349998482211 -0.12958185741790731 -0.10312832658559255 -0.25131867878313741 -0.28087889747508316 -0.29255033307082018 -0.24858698530127121 -0.25548589822549439 1.4258164647838927 3.3172347632193198 0.1344028046542978 -0.27919645598579956 -0.28881442923828127 -0.29255033307082018 1.2056528033560532 2.6286509499271227
decision_type=2 2 2 2 2 2 2 2 2 2 2 2 2 2 2 2 2 2 2 2 2 2 2 2 2 2 2 2 2 2
left_child=4 17 23 28 5 6 25 8 9 -8 -10 12 15 14 -5 -6 -17 18 -2 20 -20 -22 -14 -3 -25 26 -1 -28 -4 -30
right_child=1 2 3 13 11 -7 7 -9 10 -11 -12 -13 22 -15 -16 16 -18 -19 19 -21 21 -23 -24 24 -26 -27 27 -29 29 -31
leaf_value=-0.043017445619509258 -0.042506317692001527 -0.050053504149829155 0.20494690541333346 0.39582943251343888 -0.047466171094375523 -0.051414112049934547 1.3034314442753829 -0.05035685146958823 0.34376219814450998 8.9598550574805884 0.022830091492921162 -0.053500777581255092 -0.33868887073710702 -0.053002486678951216 0.089151279866610048 -0.23835961575652365 -0.0697422074136516 -0.058736412674577479 0.40352461639353837 -0.050067133998464498 0.039122136064773383 0.36369879295485957 0.077213523330853795 -0.051548373307151264 -1.6814678536576535 -0.046480115713606267 0.16736942230482432 -0.053742154854326457 0.79847486601258888 0.28187758034922794
leaf_weight=28.363702192611527 122.22718018561793 44.047683962038732 3.1758135134970606 3.3346865862895063 37.972021593762292 2038.5356067551897 0.84962974477093667 127.18453442535343 6.4744259488070375 0.044395373202802513 282.40280076528916 161.26324915534477 13.07927821535484 17.992947122761009 81.381087138707812 22.156891793858449 18.512533451961716 150.96351652015045 2.9959136408879479 28.875378377668092 57.085696886795695 2.888994051756284 1.2716692697514744 0.11868785550475697 0.12271118001943843 1065.7247832868161 14.241610364813825 13.653895952098535 1.4826769530773161 2.6628843058715574
leaf_count=27896 108653 48216 728 56 41710 2516899 454 135492 3496 24 120206 173493 3527 12608 1988 361 9200 48790 157 30355 9706 818 767 36 26 1138028 5505 14153 297 189
internal_value=-0.0401511 -0.00621065 0.0504778 0.0927645 -0.0447514 -0.0419685 -0.0294565 0.00905022 0.0351248 1.68363 0.0300229 -0.0839082 -0.136639 0.0742052 0.101223 -0.106493 -0.161606 -0.0301757 -0.0100348 0.0331779 0.0713502 0.0547571 -0.301835 -0.0545776 -0.880091 -0.0437665 0.00763762 0.0591429 0.353125 0.466641
internal_weight=4351.09 519.356 154.319 110.03 3831.73 3577.48 1538.94 416.956 289.771 0.894025 288.877 254.256 92.9924 102.709 84.7158 78.6414 40.6694 365.037 214.073 91.846 62.9706 59.9747 14.3509 44.2891 0.241399 1121.98 56.2592 27.8955 7.32137 4.14556
internal_count=4453834 262623 64144 15866 4191211 3962153 1445254 259672 124180 478 123702 229058 55565 14652 2044 51271 9561 198479 149689 41036 10681 10524 4294 48278 62 1185582 47554 19658 1214 486
is_linear=0
shrinkage=0.05


Tree=10
num_leaves=31
num_cat=0
split_feature=0 2 3 2 2 1 3 4 2 2 4 1 2 0 5 0 0 0 3 3 4 2 3 3 2 3 4 2 3 3
split_gain=268.136 254.953 241.002 186.549 141.074 161.892 333.674 287.369 314.029 168.478 130.531 120.59 133.121 115.04 151.34 97.2014 268.088 328.118 78.1149 110.012 100.243 104.003 323.171 120.499 76.625 184.795 306.832 73.9779 75.8368 68.6731
threshold=1.1601405725998855 0.042146159515136471 -0.21755185129970919 1.2056528033560532 0.52243837079875233 -0.56625932983645799 -0.24435453182775799 -0.29255033307082018 -0.075262958077602818 0.17971245829564483 -0.29255033307082018 1.4728067968922898 0.89162308428819281 3.3172347632193198 -0.27557881489702579 2.6286509499271227 2.2808458605601456 2.4389390829996809 -0.25131867878313741 -0.28107574387890449 -0.29255033307082018 -0.19891307701405062 -0.27068612487482951 -0.26756134261944559 -0.11764181989879118 -0.26715542022163385 -0.29255033307082018 0.2010948997619364 -0.18467520442218213 -0.12958185741790731
decision_type=2 2 2 2 2 2 2 2 2 2 2 2 2 2 2 2 2 2 2 2 2 2 2 2 2 2 2 2 2 2
left_child=4 18 13 10 5 6 24 8 -8 -10 27 12 29 -3 -15 16 -5 -18 19 -2 21 22 -21 -23 25 -1 -27 -4 -29 -6
right_child=1 2 3 15 11 -7 7 -9 9 -11 -12 -13 -14 14 -16 -17 17 -19 -20 20 -22 23 -24 -25 -26 26 -28 28 -30 -31
leaf_value=-0.035529324112808028 -0.042344860634146206 -0.050050896446814513 0.18922286766073398 0.42720463238983797 -0.047334391838283037 -0.051484426267480614 1.4722459581703937 -0.049481016354537909 0.11990489056878573 0.016378166607593017 -0.053082419758673942 -0.053315032261321942 -0.25630074929067398 -4.3365574062266594 -0.53316479592166555 0.24050178100275646 6.4865884891540233 1.4595265467802969 -0.057133017931040364 0.11480878764718223 -0.050063644628991114 -0.059558052964485166 1.1400416386268248 0.1030147758349978 -0.051229436297479704 0.1941337116037089 -0.051115923312544997 -0.052653135723000705 0.09466149385756438 -0.14010165136982572
leaf_weight=500.23503958829679 116.58787991058333 41.901581214915488 17.367602358356592 1.1878807067235841 36.218163436617886 1936.5323498289131 0.39404163509607215 88.581777997934125 66.825768556911498 95.403241351337726 17.394410148717213 153.91955282115458 16.004076456748379 0.034978622335635548 0.10367926279418736 2.9481687261072933 0.038258897664517483 0.21413531433793423 147.52885094906188 21.338441353577334 27.717261332530342 23.391485185507634 0.79736933142365174 22.229827260356025 695.07701944120822 24.073490415001288 27.121248274284881 10.11407416115979 64.132987799131456 44.41388168529366
leaf_count=471728 108100 48216 382 632 41710 2516899 46 97595 16044 15400 12932 173493 4294 32 30 419 97 88 48790 1653 30672 6608 70 2586 806055 6409 31977 449 867 9561
internal_value=-0.0398567 -0.006064 0.047443 0.0853512 -0.0445799 -0.0419374 -0.0295931 0.0229784 0.0624474 0.0590231 0.0724838 -0.0808 -0.124577 -0.0548088 -1.49263 0.404976 0.741646 2.22155 -0.0291931 -0.00975563 0.0300405 0.0628085 0.151739 0.0196586 -0.0401877 -0.0262696 0.0642087 0.0963245 0.074594 -0.0984326
internal_weight=4199.83 515.029 155.438 113.398 3684.8 3434.24 1497.71 251.205 162.623 162.229 109.009 250.556 96.6361 42.0402 0.138658 4.38844 1.44027 0.252394 359.591 212.062 95.4744 67.7571 22.1358 45.6213 1246.51 551.43 51.1947 91.6147 74.2471 80.632
internal_count=4453834 262623 64144 15866 4191211 3962153 1445254 129085 31490 31444 14630 229058 55565 48278 62 1236 817 185 198479 149689 41589 10917 1723 9194 1316169 510114 38386 1698 1316 51271
is_linear=0
shrinkage=0.05


Tree=11
num_leaves=31
num_cat=0
split_feature=1 3 4 2 3 2 3 0 2 3 3 2 3 2 3 2 2 3 4 2 3 0 2 0 3 3 0 0 0 5
split_gain=270.734 299.208 169.495 227.151 280.547 412.282 265.782 264.139 181.288 451.139 163.185 162.15 144.267 143.727 128.36 103.277 94.2211 64.8521 86.6264 370.815 183.643 78.6879 66.4983 102.396 150.514 52.7415 51.3003 46.4974 66.2036 36.4847
threshold=-0.56625932983645799 -0.28087889747508316 -0.29255033307082018 -0.19891307701405062 -0.23565039566739238 0.30318135313671873 -0.27230544786746463 1.1250087453911 -0.11764181989879118 -0.25669242194651354 -0.21310787358487931 -0.2367565604010762 -0.26829721655736738 -0.1047493593372794 -0.27747421521066568 -0.2095527703993344 -0.27510193602106886 -0.28688198444852159 -0.29255033307082018 -0.28541220656179628 -0.28639169362182698 -1.6363528732194459 -0.29715225198716483 1.6519861535228835 -0.28832586844273239 -0.2879812566186935 3.3172347632193198 1.1601405725998855 1.7503552697074831 -0.32481132402411184
decision_type=2 2 2 2 2 2 2 2 2 2 2 2 2 2 2 2 2 2 2 2 2 2 2 2 2 2 2 2 2 2
left_child=1 16 3 6 8 10 11 -7 9 -5 -6 14 15 -10 -3 -8 17 22 19 20 -19 -21 27 25 -25 -24 -13 29 -29 -1
right_child=-2 2 -4 4 5 7 12 -9 13 -11 -12 26 -14 -15 -16 -17 -18 18 -20 21 -22 -23 23 24 -26 -27 -28 28 -30 -31
leaf_value=0.48495309939799569 -0.051511698270396193 0.13037467154230728 -0.050760874786824145 -0.0070286766817412132 0.043031520875513436 -0.066041986462311797 0.53300124693076423 0.070396274355285657 -0.20468288904542048 0.35335603046474023 0.1524080940591597 0.0011756718023094304 1.5190981138834108 -0.043394695121111881 0.55422137883037326 0.17770462080478366 -0.05009326625040153 0.69708717545691279 -0.058406045800636165 1.133987288745687 2.3202199512984016 0.061632949757785452 -0.040781237856762631 -0.050076795309671122 -0.7979501035338139 0.2106335608963586 -0.77747679841882311 1.4822752233719878 0.28215797333385012 0.020051374577196454
leaf_weight=0.46672837762162078 2161.4307061850968 15.907917381846348 171.90263237915576 105.29656865196674 69.348853919447933 108.2232155220712 3.2741691865958265 52.77009606732662 14.514461903262825 9.4645162236805316 67.094156508213487 39.876039345865138 0.25434357070976332 285.59559360943177 2.012251215055584 5.4496312555856994 874.94401240917853 1.0031939884647725 8.5106150740174353 0.17291415063664928 0.21089803287759679 16.032169214915484 37.464308402326424 1.7512271692394281 1.0924430143786583 2.2089775917120269 0.21265832071837465 0.13049209921155103 0.96261930873151869 4.405156602500937
leaf_count=122 2887908 2189 164933 39245 12181 9463 473 1125 7482 1013 4701 9447 17 199676 157 1160 1059262 120 9086 19 24 1593 36130 1495 150 1673 5 29 142 2814
internal_value=-0.0394074 -0.0256415 -0.00582188 0.0040911 -0.00418713 0.0328723 0.0921179 -0.0213205 -0.0307564 0.0226928 0.0968161 0.0529362 0.345276 -0.0511952 0.177968 0.311053 -0.0454996 0.0085135 0.0723401 0.13622 0.979039 0.0730754 -0.0256231 -0.0475567 -0.337385 -0.0267827 -0.00295484 0.130714 0.425424 0.0645891
internal_weight=4061.98 1900.55 951.197 779.294 712.307 297.436 66.987 160.993 414.871 114.761 136.443 58.0089 8.97814 300.11 17.9202 8.7238 949.356 74.4117 25.9298 17.4192 1.21409 16.2051 48.482 42.517 2.84367 39.6733 40.0887 5.965 1.09311 4.87188
internal_count=4453834 1565926 453267 288334 274886 27470 13448 10588 247416 40258 16882 11798 1650 207158 2346 1633 1112659 53397 10842 1756 144 1612 42555 39448 1645 37803 9452 3107 171 2936
is_linear=0
shrinkage=0.05


Tree=12
num_leaves=31
num_cat=0
split_feature=1 3 4 2 3 2 0 2 3 3 2 2 2 2 3 3 4 2 2 0 3 3 0 0 2 5 5 3 6 0
split_gain=275.321 291.147 160.523 184.957 251.113 342.245 238.929 168.002 400.274 153.148 137.431 122.167 91.3845 88.2539 83.3969 59.1514 79.7571 136.467 53.6979 57.1427 68.4639 39.5522 38.8413 36.2503 70.7232 35.7554 23.7693 37.7654 27.7804 22.7652
threshold=-0.56625932983645799 -0.28087889747508316 -0.29255033307082018 -0.19891307701405062 -0.23565039566739238 0.30318135313671873 1.1250087453911 -0.11764181989879118 -0.26715542022163385 -0.2695365191785043 1.0000000180025095e-35 -0.1047493593372794 -0.27565738646134053 -0.25280392165236282 -0.2732313466964002 -0.28688198444852159 -0.29255033307082018 -0.28829048675252272 -0.29834205321063406 1.6519861535228835 -0.28832586844273239 -0.28809525529100904 -1.6433792386612029 1.0898769181823145 -0.20170072854474283 -0.22190199852648687 0.51845630990187497 -0.28879020880224132 -0.33437473234704895 3.3172347632193198
decision_type=2 2 2 2 2 2 2 2 2 2 2 2 2 2 2 2 2 2 2 2 2 2 2 2 2 2 2 2 2 2
left_child=1 12 3 9 7 10 -7 8 -5 13 -6 -9 15 25 -15 18 17 -17 26 21 -21 -20 -19 24 -11 -3 28 -28 -1 -14
right_child=-2 2 -4 4 5 6 -8 11 -10 23 -12 -13 29 14 -16 16 -18 22 19 20 -22 -23 -24 -25 -26 -27 27 -29 -30 -31
leaf_value=0.45974818082728863 -0.051519608460215506 0.22907579469328995 -0.050762072886808667 -0.062984314017806117 0.26714732737390595 -0.063447260962986071 0.06598094571117101 -0.18954771804612183 0.12247430853815428 1.462069802649766 0.072436860303431674 -0.042493419214053155 -0.049753033828253676 0.024548209716173903 0.16645008842234996 0.94592150492963334 -0.058642032887504997 0.70818701824965025 -0.037607669706748462 -0.018863941199436643 -0.44417404304061353 0.13720607693349024 0.09843141564535407 0.31713648824243679 0.45282438703499728 0.63414729138905035 0.31625891445143495 1.7448908292275918 0.060438533277199238 -0.6512230686016921
leaf_weight=0.50414705113507841 2055.7089245712086 3.1952621592208748 163.51509016979799 64.384674034857795 9.7042738472190972 107.04790608005845 53.467342380611001 14.881293848288406 53.07933248135069 0.23141081165522337 137.01788143181994 277.28385262468987 838.11479203429849 53.583610860013046 12.834114757832145 0.50146192405373113 7.9734395791316492 0.26552050933242277 36.840358953166287 1.948931427265052 1.8391158280574007 3.5471798321232191 15.936436709016562 1.7230856610648702 0.69463697634637411 0.65674889460205932 0.27278782508801669 0.055704993195831665 3.2021282620262346 0.15734906481577482
leaf_count=19 2887908 150 164933 33315 770 9463 1125 7482 6943 30 16112 199676 1060442 11211 1904 29 8953 12 36922 1536 154 1846 1582 21 52 80 110 14 933 107
internal_value=-0.0389004 -0.0249867 -0.00567004 0.0036657 -0.00405135 0.0301186 -0.020335 -0.0296801 0.0208203 0.0795322 0.0853151 -0.0499836 -0.0451967 0.0654628 0.0519684 0.00850348 0.0714617 0.133567 -0.0237222 -0.0396698 -0.225354 -0.022254 0.108424 0.452729 0.705026 0.298138 0.150884 0.558523 0.114755 -0.0498659
internal_weight=3920.17 1864.46 953.301 789.785 716.867 307.237 160.515 409.629 117.464 72.9189 146.722 292.165 911.159 70.2697 66.4177 72.8872 24.6769 16.7034 48.2104 44.1756 3.78805 40.3875 16.202 2.64913 0.926048 3.85201 4.03477 0.328493 3.70628 838.272
internal_count=4453834 1565926 453267 288334 274886 27470 10588 247416 40258 13448 16882 207158 1112659 13345 13115 52110 10576 1623 41534 40458 1690 38768 1594 103 82 230 1076 124 952 1060549
is_linear=0
shrinkage=0.05


Tree=13
num_leaves=31
num_cat=0
split_feature=1 3 4 2 3 3 2 3 2 0 2 3 2 2 3 3 2 2 3 4 2 2 2 0 3 6 2 0 3 2
split_gain=279.941 282.878 150.694 151.172 740.487 289.861 425.08 280.506 283.427 316.127 103.481 288.443 92.6723 92.197 89.4006 87.6367 168.763 127.251 43.6437 53.4578 109.226 43.3501 42.3745 39.1327 34.3543 31.4069 72.1815 94.0401 1144.47 29.2441
threshold=-0.56625932983645799 -0.28129121579804056 -0.29255033307082018 -0.16082738560515755 -0.26255224158071333 -0.26039328381304566 -0.16682555596397938 -0.23951250162679824 0.4673860905197787 1.1601405725998855 -0.11764181989879118 -0.25669242194651354 -0.27510193602106886 -0.1047493593372794 -0.21557570073311541 -0.26715542022163385 -0.19891307701405062 -0.18725349349224277 -0.28669971701716518 -0.29255033307082018 -0.28722418171798098 -0.29715225198716483 -0.28142828329840869 1.6519861535228835 -0.28839784292848741 -0.32799824699008001 -0.26453340993109919 -0.39971255547019396 -0.28230189999336519 -0.26858948892445811
decision_type=2 2 2 2 2 2 2 2 2 2 2 2 2 2 2 2 2 2 2 2 2 2 2 2 2 2 2 2 2 2
left_child=1 12 3 4 15 6 -6 10 14 -10 11 -5 18 -12 -9 16 -3 -17 21 20 -20 -1 -22 24 -23 26 27 28 -14 -29
right_child=-2 2 -4 7 5 -7 -8 8 9 -11 13 -13 25 -15 -16 17 -18 -19 19 -21 22 23 -24 -25 -26 -27 -28 29 -30 -31
leaf_value=0.09075568456312455 -0.051525883946326768 0.066193102216259944 -0.050759133295451869 -0.034124908527579108 2.9063694074460735 3.7293246227796923 0.42296057810982046 0.016128096745345558 -0.11756417264018043 0.08662371943251522 -0.17130187637910679 0.21534999345900407 -0.26292820057609173 -0.046297975520950614 0.076117953570533289 0.63951197282059014 -0.067857122664894076 0.11405469384082417 0.75340786115511205 -0.059300546573955643 0.20796342732331882 -0.050045245139760913 0.036112087796408572 -0.17411023741226855 0.054124218017349818 -0.049289774830007529 -0.0080516425514802255 -0.3004009245794918 -6.5767285439331262 -0.020455855963765299
leaf_weight=7.5586669404874547 1955.2189031994144 83.902914504147105 156.2150638972555 62.22282925926406 0.23671780593225011 0.11903848522347427 0.63331064964410488 104.84387522588446 59.556802815344675 27.805851006320488 15.689923356430539 14.237446915174941 1.1754614400560965 246.38579293600918 152.34983296141064 1.2917405003422917 32.602602178303457 10.665382096611955 0.62046203389764087 7.1232858350841743 4.7910396791994616 30.168319041898936 14.274109604302794 4.7657353459071592 10.72984545241343 769.20132980901042 5.2695349091667349 1.7151479368912985 0.076440498640295007 2.0454447269439702
leaf_count=3139 2887908 15019 165854 23084 44 13 118 18497 4789 774 7768 1013 779 201859 8700 95 16717 1228 23 8343 291 35343 1192 1670 2811 1039298 5696 1009 123 637
internal_value=-0.0383743 -0.0243095 -0.00578406 0.00286259 0.052404 1.41526 1.09865 -0.00652591 0.0252336 -0.0525751 -0.0388502 0.0123291 -0.0451894 -0.0537817 0.0516634 0.041911 0.0286808 0.17082 0.00604846 0.0580731 0.100545 -0.020157 0.079298 -0.0385162 -0.0227158 -0.0504502 -0.137258 -0.27309 -0.648446 -0.148134
internal_weight=3783.49 1828.27 968.759 812.544 129.452 0.989067 0.870028 683.092 344.556 87.3627 338.536 76.4603 859.515 262.076 257.194 128.463 116.506 11.9571 80.0315 26.8089 19.6856 53.2226 19.0651 45.6639 40.8982 779.483 10.282 5.01249 1.2519 3.76059
internal_count=4453834 1565926 465572 299718 33234 175 162 266484 32760 5563 233724 24097 1100354 209627 27197 33059 31736 1323 52812 9849 1506 42963 1483 39824 38154 1047542 8244 2548 902 1646
is_linear=0
shrinkage=0.05


Tree=14
num_leaves=31
num_cat=0
split_feature=1 3 4 2 3 2 0 2 3 2 2 2 3 2 3 2 3 2 3 0 4 0 3 2 0 3 0 2 6 2
split_gain=287.727 267.112 143.248 139.973 158.705 269.325 273.991 212.182 164.545 138.672 87.6363 82.5857 43.3538 61.4869 59.3973 56.9836 36.4511 46.9254 53.0656 81.9737 42.6983 38.512 37.7584 37.7363 36.0431 27.4702 24.4326 112.498 319.177 48.6517
threshold=-0.56625932983645799 -0.28087889747508316 -0.29255033307082018 -0.23479956776019387 -0.23565039566739238 0.4673860905197787 1.1601405725998855 -0.11764181989879118 -0.25669242194651354 -1.0000000180025095e-35 -0.27510193602106886 -0.1047493593372794 -0.27747421521066568 -0.24547736156373232 -0.27807612591685044 -0.23858255637827983 -0.28744405772751408 -0.2927009901729421 -0.28775738020825159 0.92827051302190067 -0.29255033307082018 1.6519861535228835 -0.28832586844273239 -0.29085383837160622 -1.6574319695447171 -0.27712573676701618 1.1601405725998855 1.0267136615809862 -0.31572749075941375 1.2056528033560532
decision_type=2 2 2 2 2 2 2 2 2 2 2 2 2 2 2 2 2 2 2 2 2 2 2 2 2 2 2 2 2 2
left_child=1 10 3 12 7 9 -7 8 -5 -6 16 -9 13 14 -3 25 17 18 -1 -20 23 -19 -23 -18 -25 -14 -2 -28 29 -29
right_child=26 2 -4 4 5 6 -8 11 -10 -11 -12 -13 15 -15 -16 -17 20 21 19 -21 -22 22 -24 24 -26 -27 27 28 -30 -31
leaf_value=0.020965008197268584 -0.053121115475306506 0.12930763394389741 -0.050761328747635087 0.0066711689827389248 0.22957893339856861 -0.10682563342628204 0.081154518942360032 -0.15714932082004862 0.16980603580354384 0.045103035801519809 -0.049364540181375566 -0.040728714257097398 0.33329140813106817 -0.021612546667477427 0.67160743668765244 0.15722313671814026 0.56439717641642706 -0.050041765721138477 1.4503463600804738 0.035708624773603329 -0.057939316170219017 -0.050045509492986487 -0.46570095282550805 0.76165685153246088 0.06140694594760876 0.82350210258882395 -0.049713530371165597 0.20441474301792992 -0.07383893014628877 0.46958787453935608
leaf_weight=19.926645048559298 1726.6793957747666 12.257071644067763 147.95717406276003 163.95693282099924 10.665835103183722 62.033433797903676 28.194732611645925 16.173012308428667 17.066090859144055 226.95770040942034 759.86931236345208 262.07988683032426 0.64361484069377184 8.5424328186782077 0.52662047790363864 4.4563263170418841 0.3855934720486428 23.819873029307931 0.16661618079524387 0.26572651448077522 8.0250619145804176 1.0369254583492877 1.1549015782074992 0.1850360165117334 26.695986142498441 0.51402404904365517 113.91724365514989 3.141294767280038 12.115761174995107 3.8493465057981666
leaf_count=10602 2708654 846 164933 49988 770 4399 756 7482 1013 21545 1059262 199676 44 1592 38 140 22 29453 85 20 9463 1227 61 5 2459 45 172496 33 6239 486
internal_value=-0.0377307 -0.0235014 -0.00550465 0.00272078 -0.00111487 0.0254582 -0.0480851 -0.0200839 0.0220508 0.0533833 -0.044075 -0.0474955 0.11479 0.0822461 0.151648 0.238414 0.0051443 -0.0239983 0.0328554 0.580882 0.0434356 -0.0684969 -0.26906 0.073272 0.0662271 0.550959 -0.0515304 -0.0308826 0.0813925 0.35043
internal_weight=3663.26 1803.56 962.025 814.068 787.128 327.852 90.2282 459.276 181.023 237.624 841.532 278.253 26.9401 21.3261 12.7837 5.61397 81.6624 46.3707 20.359 0.432343 35.2917 26.0117 2.19183 27.2666 26.881 1.15764 1859.7 133.024 19.1064 6.99064
internal_count=4453834 1565926 453267 288334 285629 27470 5155 258159 51001 22315 1112659 207158 2705 2476 884 229 53397 41448 10707 105 11949 30741 1288 2486 2464 89 2887908 179254 6758 519
is_linear=0
shrinkage=0.05


Tree=15
num_leaves=31
num_cat=0
split_feature=1 3 4 2 3 2 3 3 3 2 2 0 0 3 2 3 3 4 2 3 2 3 2 0 3 0 2 6 2 0
split_gain=294.165 260.938 134.673 116.098 207.43 186.158 138.631 130.734 96.9194 88.9754 88.6676 65.9382 65.1777 64.6634 49.8168 37.3169 36.2982 37.8653 47.1845 92.2332 36.1945 34.1509 31.1297 29.1715 29.1753 24.0385 105.241 282.366 61.0228 426.947
threshold=-0.56625932983645799 -0.28137771735532618 -0.29255033307082018 -0.19891307701405062 -0.26715542022163385 -0.15204458716283001 -0.23951250162679824 -0.25966928653893923 -0.27285806652624578 -0.27334328649932826 -0.23479956776019387 3.3172347632193198 3.3172347632193198 -0.27640906790484293 -0.21716579380271681 -0.2695365191785043 -0.28669971701716518 -0.29255033307082018 -0.28308162715138258 -0.28604464937399726 -0.29715225198716483 -0.27747421521066568 -0.1959444339608449 1.6519861535228835 -0.28839784292848741 1.1601405725998855 1.0267136615809862 -0.31572749075941375 1.2056528033560532 2.6286509499271227
decision_type=2 2 2 2 2 2 2 2 2 2 2 2 2 2 2 2 2 2 2 2 2 2 2 2 2 2 2 2 2 2
left_child=1 9 3 8 11 7 -7 -6 10 16 21 22 -12 -13 -10 -16 20 18 19 -18 -1 -3 -5 24 -22 -2 -27 28 -28 -30
right_child=25 2 -4 4 5 6 -8 -9 14 -11 12 13 -14 -15 15 -17 17 -19 -20 -21 23 -23 -24 -25 -26 26 27 -29 29 -31
leaf_value=0.074846509312739867 -0.05322969119953927 0.063026245912511117 -0.050755069197072622 -0.19003144034456929 0.12284806391631981 -0.030050884577163758 0.021452046471651842 0.74594077787866409 0.3726699281811805 -0.050094321788943991 -0.018274106082291512 -0.065246788655362015 -1.0639407829673622 -1.350701346201667 0.078657836814367763 0.25027487335955473 0.11541280955006722 -0.059450210580663278 0.038003989481708612 0.6687398341228048 -0.050041453695143845 0.1883220607161013 -0.050607775503407552 -0.14947772207973511 0.042285818579893525 -0.049583046172600689 0.17587113696854409 -0.072930162040776486 1.5969897664852093 0.21070998199403107
leaf_weight=8.4892470791819488 1639.2011935548608 29.210848429297954 141.53771309150716 4.1122368849461273 23.00161401196754 202.72197424690171 367.55064942279694 0.87380592199037721 2.3548885025084045 702.14499919843752 39.320451453444541 0.19684290306900931 0.14958977743203306 0.19450255396003657 11.439782955218107 4.3804612052167871 4.7057468639686704 6.4547845984827736 18.179723603388997 0.89661493524909275 29.748832541255975 6.6824969407171002 151.43148861461668 5.1621619655052191 12.011183262569832 108.63953780437333 3.459217092354776 11.664830357534926 0.68234908208251033 2.9854837433740613
leaf_count=3139 2708654 3366 166145 1282 2307 80218 32760 52 60 1039523 10162 17 5 23 1646 103 152 8389 1735 31 38317 229 171448 1775 3042 172496 33 6239 297 189
internal_value=-0.0371636 -0.0227751 -0.00562201 0.00195014 -0.00459999 0.00887026 0.00314365 0.145652 0.0544755 -0.0442256 0.0294813 -0.0559247 -0.0222371 -0.70413 0.158114 0.126177 0.00388635 0.0479504 0.0771004 0.203969 -0.0201585 0.0863534 -0.0542938 -0.037347 -0.0234859 -0.0516035 -0.0306851 0.0785677 0.326524 0.468608
internal_weight=3539.59 1772.95 985.159 843.622 750.083 594.148 570.273 23.8754 93.5385 787.793 75.3634 155.935 39.47 0.391345 18.1751 15.8202 85.6483 30.2369 23.7821 5.60236 55.4114 35.8933 155.544 46.9222 41.76 1766.63 127.431 18.7919 7.12705 3.66783
internal_count=4453834 1565926 469823 303678 288107 115337 112978 2359 15571 1096103 13762 172770 10167 40 1809 1749 56580 10307 1918 183 46273 3595 172730 43134 41359 2887908 179254 6758 519 486
is_linear=0
shrinkage=0.05


Tree=16
num_leaves=31
num_cat=0
split_feature=1 3 4 2 3 0 2 2 0 3 3 3 2 3 4 3 2 5 2 0 0 3 0 2 6 2 0 0 3 0
split_gain=296.302 252.07 128.205 104.589 256.331 230.388 230.336 203.079 163.659 126.532 121.243 114.954 87.8679 35.8931 40.0465 36.5654 45.6813 34.1417 30.9799 27.388 26.4596 27.2498 23.739 101.421 272.09 98.0481 2251.71 8056.5 22.2675 21.4476
threshold=-0.56625932983645799 -0.28137771735532618 -0.29255033307082018 0.4673860905197787 -0.21755185129970919 1.1601405725998855 0.14662231564394199 -0.12069163088031269 3.3172347632193198 -0.2042388152854242 -0.24435453182775799 -0.19577693192633025 -0.27565738646134053 -0.28669971701716518 -0.29255033307082018 -0.28451730867731745 -0.27919645598579956 -0.18595465448351745 -0.29715225198716483 -1.6363528732194459 1.6519861535228835 -0.28839784292848741 1.1601405725998855 1.0267136615809862 -0.31572749075941375 1.2056528033560532 2.6286509499271227 2.2808458605601456 -0.12958185741790731 3.3172347632193198
decision_type=2 2 2 2 2 2 2 2 2 2 2 2 2 2 2 2 2 2 2 2 2 2 2 2 2 2 2 2 2 2
left_child=1 12 3 4 7 17 9 8 -3 -6 -9 -8 13 18 15 16 -15 19 -1 -5 21 -20 -2 -24 25 -25 27 -27 -7 -14
right_child=22 2 -4 5 6 28 11 10 -10 -11 -12 -13 29 14 -16 -17 -18 -19 20 -21 -22 -23 23 24 -26 26 -28 -29 -30 -31
leaf_value=0.066273143780344046 -0.053342177037112359 0.031782344858703807 -0.050751479734925102 0.20932235542624333 0.13693487272905908 -0.056180548289967984 -0.049703431517277408 -0.055384927574150193 -0.75604675219059492 0.3955469275536625 0.0054378866782767241 0.058960391176842465 -0.049558073265289944 0.12425960157732761 -0.059855550924164183 0.32402268094939085 -0.042481998378596217 -0.13143679837605465 -0.050040063645556715 -0.06876187285260868 -0.14213433970148012 0.040778722404731932 -0.049444132063545351 0.15557344087122926 -0.072075573881077798 3.1154516171010438 0.20549961675553208 45.319490549505588 0.088171184798524982 -0.65147292893556408
leaf_weight=9.0912832440226321 1556.0499589993597 220.08533893374224 134.64413511365319 0.90609938260597189 21.590673032684496 2.9778364041121703 30.739004703940168 212.70586861998294 0.66117972124030089 6.0566056026190713 133.26927230902839 116.88933946598547 677.05223140330804 12.351413224125285 5.9206387100564362 1.5186225529760147 6.1543265413492927 32.654753818234589 25.757569489564045 38.78785533327639 5.10851727289264 12.158128230599688 103.62426830892201 3.7078490335205379 11.224149096524437 0.16320117190480266 2.9097935630488792 0.01214963011443615 25.976684435886398 0.14802819162969072
leaf_count=3139 2708654 56681 166145 246 1441 656 4536 196667 46 274 22670 3454 1044657 651 8030 44 683 6918 34432 9459 1625 2741 172496 33 6239 223 189 74 630 101
internal_value=-0.0367006 -0.0222017 -0.00544473 0.0017891 0.00829537 -0.0458662 0.0611391 -0.00804813 0.0294226 0.193588 -0.031956 0.0363345 -0.0438994 0.00633244 0.054385 0.0881627 0.0688075 -0.0935676 -0.0175899 -0.062414 -0.0353107 -0.0209179 -0.0516792 -0.0304069 0.0790846 0.328848 0.537097 6.03967 0.0733253 -0.0496896
internal_weight=3410.9 1733.21 977.945 843.301 741.997 101.303 175.276 566.722 220.747 27.6473 345.975 147.628 755.261 78.0605 25.945 20.0244 18.5057 72.3487 52.1155 39.694 43.0242 37.9157 1677.69 121.641 18.0171 6.79299 3.08514 0.175351 28.9545 677.2
internal_count=4453834 1565926 469823 303678 285769 17909 9705 276064 56727 1715 219337 7990 1096103 51345 9408 1378 1334 16623 41937 9705 38798 37173 2887908 179254 6758 519 486 297 1286 1044758
is_linear=0
shrinkage=0.05


Tree=17
num_leaves=31
num_cat=0
split_feature=1 3 4 2 3 0 2 3 3 2 3 2 0 2 3 0 4 2 0 3 2 0 2 6 2 0 2 3 3 0
split_gain=300.533 244.619 122.681 94.6993 190.097 163.165 142.384 140.2 108.96 86.2658 68.4779 84.9091 45.0778 29.3096 28.5506 27.8591 27.1976 61.0888 34.4946 32.1942 24.8941 23.9789 99.2047 258.03 126.149 369.704 23.1336 52.0367 41.6685 19.4051
threshold=-0.56625932983645799 -0.28129121579804056 -0.29255033307082018 -0.19891307701405062 -0.26715542022163385 3.3172347632193198 -0.15495368325757314 -0.25966928653893923 -0.23951250162679824 -0.27334328649932826 -0.2732313466964002 -0.23479956776019387 3.275076570568777 -0.1959444339608449 -0.28881442923828127 -1.65040560410296 -0.29255033307082018 -0.29629534558881238 -0.80021538565034944 -0.28861858971258675 -0.29864324337115994 1.1601405725998855 1.0267136615809862 -0.31572749075941375 1.2056528033560532 2.7762046242040221 -0.20447747406951219 -0.26894731209102246 -0.27068612487482951 -1.5941946805689031
decision_type=2 2 2 2 2 2 2 2 2 2 2 2 2 2 2 2 2 2 2 2 2 2 2 2 2 2 2 2 2 2
left_child=1 9 3 10 5 13 7 -6 -8 14 11 15 -13 -5 20 -3 17 19 -19 -16 -1 29 -23 24 -24 -26 28 -28 -12 -2
right_child=21 2 -4 4 6 -7 8 -9 -10 -11 26 12 -14 -15 16 -17 -18 18 -20 -21 -22 22 23 -25 25 -27 27 -29 -30 -31
leaf_value=0.10426645062442219 -0.074257096772459605 0.64806624385023082 -0.0507472952421993 -0.18836292696343898 0.11057260950604422 -1.6873677967749601 -0.026968103974889399 1.1288699147697299 0.018629961213100045 -0.049741953231585485 0.11640571909002642 -0.024374642959963614 -0.75249813703982138 -0.050609610314967961 0.20896750722370641 0.075401051920171491 -0.056500319330698684 0.12586816910198112 0.0082584235139703741 0.70915134816694825 -0.05005984188541665 -0.049296594668389315 0.14036403209730358 -0.071276676352245702 1.5727468003277159 0.24655959051515644 -0.033895478241922135 0.23537804598391143 0.31906571483872931 -0.051879508358316423
leaf_weight=2.8839914056006846 104.23482249559675 0.21362561418209125 127.92490470689415 3.9723020148232129 24.812279186794289 0.15314700433177009 199.75628094070396 0.34268542856432205 380.70078136839663 642.57077759234085 12.05543381499592 37.007417972898111 0.213793289542905 138.31696706495109 1.5901862049358895 36.310390774212578 8.7886466529788532 7.446861903590615 38.296894753322704 0.40329411439597507 27.819724357163068 98.858143638714211 3.8987044472625056 10.793366566998968 0.70262957562226835 2.0847571718259132 5.4572268662741408 2.6729496028873125 3.2121821576729443 1372.7788693920065
leaf_count=464 157097 10 165854 1250 2058 38 80496 23 32760 1043559 1115 9626 21 168074 279 3355 9551 1348 7326 73 37754 172496 33 6239 325 161 719 42 131 2551557
internal_value=-0.0361293 -0.0215256 -0.00511457 0.00179217 -0.00423902 -0.0562109 0.00798498 0.124445 0.00293802 -0.0434082 0.0482357 0.0245896 -0.0285569 -0.0544553 0.00324867 0.0787505 0.0243309 0.0392123 0.0274047 0.310158 -0.035564 -0.0517373 -0.0298818 0.0799223 0.324003 0.580858 0.122764 0.0546333 0.159044 -0.0534587
internal_weight=3296.27 1702.92 973.122 845.197 748.054 142.442 605.612 25.155 580.457 729.8 97.143 73.7452 37.2212 142.289 87.2296 36.524 56.5259 47.7372 45.7438 1.99348 30.7037 1593.35 116.338 17.4795 6.68609 2.78739 23.3978 8.13018 15.2676 1477.01
internal_count=4453834 1565926 465572 299718 284699 169362 115337 2081 113256 1100354 15019 13012 9647 169324 56795 3365 18577 9026 8674 352 38218 2887908 179254 6758 519 486 2007 761 1246 2708654
is_linear=0
shrinkage=0.05


Tree=18
num_leaves=31
num_cat=0
split_feature=1 3 4 2 3 0 2 2 0 3 2 3 2 3 6 3 2 4 2 0 2 6 2 0 3 0 1 5 2 6
split_gain=301.987 236.301 116.309 95.5907 211.249 204.852 204.523 167.153 171.366 121.831 104.48 88.5689 85.3328 30.4034 35.8067 27.5033 27.1164 26.2359 28.8464 23.4829 95.4406 252.671 189.076 1197.55 19.9041 19.7739 41.7615 148.715 1935.05 69998.1
threshold=-0.56625932983645799 -0.28137771735532618 -0.29255033307082018 0.4673860905197787 -0.21557570073311541 1.1601405725998855 0.2010948997619364 -0.12069163088031269 3.3172347632193198 -0.2479893272648977 0.079804971744748515 -0.18467520442218213 -0.27334328649932826 -0.062022687951713805 -0.1585999743043309 -0.28669971701716518 -0.2927009901729421 -0.29255033307082018 -0.286532385438239 1.1601405725998855 1.0267136615809862 -0.31572749075941375 1.2056528033560532 2.7762046242040221 -0.12958185741790731 -1.5941946805689031 1.4728067968922898 -0.32481132402411184 0.2010948997619364 -0.33117030494741401
decision_type=2 2 2 2 2 2 2 2 2 2 2 2 2 2 2 2 2 2 2 2 2 2 2 2 2 2 2 2 2 2
left_child=1 12 3 4 7 13 10 8 -3 -9 -6 -8 15 14 -5 16 -1 18 -17 25 -21 22 -22 -24 -7 26 -2 28 29 -28
right_child=19 2 -4 5 6 24 11 9 -10 -11 -12 -13 -14 -15 -16 17 -18 -19 -20 20 21 -23 23 -25 -26 -27 27 -29 -30 -31
leaf_value=0.022118540728667965 -0.053752434303812636 0.02819095615203427 -0.050739608683070994 -0.036885067976151403 0.37202000091523341 -0.056166883253426905 -0.05176837417142649 -0.060971003656725434 -0.85899734099607705 -0.0013109503182094587 0.12174906270721271 0.046438335676008226 -0.049884448263933755 0.026002181015889858 -0.11912826486989173 0.23056478800672783 -0.049148539504416069 -0.059582877681740004 0.04408546501707987 -0.049140249540491628 0.1285308387756402 -0.070534266678142138 3.7183976355726571 0.25438132707792421 0.082762139234414639 -0.051941876735891991 -150.31826975974045 -0.086064241444017198 -0.088403760743098345 0.15845261021442164
leaf_weight=23.308356607652968 68.307255905712637 228.67727014992823 121.85813512391508 18.005107476196933 4.6504833316451757 2.8618847558391307 29.77349939965643 159.86782802483617 0.54559256850524107 184.12908829860555 40.375992259485201 100.29704395321156 607.14938208621061 5.392986052178812 49.948044057352284 2.2632224969565895 31.232162026310107 5.5579640928872314 24.780393439781619 94.328545926602359 4.0407356251668416 10.372283134405825 0.28669086418813128 1.9233656685501044 25.996892447927934 1304.2986905319149 0.0079856921196324038 26.412044315903444 2.9170467580344348 0.23983407049672578
leaf_count=11087 135093 56681 166145 5499 162 656 3984 190781 46 29561 2484 2070 1039523 667 10457 35 35186 8389 1883 172496 33 6239 325 161 630 2551557 82 19716 1723 483
internal_value=-0.0356448 -0.0209631 -0.00505454 0.00149096 0.00768578 -0.0438658 0.0557526 -0.00699682 0.0260793 -0.0290371 0.147598 0.0239586 -0.0432436 -0.088268 -0.0973368 0.00302548 -0.0186919 0.0393575 0.0596915 -0.0518163 -0.029673 0.0807947 0.331903 0.703737 0.0689847 -0.0535685 -0.0752429 -0.124875 -0.448762 -4.69048
internal_weight=3179.81 1666.67 972.38 850.522 748.317 102.205 175.097 573.22 229.223 343.997 45.0265 130.071 694.291 73.3461 67.9532 87.1421 54.5405 32.6016 27.0436 1513.13 110.952 16.6231 6.25079 2.21006 28.8588 1402.18 97.8842 29.5769 3.16487 0.24782
internal_count=4453834 1565926 469823 303678 285769 17909 8700 277069 56727 220342 2646 6054 1096103 16623 15956 56580 46273 10307 1918 2887908 179254 6758 519 486 1286 2708654 157097 22004 2288 565
is_linear=0
shrinkage=0.05


Tree=19
num_leaves=31
num_cat=0
split_feature=1 3 0 1 5 2 2 3 4 2 3 0 2 2 3 3 3 2 3 5 3 2 4 2 0 0 2 6 2 0
split_gain=262.295 228.957 131.532 475.503 1206.82 11989.1 26001 1074.42 110.849 85.0153 183.862 181.996 158.656 137.398 126.299 116.961 94.1525 83.9497 83.6744 26.3817 24.8573 36.7563 23.2084 43.7159 22.9283 20.4898 93.7774 250.9 279.789 408.804
threshold=-0.56625932983645799 -0.28137771735532618 -1.6574319695447171 1.4728067968922898 -0.32481132402411184 -0.015332495274257538 -0.23858255637827983 -0.2799653199279673 -0.29255033307082018 0.4673860905197787 -0.21755185129970919 1.1601405725998855 -0.11764181989879118 0.2010948997619364 -0.253555356469995 -0.2479893272648977 -0.1920529222430685 -0.27334328649932826 -0.18467520442218213 -0.18595465448351745 -0.28744405772751408 -0.2927009901729421 -0.29255033307082018 -0.29085383837160622 -1.6363528732194459 1.1601405725998855 1.0267136615809862 -0.31572749075941375 1.2056528033560532 2.941324212085314
decision_type=2 2 2 2 2 2 2 2 2 2 2 2 2 2 2 2 2 2 2 2 2 2 2 2 2 2 2 2 2 2
left_child=1 17 3 -2 5 6 -5 -8 9 10 12 19 14 16 -3 -14 -12 20 -15 24 21 -1 23 -22 -11 -4 -27 28 -28 -30
right_child=2 8 25 4 -6 -7 7 -9 -10 11 13 -13 15 18 -16 -17 -18 -19 -20 -21 22 -23 -24 -25 -26 26 27 -29 29 -31
leaf_value=0.022764365046675748 -0.050023502689102065 0.017400965209769678 -0.052096376497366252 128.88071896272837 -0.051651031091889857 0.61743052417218836 -0.050029118458186361 21.438428895074747 -0.050731053075319624 0.18632026586856565 0.093976700373124625 0.06604000320103727 -0.063077949517928583 -0.051624436476224257 0.23786388653865337 -0.0025354033241996657 0.31752781005663044 -0.049806104309926769 0.04315475507544117 -0.11455916245034521 0.60040719123894193 -0.066102756379549529 -0.058283480345918653 0.041531192486773727 -0.060793810664106732 -0.048974922564133619 0.11905941795776638 -0.069848578210009157 1.9545256997046185 0.32861983945725753
leaf_weight=23.021973911236273 3.3582667348668402 234.03870552965705 1327.979682505957 0.0058170763077214352 0.61765692450510234 0.28240423289466321 0.01163415261544287 0.011634152615442874 115.93412031959122 0.96144776992519254 52.671368532589547 28.637645701471001 146.70326578669918 30.134549212176353 6.6817872894919494 174.85621685112713 5.1725071556869073 578.42436459353939 102.47367971963337 34.178222082484496 0.35351862641982634 23.526004799379734 6.1344417153909481 34.220645154302474 39.638039884020067 90.023473592644436 4.1412277323922089 9.9608106942324337 0.58281061494380981 1.1483500279064172
leaf_count=10707 7154 58291 2700253 27 1098 77 20 25 166145 246 3116 1286 188886 4406 331 28556 113 1039523 2070 6918 22 33928 8924 2999 9459 172496 33 6239 361 125
internal_value=-0.0340006 -0.0203185 -0.049582 0.226947 1.22802 3.76549 34.3315 10.6942 -0.00484799 0.00136521 0.00720526 -0.0411429 -0.00717653 0.0496652 0.0235205 -0.0301564 0.113967 -0.0429097 0.0216167 -0.0821908 0.00280655 -0.0221503 0.0313433 0.0472457 -0.0549418 -0.0504088 -0.0292386 0.0829771 0.342202 0.875995
internal_weight=3075.89 1637.76 1438.12 4.28741 0.929147 0.31149 0.0290854 0.0232683 972.082 856.147 752.732 103.415 562.28 190.452 240.72 321.559 57.8439 665.681 132.608 74.7777 87.2566 46.548 40.7086 34.5742 40.5995 1433.84 105.857 15.8332 5.87239 1.73116
internal_count=4453834 1565926 2887908 8401 1247 149 72 45 469823 303678 285769 17909 276064 9705 58622 217442 3229 1096103 6476 16623 56580 44635 11945 3021 9705 2879507 179254 6758 519 486
is_linear=0
shrinkage=0.05


Tree=20
num_leaves=31
num_cat=0
split_feature=1 3 4 2 2 0 3 2 2 3 3 0 3 3 6 3 2 4 2 0 0 2 6 2 0 0 3 3 6 2
split_gain=283.699 221.582 105.612 82.4818 75.4402 161.417 160.88 139.535 133.547 125.206 113.571 109.51 76.1426 25.5931 27.6645 22.7157 21.035 20.9971 43.0755 22.8671 20.4794 91.6879 257.224 523.989 2890.16 29.9784 19.3951 18.136 15.1073 38.3651
threshold=-0.56625932983645799 -0.28137771735532618 -0.29255033307082018 -0.27334328649932826 0.4673860905197787 1.1601405725998855 -0.21557570073311541 -0.12069163088031269 0.12277816520478062 -0.25669242194651354 -0.2479893272648977 1.1039296490658286 -0.20164334989931978 -0.062022687951713805 -0.1585999743043309 -0.28881442923828127 -0.29864324337115994 -0.29255033307082018 -0.29775192449562654 -0.80021538565034944 1.1601405725998855 1.0267136615809862 -0.31572749075941375 1.2056528033560532 2.941324212085314 3.1556283580589057 -0.28876356632259736 -0.12958185741790731 -0.32909904821642538 -0.26858948892445811
decision_type=2 2 2 2 2 2 2 2 2 2 2 2 2 2 2 2 2 2 2 2 2 2 2 2 2 2 2 2 2 2
left_child=1 3 4 15 6 13 7 9 11 -3 -9 -8 -10 14 -6 16 -1 18 26 -20 -2 -22 23 -23 -25 -26 -17 -7 29 -5
right_child=20 2 -4 28 5 27 8 10 12 -11 -12 -13 -14 -15 -16 17 -18 -19 19 -21 21 22 -24 24 25 -27 -28 -29 -30 -31
leaf_value=0.084625275156882659 -0.052386510681008469 0.01276052919908976 -0.050720577295344418 -0.28665523278727778 -0.031622953534862823 -0.05618248892413133 0.30408260623658467 -0.060226048864680783 -0.053965963948195139 0.15460059615217361 -0.0012955831199118046 0.07417644985460746 0.045142207442719406 0.026402845417332722 -0.10309551697927294 0.12133435127440205 -0.050059299219920896 -0.056392607865655309 0.098416640599613192 0.0092030875485037394 -0.048800441971980607 0.11130817287002977 -0.069219472557210587 8.1787700241557513 0.24992589689537348 0.99943790925667464 0.52007189892599692 0.075981253582535366 -0.048842326827762399 -0.029546779849810984
leaf_weight=3.2820394717855406 1266.2820960586614 221.95186785754547 110.30217328722006 2.3462409135293569 18.251116724066101 2.8863435346866053 8.4572936873883524 146.9674635412272 22.432830879001642 16.731285310491302 184.26255117990289 13.364506045358132 142.39682733831953 5.5997972955896236 52.438758645570523 0.59603078686632216 24.839071738242637 7.7568266459014685 8.6946598664508183 41.306026042177109 85.931547081402698 4.206268610124865 9.5589360698068742 0.1353624369743327 0.80035589635372162 0.16009722449234687 0.62451389851048478 25.779663224976161 544.97762982399615 3.8022280395082921
leaf_count=464 2708654 55958 166145 1103 5499 656 687 190781 3221 769 29561 97 4695 667 10457 51 37754 9336 1379 7549 172496 33 6239 361 44 81 47 630 1033422 4998
internal_value=-0.0339096 -0.019687 -0.00465522 -0.0425759 0.00124262 -0.0384819 0.00675347 -0.00644152 0.0470425 0.0227033 -0.0274432 0.163279 0.0316539 -0.0764914 -0.0846423 0.00263886 -0.0343401 0.0202707 0.0318804 0.0247165 -0.05066 -0.0289688 0.0857049 0.365013 1.33885 0.374862 0.325356 0.0626739 -0.0497216 -0.127659
internal_weight=2977.12 1610.05 971.822 638.225 861.52 104.956 756.565 569.913 186.651 238.683 331.23 21.8218 164.83 76.2897 70.6899 87.0992 28.1211 58.9781 51.2212 50.0007 1367.07 100.793 14.861 5.30208 1.09582 0.960453 1.22054 28.666 551.126 6.14847
internal_count=4453834 1565926 469823 1096103 303678 17909 285769 277069 8700 56727 220342 784 7916 16623 15956 56580 38218 18362 9026 8928 2887908 179254 6758 519 486 125 98 1286 1039523 6101
is_linear=0
shrinkage=0.05


Tree=21
num_leaves=31
num_cat=0
split_feature=1 3 4 2 2 3 2 2 0 0 2 3 2 3 2 6 3 2 4 2 3 0 0 2 6 2 0 0 0 2
split_gain=285.093 213.606 101.506 78.4915 74.4461 82.3875 160.692 135.993 197.585 108.431 105.642 52.6131 50.5242 34.8955 29.6603 21.8895 21.2782 32.4248 21.5044 71.1056 21.3785 20.7469 20.6726 91.4721 258.051 832.412 420.695 74.0848 13.0595 12.8517
threshold=-0.56625932983645799 -0.28107574387890449 -0.29255033307082018 -0.27334328649932826 -0.2367565604010762 -0.23565039566739238 0.30318135313671873 -0.11764181989879118 3.3172347632193198 1.1250087453911 1.0000000180025095e-35 -0.2479893272648977 -0.25980548608696014 -0.27747421521066568 -0.2438831742790622 -0.31479727222246723 -0.28775738020825159 -0.29423559727445531 -0.29255033307082018 -0.2927009901729421 -0.28744405772751408 1.6519861535228835 1.1601405725998855 1.0267136615809862 -0.31572749075941375 1.2056528033560532 3.1204965308501209 3.1556283580589057 1.1601405725998855 0.89162308428819281
decision_type=2 2 2 2 2 2 2 2 2 2 2 2 2 2 2 2 2 2 2 2 2 2 2 2 2 2 2 2 2 2
left_child=1 3 4 16 12 7 10 8 -6 -8 -7 -9 -3 14 -14 -15 17 28 19 -18 -21 -19 29 -24 25 -25 -27 -28 -1 -2
right_child=22 2 -4 -5 5 6 9 11 -10 -11 -12 -13 13 15 -16 -17 18 21 -20 20 -22 -23 23 24 -26 26 27 -29 -30 -31
leaf_value=0.0053593009361881903 -0.051006476775530857 0.59906573307514221 -0.050710975588218125 -0.048860771097848352 0.015659765370514094 0.19120337871206947 -0.042239477681325188 -0.062271254511898501 -1.0554371065568127 0.042175629434515388 0.038076830877694333 -0.014392124505131394 0.075463612033632152 0.31244046415362714 -0.050820309365031069 0.094220735012060186 0.75839556768745553 -0.047565531416274752 -0.057044366077697209 -0.1649488033635953 0.041480554118635354 -0.20344610612023942 -0.048616654841927565 0.10485036566044914 -0.068646526426652379 2.9901524224612341 0.24291228837865089 1.9970206254871237 0.11401453146462431 -0.071032995320400458
leaf_weight=16.848299728502756 1116.9639562962313 0.45614913478493946 104.50123026336473 539.75179084484421 207.43500259018808 12.009100463135665 130.63776037579527 135.98206064643063 0.43145743600604092 53.669080891735376 181.43038024645276 99.260148021872595 20.660862985532738 2.1521241189911962 5.9998872694559422 2.4659271342679814 0.3421742640202855 20.28005982654577 6.5780015544419248 1.2990738309163123 36.324293585610576 2.3856694999849415 82.041948288502425 4.2410321089634362 9.1666962630116124 0.40949894700159717 0.27297145128250122 0.077223388489983336 3.3084948571631676 86.300014172786859
leaf_count=7562 2581793 16 165213 1051363 52313 770 9463 192626 44 1125 16112 17104 1217 64 1156 93 15 34813 9681 316 3021 1461 172496 33 6239 396 9 81 378 126861
internal_value=-0.0333011 -0.0190625 -0.00420077 -0.041744 0.00149995 -0.00140512 0.0157511 -0.0160307 0.0134365 -0.0176583 0.0475832 -0.0420687 0.0766424 0.0690237 0.047044 0.195916 0.00222353 -0.022943 0.0264177 0.0408785 0.0343529 -0.0639727 -0.0506596 -0.0283569 0.0889647 0.377878 1.90207 0.62972 0.0231937 -0.0524428
internal_weight=2883.68 1584.21 957.091 627.118 852.59 820.855 377.746 443.109 207.866 184.307 193.439 235.242 31.735 31.2788 26.6608 4.61805 87.3661 42.8225 44.5435 37.9655 37.6234 22.6657 1299.47 96.2094 14.1674 5.00073 0.759694 0.350195 20.1568 1203.26
internal_count=4453834 1565926 457316 1108610 292103 289557 27470 262087 52357 10588 16882 209730 2546 2530 2373 157 57247 44214 13033 3352 3337 36274 2887908 179254 6758 519 486 90 7940 2708654
is_linear=0
shrinkage=0.05


Tree=22
num_leaves=31
num_cat=0
split_feature=1 3 4 2 2 3 0 2 2 3 0 0 3 3 3 4 3 2 0 2 6 2 0 2 0 2 2 3 0 3
split_gain=285.667 206.047 95.9127 79.7315 63.1079 136.503 134.391 112.548 111.631 108.224 105.031 68.4488 57.3232 25.4537 24.4224 23.5524 110.363 24.5872 20.5442 91.1753 268.946 2674.48 17148.9 20.386 17.4011 16.6982 16.5942 16.4638 13.3667 12.8108
threshold=-0.56625932983645799 -0.28137771735532618 -0.29255033307082018 -0.27675561212098637 0.4673860905197787 -0.21310787358487931 1.1601405725998855 -0.12069163088031269 0.17971245829564483 -0.2479893272648977 3.3172347632193198 1.5922620472679481 -0.14964332453404416 -0.28669971701716518 -0.10312832658559255 -0.29255033307082018 -0.28462602383451391 -0.27919645598579956 1.1601405725998855 1.0267136615809862 -0.31572749075941375 1.2056528033560532 3.1204965308501209 -0.29301964821652665 1.6519861535228835 0.89162308428819281 0.59563685780245501 -0.12958185741790731 3.1310360790127563 -0.28708405208634075
decision_type=2 2 2 2 2 2 2 2 2 2 2 2 2 2 2 2 2 2 2 2 2 2 2 2 2 2 2 2 2 2
left_child=1 3 4 13 5 7 14 10 11 -9 -3 -7 -10 23 26 16 17 -15 -2 -20 21 -21 -23 -1 -25 -16 -6 -8 -24 -26
right_child=18 2 -4 -5 6 8 27 9 12 -11 -12 -13 -14 15 25 -17 -18 -19 19 20 -22 22 28 24 29 -27 -28 -29 -30 -31
leaf_value=0.018131711147495524 -0.052474510847639523 0.021575732542878506 -0.050693357508578708 -0.048789061377294336 -0.061878724121173859 0.17432720264830653 -0.056231699767624155 -0.059272678572675 0.0091976192681107564 -0.0012284611057514509 -0.56672667407816535 0.046694607792006827 0.099914353063440625 0.078272936386728345 -0.010729309429146379 -0.060025260721531686 0.76635358345636628 -0.050669261014012028 -0.048423413443281868 0.099390681402182213 -0.068129155403291453 41.678249534591323 0.49243205291015624 -0.028769234389062849 -0.18390664655099456 -0.11711603930536592 -0.11835892731783348 0.071134261951601815 1.2362818103693387 0.069160334003959587
leaf_weight=23.780854549317155 1143.9023152474424 246.43396099977008 99.855861922007534 514.359124536997 27.503676628367643 22.612049045040429 2.8187058515613925 135.07909991092032 120.24729757510616 198.04305921512616 0.76101979951403009 19.618819605566792 20.362747084850525 16.482230105437345 21.342336049118813 4.3449994430981169 0.55059296637773769 4.7661579558625808 78.344413536072295 4.2499608121157024 8.784156855719699 0.028826917633806626 0.1149979755282402 20.920417831919625 3.2329374131149966 4.4589614411778227 24.669423576202774 25.409399016545578 0.12719272106107837 0.5916004666723883
leaf_count=10513 2708654 56681 166145 1047238 9043 1519 656 190781 5895 30488 46 145 214 651 141 7833 41 469 172496 33 6239 396 4 28100 1209 651 6788 630 86 49
internal_value=-0.0326943 -0.0184575 -0.00428343 -0.0417801 0.00104727 0.00607269 -0.0350648 -0.00579698 0.0437457 -0.0247651 0.0197646 0.115034 0.022335 0.00650107 -0.0689065 0.0462728 0.0674602 0.0493503 -0.0506495 -0.0278717 0.0931429 0.406491 5.22228 -0.0149265 -0.0466967 -0.029115 -0.0885847 0.0584162 0.883084 -0.144761
internal_weight=2793.8 1558.25 969.216 589.029 869.361 763.158 106.203 580.317 182.841 333.122 247.195 42.2309 140.61 74.6698 77.9744 26.144 21.799 21.2484 1235.55 91.6495 13.3051 4.52098 0.271018 48.5258 24.745 25.8013 52.1731 28.2281 0.242191 3.82454
internal_count=4453834 1565926 469823 1096103 303678 285769 17909 277996 7773 221269 56727 1664 6109 48865 16623 8994 1161 1120 2887908 179254 6758 519 486 39871 29358 792 15831 1286 90 1258
is_linear=0
shrinkage=0.05


Tree=23
num_leaves=31
num_cat=0
split_feature=1 3 4 2 6 3 2 3 3 2 0 3 2 0 3 3 0 2 3 5 2 0 0 0 0 4 4 2 2 3
split_gain=286.018 198.036 91.393 79.0116 58.7694 135.463 82.0083 83.4056 77.3438 76.1977 53.261 42.1224 39.923 104.05 53.7664 31.5638 29.3966 22.5148 21.1203 521.071 1621.46 7830.08 119487 17168.5 3828.46 55.3313 39.6556 268.842 34.8692 18.7873
threshold=-0.56625932983645799 -0.28137771735532618 -0.29255033307082018 -0.27334328649932826 -0.16885875932668817 -0.21755185129970919 -0.12069163088031269 -0.25669242194651354 -0.24435453182775799 0.074927021793237319 1.061771456415286 -0.21029309042040192 0.4673860905197787 1.1601405725998855 -0.14423780415858362 -0.078093680797432993 1.0687978218570431 -0.16373683886536503 -1.0000000180025095e-35 -0.32481132402411184 1.2056528033560532 -1.6223001423359316 1.1179823799493429 -1.3693509864326756 1.1601405725998855 0.25833978475504388 -0.014442153166697025 1.2056528033560532 4.3857786030725103 -0.28881442923828127
decision_type=2 2 2 2 2 2 2 2 2 2 2 2 2 2 2 2 2 2 2 2 2 2 2 2 2 2 2 2 2 2
left_child=1 3 4 29 5 6 7 -3 -8 10 -7 -11 14 15 17 -14 -16 -6 25 20 -20 -22 23 -23 -24 26 -2 -28 -21 -1
right_child=18 2 -4 -5 12 9 8 -9 -10 11 -12 -13 13 -15 16 -17 -18 -19 19 28 21 22 24 -25 -26 -27 27 -29 -30 -31
leaf_value=-0.033358001979039403 -0.052308202431474188 0.011628625942123771 -0.050676350790149371 -0.049336260219326251 0.024021564542792209 0.51397140279412268 -0.053935310600091005 0.14064989012609061 0.012851526762617633 -0.040046465570434217 0.14447625776701886 0.060927923618042105 -0.09173250873116881 0.05820598372637871 0.33861301489921036 -5.0616701953230024e-05 0.074042683794315917 -0.013357710131726989 0.030425739376786956 -0.05250420281356917 0.039501947002087659 137.59891669758173 0.065887806935304119 311.52665195614674 11.48867203261492 -2.918846822556509 -0.10656632667876176 -2.1136998829120253 -1.8887269024709799 0.017154113850946711
leaf_weight=26.176981546377647 934.46151449587217 161.84470353235184 95.01693311882741 478.57861831507512 47.531671192176873 1.4163123583419897 105.47360683563859 13.57678469859823 73.598137253206076 11.468964493891674 3.1320370547478045 103.85110502044019 51.73551725171825 19.051415413545065 1.5757728009926908 11.468857753212637 3.1461717651691319 264.24443704763519 7.6208777105652628 210.85947062587096 1.2588847871364519 0.0025426989672209235 0.18298853933811188 0.0032101171720171351 0.1224316825313565 0.016852146160089343 19.845250356689466 0.16824825804860566 0.025857391578908984 62.026993466081308
leaf_count=38218 2337205 36917 166145 1039523 10847 100 117253 503 11669 1215 28 3386 11149 1047 42 704 20 108798 8623 521201 22 53 10 530 486 3 19736 13 26 18362
internal_value=-0.0320602 -0.0178493 -0.00410761 -0.0413218 0.000960241 0.0128537 -0.00268354 0.0216143 -0.0264861 0.0588027 0.259534 0.0508857 -0.0131883 -0.0442218 -0.0051229 -0.0750962 0.162333 -0.00765907 -0.0506308 -0.0366678 0.331864 1.79501 8.89712 234.652 4.64486 -0.0538503 -0.0537997 -0.12344 -0.0527293 0.00216324
internal_weight=2709.48 1534.92 968.132 566.783 873.115 474.362 354.493 175.421 179.072 119.868 4.54835 115.32 398.754 82.2558 316.498 63.2044 4.72194 311.776 1174.57 220.076 9.19094 1.57006 0.311173 0.00575282 0.30542 954.492 954.475 20.0135 210.885 88.204
internal_count=4453834 1565926 469823 1096103 303678 171071 166342 37420 128922 4729 128 4601 132607 12900 119707 11853 62 119645 2887908 530951 9724 1101 1079 583 496 2356957 2356954 19749 521227 56580
is_linear=0
shrinkage=0.05


Tree=24
num_leaves=31
num_cat=0
split_feature=1 3 4 2 2 3 0 2 0 6 3 2 0 2 0 2 6 0 2 3 5 3 4 3 3 6 6 2 6 6
split_gain=310.485 190.408 87.064 77.628 55.3954 160.728 423.354 97.5997 78.2111 64.6613 50.4314 61.248 94.0933 24.569 24.5662 93.3713 269.165 277.436 45.1737 106.769 604.996 193.496 496.039 92.2155 4574.69 35762.4 1195.11 1417.32 64.5414 60.4943
threshold=-0.56625932983645799 -0.28137771735532618 -0.29255033307082018 -0.27334328649932826 -0.19891307701405062 -0.26756134261944559 3.3172347632193198 -0.17269441581236114 -0.46294984444600801 -0.17642458388833876 -0.2732313466964002 -0.23479956776019387 3.275076570568777 -0.1959444339608449 1.1601405725998855 1.0267136615809862 -0.31572749075941375 2.2808458605601456 0.89162308428819281 0.95752607797156331 -0.099482903397992747 1.429508663223326 0.76842350820112248 0.04628917995438412 1.0000000180025095e-35 -0.12883258808694956 -0.33219928992806408 1.4258164647838927 -0.33437473234704895 -0.12883258808694956
decision_type=2 2 2 2 2 2 2 2 2 2 2 2 2 2 2 2 2 2 2 2 2 2 2 2 2 2 2 2 2 2
left_child=1 3 4 -1 10 6 13 8 -7 -9 11 -3 -13 -6 18 -16 17 -17 -2 23 21 22 -21 24 28 -26 27 -25 -20 -28
right_child=14 2 -4 -5 5 7 -8 9 -10 -11 -12 12 -14 -15 15 16 -18 -19 19 20 -22 -23 -24 26 25 -27 29 -29 -30 -31
leaf_value=0.0020455273243884155 -0.051169371573452187 0.053662302706255285 -0.050656917300194164 -0.049216230913896652 -0.18558719368390514 0.5105681352713648 -4.392056489187472 0.01954784617829711 0.098566642832669693 -0.012498011314089525 0.09107438141640127 -0.027331815596447612 -1.577926045880794 -0.051865866196077429 -0.047988887617207765 0.23695990887199858 -0.06734135145398655 1.2992747161236411 -0.15175211781087261 -48.177943519189114 -0.050013096875917019 -7.5585304275645022 -0.050018452140067053 5.8649882974498846 0.06397309469705699 -65.230894785332708 0.51058982267931075 0.083496702063892633 -0.050024844576691811 -0.097493985244032091
leaf_weight=88.114511041915307 955.82447796979102 45.763487299230974 90.416729441272651 456.32081799381206 3.5427549659505635 1.2636712433304644 0.056318397503161033 302.07980875121888 13.021895804052857 328.69496007537981 28.434452551881805 39.695809430791996 0.098078511413404068 112.93497361148218 71.189860711166389 3.482417374982564 8.1342024308105554 0.74632190200733717 24.085362325348378 0.0010388978698756537 0.11715486063621838 0.019729661958990619 0.0011046343424823135 0.18971275197691184 0.17811223821468047 0.023768982574366215 0.43064652750854193 0.24024806627042494 44.216056432430726 8.1385681316401115
leaf_count=56580 2581793 3595 166145 1039523 1277 233 38 58703 633 59011 2007 9948 21 168212 172496 243 6239 276 439 57 461 152 5 25 45 192 83 319 124761 322
internal_value=-0.0320536 -0.0172727 -0.00394528 -0.0409197 0.000878363 -0.00398719 -0.0580287 0.00577573 0.135011 0.00284884 0.0333858 0.0142133 -0.0311535 -0.0559331 -0.0520404 -0.0259623 0.100874 0.424446 -0.0541487 -0.0908268 -1.4752 -9.10861 -23.376 -0.0883435 -0.108111 -7.62368 0.0621329 2.63448 -0.0858973 -0.0669347
internal_weight=2627.46 1510.44 966.003 544.435 875.586 761.594 116.534 645.06 14.2856 630.775 113.992 85.5574 39.7939 116.478 1117.02 83.5528 12.3629 4.22874 1033.47 77.6415 0.139028 0.0218732 0.00214353 77.5025 68.5033 0.201881 8.99918 0.429961 68.3014 8.56921
internal_count=4453834 1565926 469823 1096103 303678 288107 169527 118580 866 117714 15571 13564 9969 169489 2887908 179254 6758 519 2708654 126861 675 214 62 126186 125437 237 749 344 125200 405
is_linear=0
shrinkage=0.05


Tree=25
num_leaves=31
num_cat=0
split_feature=1 3 4 2 2 3 2 3 3 0 6 2 0 2 6 0 0 2 3 3 6 6 3 6 5 3 3 3 2 2
split_gain=304.927 182.908 83.4079 80.1975 52.3208 85.4823 82.7884 58.989 32.064 26.6755 388.596 27.3467 23.2084 89.7543 270.639 510.571 38.768 36.6688 87.3213 4409.62 2119.33 53.3027 61.1359 49.8751 38.2891 20.8386 20.164 17.9417 29.2676 17.5385
threshold=-0.56625932983645799 -0.28166248048191028 -0.29255033307082018 -0.27334328649932826 -0.2367565604010762 -0.2732313466964002 -0.20447747406951219 -0.26715542022163385 -0.27640906790484293 3.275076570568777 -0.31873358555440268 -0.22647193932439291 1.1601405725998855 1.0267136615809862 -0.31572749075941375 2.2808458605601456 2.4108336212326518 1.0267136615809862 0.04628917995438412 1.0000000180025095e-35 -0.33219928992806408 -0.33437473234704895 -0.10312832658559255 -0.12625947467095078 -0.32481132402411184 -0.26990266470021385 0.25143660537882478 -0.28775738020825159 -0.29391918189773997 -0.24048229456461032
decision_type=2 2 2 2 2 2 2 2 2 2 2 2 2 2 2 2 2 2 2 2 2 2 2 2 2 2 2 2 2 2
left_child=1 3 4 27 8 9 25 -8 29 11 -11 -6 17 -14 15 -15 -17 -2 19 21 -20 -19 -23 26 -25 -7 -22 28 -1 -3
right_child=12 2 -4 -5 5 6 7 -9 -10 10 -12 -13 13 14 -16 16 -18 18 20 -21 23 22 -24 24 -26 -27 -28 -29 -30 -31
leaf_value=0.019939518649772503 -0.051217401858332762 0.055440106081179052 -0.050786170984808893 -0.050064534591005343 0.0076790990368438439 0.085909971873070187 -0.047496556924501644 0.0055881660313586538 0.2641353972056586 -6.9925340655881101 -0.050312411907842594 -0.051891307961589174 -0.047765553127140661 0.23227652473326488 -0.066974579584713284 1.3546275309758455 2.3240127539546127 -0.1456702495634967 4.7242994310282702 -8.1317626812754238 0.73515103360740275 -0.047340589875487636 -1.5735171245772064 -0.48890597115296774 -0.071414372223215783 0.25267057644748997 0.10622120943835767 0.024007751551747544 -0.064110823743971229 -0.041895880745829311
leaf_weight=21.09185634192545 913.32218842005113 39.504040791657076 86.946991686797219 421.31576808279135 24.077703674498466 18.648332803044472 56.956806819602321 644.57614598798466 1.7182632526381656 0.021480782461367198 0.3272715352685357 96.397524026266098 68.026640646044385 3.3772936464407364 7.7787774752068852 0.15470296145696805 0.30943515337702276 23.844877428805773 0.23688461906608793 0.17082440785485786 0.24410366596930533 37.362760319537301 0.065734045668810803 0.59441991278254125 7.2170344139112768 2.0825686324386643 0.266659882850945 46.072511999898552 20.350724455005547 5.2420056507689869
leaf_count=8474 2596056 3528 167767 1016277 2998 1213 61068 115337 26 11 267 141011 172496 243 6239 32 244 184 542 214 14 110240 898 26 390 33 90 11194 35740 982
internal_value=-0.0313426 -0.016711 -0.00404537 -0.0410176 0.000523187 -0.00232353 0.00418826 0.00127827 0.0521765 -0.0412498 -0.477906 -0.0399858 -0.0517879 -0.0258284 0.102596 0.44597 2.0009 -0.0538905 -0.0887662 -0.109608 0.0608564 -0.0872434 -0.0500209 -0.0718844 -0.103184 0.102662 0.406799 0.00253622 -0.0213341 0.0440372
internal_weight=2548.3 1485.33 976.499 508.831 889.552 843.088 722.264 701.533 46.4643 120.824 0.348752 120.475 1062.97 79.6468 11.6202 3.84143 0.464138 983.325 70.0033 61.4442 8.5591 61.2734 37.4285 8.32222 7.81145 20.7309 0.510764 87.5151 41.4426 44.746
internal_count=4453834 1565926 494241 1071685 326474 321938 177651 176405 4536 144287 278 144009 2887908 179254 6758 519 276 2708654 112598 111536 1062 111322 111138 520 416 1246 104 55408 44214 4510
is_linear=0
shrinkage=0.05


Tree=26
num_leaves=31
num_cat=0
split_feature=1 3 4 2 2 0 3 2 3 2 3 3 0 2 2 3 5 3 5 4 5 5 1 5 3 0 0 6 3 2
split_gain=303.967 176.51 79.9452 73.449 53.0408 109.996 106.453 105.327 148.965 86.7594 56.8245 52.0143 29.6873 22.6913 169.296 6600.32 7468.83 849.627 1452.24 112.934 1147.2 3912.6 87.1464 86.6695 308.177 1251.4 22.4523 25.9898 18.0707 17.8688
threshold=-0.56625932983645799 -0.28117821535369614 -0.29255033307082018 -0.27334328649932826 0.4673860905197787 1.1250087453911 -0.21310787358487931 0.065034950480389972 -0.22411704096266957 0.21680998915112545 -0.18191632375411612 -0.1920529222430685 3.275076570568777 1.4258164647838927 1.2056528033560532 0.04628917995438412 -0.18437509828178844 -0.022057812824974595 -0.31718597146570499 -0.28651761039127915 0.164356935925105 -0.31960758769133563 1.4728067968922898 -0.32481132402411184 -1.0000000180025095e-35 -1.6293265077776888 -1.6363528732194459 -0.17465895561311065 -0.090959417258994327 1.0267136615809862
decision_type=2 2 2 2 2 2 2 2 2 2 2 2 2 2 2 2 2 2 2 2 2 2 2 2 2 2 2 2 2 2
left_child=1 3 4 -1 6 26 7 8 -3 11 -11 -8 -9 14 29 17 -17 22 -19 23 21 -21 -16 24 -15 -26 27 -6 -28 -2
right_child=13 2 -4 -5 5 -7 9 12 -10 10 -12 -13 -14 19 15 16 -18 18 -20 20 -22 -23 -24 -25 25 -27 28 -29 -30 -31
leaf_value=0.0017108245239153567 -0.05101781080067256 -0.00047024348466519417 -0.050611864673581711 -0.048371333205132282 0.92239573063759739 0.053790602904052701 0.064929902200036693 -0.05000991819612436 0.15062618699343949 -0.051765406094307014 0.031189273992892931 0.18381347414601348 -0.79264842619737053 -0.097284078743560903 -0.75406721269975663 13.901217223234191 -0.063983521067895135 -29.048683460946211 -0.050593956059205893 -84.790361234175876 -0.25177649233937172 -4.6406129563921983 -0.066257119535789874 -0.055274454123286715 -0.0098954499634548929 -4.1585684381736492 -0.078393146427138155 0.085428716766846352 -0.020339856141614668 -0.094123611853293057
leaf_weight=88.465550690642544 932.78030215607987 449.6164369895327 81.646701245630879 424.47784973962962 0.10283264879944909 27.610347803353605 52.366685863823733 102.26557038687318 16.926384580321781 25.939159426372527 101.12792572582239 11.16174947917264 0.13474975174446413 4.5815263454522732 0.49056757687776364 0.1825780012877658 0.20129939062644631 0.0068767196807454538 0.0116018606350383 0.0017701130564091736 0.17220812553205178 0.010891830711108663 7.5196937658245133 39.144377603159896 0.69865009526867905 0.24568965990060998 59.933490041740434 0.94621396307552064 17.266701041226533 24.677612398365682
leaf_count=57026 2768552 162755 165526 1047600 114 1316 2264 106636 856 3601 1691 217 168 10645 15 60 82 54 29 126 110 36 16505 74299 9 863 15109 318 729 16523
internal_value=-0.0307031 -0.0161111 -0.0033164 -0.0397338 0.00114573 -0.0320114 0.00576695 -0.00506725 0.0050116 0.0381079 0.0142551 0.0858174 -0.0509872 -0.0517811 -0.0501666 0.173154 6.57808 -0.133084 -10.8421 -0.0865457 -1.3198 -15.8454 -0.10838 -0.0814418 -0.266807 -1.08926 -0.0622868 0.167472 -0.0654089 -0.0521288
internal_weight=2470.71 1459.99 947.045 512.943 865.398 105.86 759.539 568.943 466.543 190.596 127.067 63.5284 102.4 1010.73 965.871 8.41262 0.383877 8.02874 0.0184786 44.8551 0.18487 0.0126619 8.01026 44.6702 5.52587 0.94434 78.2492 1.04905 77.2002 957.458
internal_count=4453834 1565926 461300 1104626 295774 17586 278188 270415 163611 7773 5292 2481 106804 2887908 2801820 16745 142 16603 83 86088 272 162 16520 85816 11517 872 16270 432 15838 2785075
is_linear=0
shrinkage=0.05


Tree=27
num_leaves=31
num_cat=0
split_feature=1 3 2 4 2 3 0 2 3 3 3 2 0 2 6 2 2 3 3 6 0 5 5 6 3 2 2 3 0 6
split_gain=299.929 169.38 77.7396 76.2329 49.9638 148.982 104.366 85.4541 114.316 109.132 34.2915 39.2662 28.5356 110.688 310.269 3029.98 34.7631 66.7134 60305.1 2309.31 31161.2 473259 95.479 39.2387 690.867 28.2288 20.8256 19.0459 18.8642 1566.13
