{"learner":{"attributes":{"scikit_learn":"{\"_estimator_type\": \"classifier\"}"},"feature_names":[],"feature_types":[],"gradient_booster":{"model":{"gbtree_model_param":{"num_parallel_tree":"1","num_trees":"100"},"iteration_indptr":[0,1,2,3,4,5,6,7,8,9,10,11,12,13,14,15,16,17,18,19,20,21,22,23,24,25,26,27,28,29,30,31,32,33,34,35,36,37,38,39,40,41,42,43,44,45,46,47,48,49,50,51,52,53,54,55,56,57,58,59,60,61,62,63,64,65,66,67,68,69,70,71,72,73,74,75,76,77,78,79,80,81,82,83,84,85,86,87,88,89,90,91,92,93,94,95,96,97,98,99,100],"tree_info":[0,0,0,0,0,0,0,0,0,0,0,0,0,0,0,0,0,0,0,0,0,0,0,0,0,0,0,0,0,0,0,0,0,0,0,0,0,0,0,0,0,0,0,0,0,0,0,0,0,0,0,0,0,0,0,0,0,0,0,0,0,0,0,0,0,0,0,0,0,0,0,0,0,0,0,0,0,0,0,0,0,0,0,0,0,0,0,0,0,0,0,0,0,0,0,0,0,0,0,0],"trees":[{"base_weights":[-0E0,-1.367092E0,9.1419905E-1,-1.9422069E0,-8.0150527E-1,1.8142884E0,-1.7375327E0,-8.973946E-1,-1.9946259E0,-1.1767417E-1,-1.9790555E0,1.2371571E0,1.9275672E0,-1.9927137E0,1.9920467E0,-1.6888403E0,7.20548E-1,-1.9869179E0,-1.999548E-1,9.470324E-1,-1.9999807E-1,-1.9648509E0,-1.9986579E-1,1.8483753E0,-1.9169017E0,1.7234799E0,1.9796764E0,-1.9999936E-1,-1.6047369E0,1.9989346E0,-1.9477125E-1,1.7424522E-1,-1.9998354E-1,1.8348496E0,9.210304E-2,-1.9991628E0,-1.7362695E0,3.3579376E-1,1.9331347E0,-1.9327093E0,-1.9852841E0,1.9807512E0,1.6862165E0,-1.7745544E0,-1.9573766E0,1.9010785E0,-1.6943605E0,1.9130949E0,1.9936633E0,1.5564681E0,-1.9731736E0,1.999722E-1,-1.6190477E-1,1.9447808E0,-1.6581453E0,1.8541143E0,-1.8518518E-1,-1.998969E-1,1.7168036E0,-1.9999872E-1,-1.9260514E0,-7.097007E-1,-1.9631358E0,1.3573914E0,-1.9999413E-1,1.9863113E0,-1.9238297E0,-1.9976632E-1,-1.9049797E0,-1.9700166E0,-1.993556E0,1.8528978E0,1.999164E0,1.7045504E0,-4.2681774E-1,-1.898081E0,-1.5381383E0,-1.977017E0,-1.5870658E0,1.994335E0,1.7934531E0,-1.7796513E0,-4.283688E-1,1.9693558E0,-1.6954429E0,1.9710541E0,1.9981049E0,-1.9699249E-1,1.9852738E-1,-1.9961381E0,9.756098E-1,1.9853193E-1,-1.8260871E-1,-6.481665E-2,-1.9973199E-1,1.8612179E-1,7.605634E-2,1.9978458E-1,-1.9886686E-1,-1.50499E-1,-1.9940868E-1,-1.3206606E-1,1.2900471E-2,-1.5661691E-1,-1.997398E-1,1.01063006E-1,1.6935357E-1,1.9997637E-1,8.5003115E-2,-1.9686815E-1,-1.668919E-1,-1.8206492E-1,-1.9316752E-1,-1.9861688E-1,-1.9011281E-1,-1.9960867E-1,-1.922132E-1,1.911948E-1,-1.9861351E-1,1.9997415E-1,1.1666667E-1,1.4134686E-1,1.8053102E-1,3.6645964E-2,-1.6498801E-1,-9.842932E-2,-1.9451718E-1,-7.3321864E-2,-1.6721974E-1,-1.9993252E-1,-1.9516765E-1,-2.5E-2,-1.9667795E-1,1.994683E-1,-1.764706E-1,1.811726E-1,-1.7643979E-1,-1.0171653E-1,-1.832508E-1,1.6689038E-1,-1.9575511E-1,1.9876574E-1,1.9042441E-1,-3.8222224E-2,-1.7836858E-1,1.9916926E-1,-1.5519543E-1,1.9904141E-1,1.9993235E-1,-1.999613E-1,-1.3953489E-2,1.641791E-1,-1.764706E-1],"categories":[],"categories_nodes":[],"categories_segments":[],"categories_sizes":[],"default_left":[0,0,0,0,0,0,0,0,0,0,0,0,0,0,0,0,0,0,0,0,0,0,0,0,0,0,0,0,0,0,0,0,0,0,0,0,0,0,0,0,0,0,0,0,0,0,0,0,0,0,0,0,0,0,0,0,0,0,0,0,0,0,0,0,0,0,0,0,0,0,0,0,0,0,0,0,0,0,0,0,0,0,0,0,0,0,0,0,0,0,0,0,0,0,0,0,0,0,0,0,0,0,0,0,0,0,0,0,0,0,0,0,0,0,0,0,0,0,0,0,0,0,0,0,0,0,0,0,0,0,0,0,0,0,0,0,0,0,0,0,0,0,0,0,0,0,0,0,0,0,0,0,0],"id":0,"left_children":[1,3,5,7,9,11,13,15,17,19,21,23,25,27,29,31,33,35,-1,37,-1,39,-1,41,43,45,47,-1,49,51,-1,53,-1,55,57,59,61,63,65,67,69,71,73,75,77,79,81,83,85,87,89,-1,-1,91,93,95,-1,-1,97,-1,99,101,103,105,-1,107,109,-1,111,113,115,117,119,121,123,125,127,129,131,133,135,137,139,141,143,145,147,-1,-1,149,151,-1,-1,-1,-1,-1,-1,-1,-1,-1,-1,-1,-1,-1,-1,-1,-1,-1,-1,-1,-1,-1,-1,-1,-1,-1,-1,-1,-1,-1,-1,-1,-1,-1,-1,-1,-1,-1,-1,-1,-1,-1,-1,-1,-1,-1,-1,-1,-1,-1,-1,-1,-1,-1,-1,-1,-1,-1,-1,-1,-1,-1,-1],"loss_changes":[2.7791475E6,2.898575E5,3.1805755E6,2.4196625E4,3.6178066E5,6.50395E4,3.2139462E5,2.7032857E4,1.2E1,5.696193E5,4.20625E1,3.1469438E5,8.841E3,8.895E2,5.907578E2,8.21407E3,4.856253E3,5.0025E2,0E0,1.0942164E5,0E0,5.90625E1,0E0,2.931875E3,1.4920312E2,1.0268366E5,6.1275E2,0E0,6.7892197E3,6.474219E1,0E0,6.585124E3,0E0,1.8104492E2,1.5071598E4,5.5625E0,1.7806504E3,2.674298E5,1.4251703E4,6.3296875E1,3.453125E0,1.735E2,2.3817969E3,1.6871875E2,1.4685156E2,1.610375E3,9.0152344E2,2.3357438E4,5.125E1,9.2442444E2,3.5534375E2,0E0,0E0,1.6142065E2,3.4040796E2,1.7914062E1,0E0,0E0,2.6038135E3,0E0,4.774707E1,7.106344E2,8.209961E1,9.08675E3,0E0,1.0457188E3,7.5214844E0,0E0,5.5304688E1,1.9195312E1,3.015625E0,2.1551406E3,2.93125E1,1.784625E3,5.143402E2,1.6401367E2,2.1698877E2,7.1640625E0,5.2942236E2,1.1615625E2,4.857047E3,3.1364453E2,1.6990275E3,1.311875E2,2.0402441E2,6.5440938E3,2.5E-1,0E0,0E0,3.3132812E1,7.7744705E1,0E0,0E0,0E0,0E0,0E0,0E0,0E0,0E0,0E0,0E0,0E0,0E0,0E0,0E0,0E0,0E0,0E0,0E0,0E0,0E0,0E0,0E0,0E0,0E0,0E0,0E0,0E0,0E0,0E0,0E0,0E0,0E0,0E0,0E0,0E0,0E0,0E0,0E0,0E0,0E0,0E0,0E0,0E0,0E0,0E0,0E0,0E0,0E0,0E0,0E0,0E0,0E0,0E0,0E0,0E0,0E0,0E0,0E0,0E0,0E0,0E0,0E0],"parents":[2147483647,0,0,1,1,2,2,3,3,4,4,5,5,6,6,7,7,8,8,9,9,10,10,11,11,12,12,13,13,14,14,15,15,16,16,17,17,19,19,21,21,23,23,24,24,25,25,26,26,28,28,29,29,31,31,33,33,34,34,35,35,36,36,37,37,38,38,39,39,40,40,41,41,42,42,43,43,44,44,45,45,46,46,47,47,48,48,49,49,50,50,53,53,54,54,55,55,58,58,60,60,61,61,62,62,63,63,65,65,66,66,68,68,69,69,70,70,71,71,72,72,73,73,74,74,75,75,76,76,77,77,78,78,79,79,80,80,81,81,82,82,83,83,84,84,85,85,86,86,89,89,90,90],"right_children":[2,4,6,8,10,12,14,16,18,20,22,24,26,28,30,32,34,36,-1,38,-1,40,-1,42,44,46,48,-1,50,52,-1,54,-1,56,58,60,62,64,66,68,70,72,74,76,78,80,82,84,86,88,90,-1,-1,92,94,96,-1,-1,98,-1,100,102,104,106,-1,108,110,-1,112,114,116,118,120,122,124,126,128,130,132,134,136,138,140,142,144,146,148,-1,-1,150,152,-1,-1,-1,-1,-1,-1,-1,-1,-1,-1,-1,-1,-1,-1,-1,-1,-1,-1,-1,-1,-1,-1,-1,-1,-1,-1,-1,-1,-1,-1,-1,-1,-1,-1,-1,-1,-1,-1,-1,-1,-1,-1,-1,-1,-1,-1,-1,-1,-1,-1,-1,-1,-1,-1,-1,-1,-1,-1,-1,-1,-1,-1],"split_conditions":[-2.7044755E-1,-2.882784E-1,-2.9234904E-1,-2.959803E-1,-2.088134E-1,-2.4559319E-1,1.3193147E0,-2.8874886E-1,-3.1011847E-1,-2.9234904E-1,-5.6298986E-2,-9.005984E-2,-1.9833809E-1,1.9823885E0,-2.6575935E-1,-5.6298986E-2,-5.6298986E-2,-2.9383373E-1,-1.999548E-1,9.6304476E-1,-1.9999807E-1,-4.92546E-2,-1.9986579E-1,-3.1215245E-1,-2.5404143E-1,1.3469192E-1,-1.4381742E-1,-1.9999936E-1,-3.313806E-1,-1.5101841E-1,-1.9477125E-1,-3.2215312E-1,-1.9998354E-1,-2.9234904E-1,1.9823885E0,-3.0788028E-1,-2.8874886E-1,-5.6298986E-2,-3.230464E-1,-1.6233735E-1,-3.1169996E-1,9.6304476E-1,-5.6298986E-2,-3.229037E-1,1.8108101E0,-2.9026204E-1,1.9446477E0,3.9851275E-1,-7.506142E-2,2.675827E-1,7.2335905E-1,1.999722E-1,-1.6190477E-1,-2.980314E-1,-2.980314E-1,6.481431E-1,-1.8518518E-1,-1.998969E-1,-3.230464E-1,-1.9999872E-1,-2.8874886E-1,-3.230464E-1,-4.92546E-2,-2.8140256E-1,-1.9999413E-1,-3.313806E-1,-2.8097153E-1,-1.9976632E-1,-1.368191E-1,-3.2270625E-1,1.9966617E0,-5.6298986E-2,-3.1685677E-1,-2.640842E-1,-2.595E-1,-8.177435E-2,-3.2100785E-1,2.2967325E-1,1.9966617E0,-2.9083118E-1,-5.6298986E-2,-2.5244448E-1,1.9966617E0,-1.87368E-1,-2.0455115E-1,7.478947E-1,-7.083415E-3,-1.9699249E-1,1.9852738E-1,1.1695677E0,-1.8009283E-1,1.9853193E-1,-1.8260871E-1,-6.481665E-2,-1.9973199E-1,1.8612179E-1,7.605634E-2,1.9978458E-1,-1.9886686E-1,-1.50499E-1,-1.9940868E-1,-1.3206606E-1,1.2900471E-2,-1.5661691E-1,-1.997398E-1,1.01063006E-1,1.6935357E-1,1.9997637E-1,8.5003115E-2,-1.9686815E-1,-1.668919E-1,-1.8206492E-1,-1.9316752E-1,-1.9861688E-1,-1.9011281E-1,-1.9960867E-1,-1.922132E-1,1.911948E-1,-1.9861351E-1,1.9997415E-1,1.1666667E-1,1.4134686E-1,1.8053102E-1,3.6645964E-2,-1.6498801E-1,-9.842932E-2,-1.9451718E-1,-7.3321864E-2,-1.6721974E-1,-1.9993252E-1,-1.9516765E-1,-2.5E-2,-1.9667795E-1,1.994683E-1,-1.764706E-1,1.811726E-1,-1.7643979E-1,-1.0171653E-1,-1.832508E-1,1.6689038E-1,-1.9575511E-1,1.9876574E-1,1.9042441E-1,-3.8222224E-2,-1.7836858E-1,1.9916926E-1,-1.5519543E-1,1.9904141E-1,1.9993235E-1,-1.999613E-1,-1.3953489E-2,1.641791E-1,-1.764706E-1],"split_indices":[2,2,3,1,1,2,1,2,4,3,0,1,2,0,4,0,0,5,0,0,0,1,0,5,5,1,2,0,5,5,0,4,0,3,0,5,2,0,4,1,4,0,0,4,5,5,4,1,2,1,2,0,0,1,1,5,0,0,4,0,2,4,1,2,0,5,2,0,1,4,5,0,5,2,5,1,4,1,5,4,0,5,5,5,5,1,2,0,0,1,5,0,0,0,0,0,0,0,0,0,0,0,0,0,0,0,0,0,0,0,0,0,0,0,0,0,0,0,0,0,0,0,0,0,0,0,0,0,0,0,0,0,0,0,0,0,0,0,0,0,0,0,0,0,0,0,0,0,0,0,0,0,0],"split_type":[0,0,0,0,0,0,0,0,0,0,0,0,0,0,0,0,0,0,0,0,0,0,0,0,0,0,0,0,0,0,0,0,0,0,0,0,0,0,0,0,0,0,0,0,0,0,0,0,0,0,0,0,0,0,0,0,0,0,0,0,0,0,0,0,0,0,0,0,0,0,0,0,0,0,0,0,0,0,0,0,0,0,0,0,0,0,0,0,0,0,0,0,0,0,0,0,0,0,0,0,0,0,0,0,0,0,0,0,0,0,0,0,0,0,0,0,0,0,0,0,0,0,0,0,0,0,0,0,0,0,0,0,0,0,0,0,0,0,0,0,0,0,0,0,0,0,0,0,0,0,0,0,0],"sum_hessian":[2.223682E6,8.9111275E5,1.3325692E6,4.418335E5,4.4927925E5,9.9487475E5,3.376945E5,2.1109E4,4.207245E5,2.842245E5,1.6505475E5,1.6323575E5,8.31639E5,3.1606925E5,2.162525E4,1.4175E4,6.934E3,1.641165E5,2.56608E5,1.8153925E5,1.0268525E5,9.57625E4,6.929225E4,1.36738E5,2.649775E4,1.691585E5,6.624805E5,3.1024375E5,5.8255E3,2.1588E4,3.725E1,2.02775E3,1.214725E4,2.49975E3,4.43425E3,1.5646575E5,7.65075E3,1.1207225E5,6.9467E4,3.725525E4,5.850725E4,7.527625E4,6.146175E4,5.87625E3,2.06215E4,1.6080325E5,8.35525E3,1.150325E5,5.47448E5,6.0775E2,5.21775E3,2.158375E4,4.25E0,1.03125E3,9.965E2,2.48725E3,1.25E1,1.93875E3,2.4955E3,1.5469525E5,1.7705E3,1.3855E3,6.26525E3,7.797025E4,3.4102E4,6.852275E4,9.4425E2,1.1125E4,2.613025E4,2.064375E4,3.78635E4,9.489E3,6.578725E4,6.093325E4,5.285E2,3.855E3,2.02125E3,1.957875E4,1.04275E3,8.614325E4,7.466E4,7.8275E3,5.2775E2,1.13267E5,1.7655E3,8.996E4,4.57488E5,6.55E1,5.4225E2,5.17775E3,4E1,1.02075E3,1.05E1,2.5125E2,7.4525E2,2.4705E3,1.675E1,2.32E3,1.755E2,2.495E2,1.521E3,8.0125E2,5.8425E2,5.015E2,5.76375E3,3.8381E4,3.958925E4,6.772025E4,8.025E2,7.9725E2,1.47E2,6.2995E3,1.983075E4,1.670025E4,3.9435E3,3.654175E4,1.32175E3,9.34575E3,1.4325E2,6.574025E4,4.7E1,1.56725E4,4.526075E4,3.21E2,2.075E2,1.9E2,3.665E3,2.895E2,1.73175E3,1.0371E4,9.20775E3,2.31E2,8.1175E2,8.613575E4,7.5E0,7.4279E4,3.81E2,5.0875E2,7.31875E3,2.225E2,3.0525E2,8.839225E4,2.487475E4,1.115E2,1.654E3,8.94365E4,5.235E2,6.28E4,3.94688E5,5.168E3,9.75E0,3.25E1,7.5E0],"tree_param":{"num_deleted":"0","num_feature":"6","num_nodes":"153","size_leaf_vector":"1"}},{"base_weights":[-1.672123E-5,-1.242564E0,8.3107394E-1,-1.766096E0,-7.281842E-1,1.6491623E0,-1.5800518E0,-8.158618E-1,-1.8137819E0,-1.0691391E-1,-1.7993131E0,1.0763583E0,1.7439939E0,-1.8121041E0,1.8114823E0,-1.535534E0,6.548571E-1,-1.8066884E0,-1.818312E-1,8.591897E-1,-1.8187146E-1,-1.7861475E0,-1.8174879E-1,1.6965185E0,-1.7449936E0,1.5128381E0,1.7919203E0,-1.8187253E-1,-1.459245E0,1.8177565E0,-1.7749207E-1,1.5815853E-1,-1.818593E-1,1.6661824E0,8.370813E-2,-1.8170873E0,-1.5570436E0,3.0413637E-1,1.757734E0,-1.7563668E0,-1.8050896E0,1.8049939E0,1.5685602E0,-1.6029682E0,-1.7891337E0,1.736656E0,-1.6773311E0,1.6928686E0,1.8083866E0,1.4151413E0,-1.7942941E0,1.8184814E-1,-1.4961702E-1,1.7682213E0,-1.5046308E0,1.6837512E0,-1.6942456E-1,-1.817868E-1,1.5611515E0,-1.8186744E-1,-1.7249751E0,-5.024036E-1,-1.8009412E0,1.2278926E0,-1.8186818E-1,1.8061061E0,-1.7485077E0,-1.8165782E-1,-1.7306855E0,-1.7909358E0,-1.8127604E0,1.8061157E0,-2.0907333E-1,1.5837632E0,-7.3048097E-1,-1.6770273E0,7.9372346E-1,-1.8035902E0,-1.5105261E0,1.8145381E0,1.6492784E0,-1.7495636E0,-7.919419E-1,1.7836316E0,-1.601482E0,1.7758139E0,1.815809E0,-1.793548E-1,1.8054007E-1,-1.8152155E0,8.839098E-1,1.8052858E-1,-1.6724788E-1,-5.8424033E-2,-1.8164884E-1,1.5778072E-1,1.7532212E-1,1.8168102E-1,-1.8092476E-1,-1.7912398E-1,-1.0582216E-1,1.8862996E-2,-1.4736238E-1,-1.3034464E-1,-1.816052E-1,1.6136608E-1,9.0942435E-2,1.8185143E-1,7.665663E-2,-1.8222035E-1,-1.5887448E-1,-1.6527328E-1,-1.7553887E-1,-1.8059067E-1,-1.7271425E-1,-1.815104E-1,-1.7466752E-1,1.7029141E-1,1.8184142E-1,1.2331539E-1,1.6489068E-1,1.6732442E-1,-1.7518587E-1,-1.7701733E-1,-1.4987756E-1,-1.832354E-1,1.7994653E-1,-1.3507865E-1,-1.8069987E-1,-4.1334685E-2,-1.7978004E-1,1.8148543E-1,-1.5857257E-1,1.662841E-1,-1.22401334E-1,-1.5865226E-1,-1.8270358E-1,4.488851E-2,-1.8490253E-1,1.8137395E-1,1.7350225E-1,-1.712786E-1,-9.779143E-2,1.8044502E-1,-1.6376643E-1,1.8053941E-1,1.8178238E-1,-1.818407E-1,-1.26885045E-2,1.4925839E-1,-1.6204737E-1],"categories":[],"categories_nodes":[],"categories_segments":[],"categories_sizes":[],"default_left":[0,0,0,0,0,0,0,0,0,0,0,0,0,0,0,0,0,0,0,0,0,0,0,0,0,0,0,0,0,0,0,0,0,0,0,0,0,0,0,0,0,0,0,0,0,0,0,0,0,0,0,0,0,0,0,0,0,0,0,0,0,0,0,0,0,0,0,0,0,0,0,0,0,0,0,0,0,0,0,0,0,0,0,0,0,0,0,0,0,0,0,0,0,0,0,0,0,0,0,0,0,0,0,0,0,0,0,0,0,0,0,0,0,0,0,0,0,0,0,0,0,0,0,0,0,0,0,0,0,0,0,0,0,0,0,0,0,0,0,0,0,0,0,0,0,0,0,0,0,0,0],"id":1,"left_children":[1,3,5,7,9,11,13,15,17,19,21,23,25,27,29,31,33,35,-1,37,-1,39,-1,41,43,45,47,-1,49,51,-1,53,-1,55,57,59,61,63,65,67,69,71,73,75,77,79,81,83,85,87,89,-1,-1,91,93,95,-1,-1,97,-1,99,101,103,105,-1,107,109,-1,111,113,115,117,-1,119,121,123,125,127,129,131,133,135,137,139,141,143,145,-1,-1,147,149,-1,-1,-1,-1,-1,-1,-1,-1,-1,-1,-1,-1,-1,-1,-1,-1,-1,-1,-1,-1,-1,-1,-1,-1,-1,-1,-1,-1,-1,-1,-1,-1,-1,-1,-1,-1,-1,-1,-1,-1,-1,-1,-1,-1,-1,-1,-1,-1,-1,-1,-1,-1,-1,-1,-1,-1,-1,-1,-1,-1],"loss_changes":[2.2744032E6,2.377095E5,2.6031942E6,1.9821375E4,2.9629762E5,5.35245E4,2.631343E5,2.2128938E4,1E1,4.6604197E5,3.58125E1,2.4490508E5,9.3635E3,7.285625E2,4.8503125E2,6.7301367E3,3.9678828E3,4.19E2,0E0,8.98417E4,0E0,5.034375E1,0E0,1.5899062E3,1.5525781E2,1.0367097E5,1.13925E3,0E0,5.5584033E3,5.4054688E1,0E0,5.386562E3,0E0,1.4923047E2,1.2340041E4,1.96875E1,1.6723994E3,2.1836402E5,1.16694375E4,5.3929688E1,3.046875E0,2.7517188E2,1.8415156E3,1.0645361E3,7.475E1,9.2028125E2,6.073926E2,2.98525E4,1.4175E2,7.5808997E2,2.9113086E2,0E0,0E0,1.3337451E2,2.830569E2,1.5390137E1,0E0,0E0,2.133149E3,0E0,1.1569873E2,8.2124493E2,3.7347656E1,9.530945E3,0E0,8.738125E2,8.131836E0,0E0,4.696875E1,1.6398438E1,2.625E0,7.5671875E1,0E0,1.1926719E3,8.5382666E2,9.382617E1,4.7929932E2,2.5765625E1,3.002461E2,8E1,2.4940781E3,1.0825781E2,9.4501166E2,1.39E2,1.841372E2,1.08990625E4,7E0,0E0,0E0,2.740039E1,6.449628E1,0E0,0E0,0E0,0E0,0E0,0E0,0E0,0E0,0E0,0E0,0E0,0E0,0E0,0E0,0E0,0E0,0E0,0E0,0E0,0E0,0E0,0E0,0E0,0E0,0E0,0E0,0E0,0E0,0E0,0E0,0E0,0E0,0E0,0E0,0E0,0E0,0E0,0E0,0E0,0E0,0E0,0E0,0E0,0E0,0E0,0E0,0E0,0E0,0E0,0E0,0E0,0E0,0E0,0E0,0E0,0E0,0E0,0E0,0E0,0E0],"parents":[2147483647,0,0,1,1,2,2,3,3,4,4,5,5,6,6,7,7,8,8,9,9,10,10,11,11,12,12,13,13,14,14,15,15,16,16,17,17,19,19,21,21,23,23,24,24,25,25,26,26,28,28,29,29,31,31,33,33,34,34,35,35,36,36,37,37,38,38,39,39,40,40,41,41,42,42,43,43,44,44,45,45,46,46,47,47,48,48,49,49,50,50,53,53,54,54,55,55,58,58,60,60,61,61,62,62,63,63,65,65,66,66,68,68,69,69,70,70,71,71,73,73,74,74,75,75,76,76,77,77,78,78,79,79,80,80,81,81,82,82,83,83,84,84,85,85,86,86,89,89,90,90],"right_children":[2,4,6,8,10,12,14,16,18,20,22,24,26,28,30,32,34,36,-1,38,-1,40,-1,42,44,46,48,-1,50,52,-1,54,-1,56,58,60,62,64,66,68,70,72,74,76,78,80,82,84,86,88,90,-1,-1,92,94,96,-1,-1,98,-1,100,102,104,106,-1,108,110,-1,112,114,116,118,-1,120,122,124,126,128,130,132,134,136,138,140,142,144,146,-1,-1,148,150,-1,-1,-1,-1,-1,-1,-1,-1,-1,-1,-1,-1,-1,-1,-1,-1,-1,-1,-1,-1,-1,-1,-1,-1,-1,-1,-1,-1,-1,-1,-1,-1,-1,-1,-1,-1,-1,-1,-1,-1,-1,-1,-1,-1,-1,-1,-1,-1,-1,-1,-1,-1,-1,-1,-1,-1,-1,-1,-1,-1],"split_conditions":[-2.7044755E-1,-2.882784E-1,-2.9234904E-1,-2.959803E-1,-2.088134E-1,-2.495137E-1,1.3193147E0,-2.8874886E-1,-3.1011847E-1,-2.9234904E-1,-5.6298986E-2,-1.0858247E-1,-2.1378998E-1,1.9823885E0,-2.6575935E-1,-5.6298986E-2,-5.6298986E-2,-2.8465414E-1,-1.818312E-1,9.6304476E-1,-1.8187146E-1,-4.92546E-2,-1.8174879E-1,-3.1471094E-1,-2.5404143E-1,6.082772E-2,-1.7373972E-1,-1.8187253E-1,-3.313806E-1,-1.5101841E-1,-1.7749207E-1,-3.2215312E-1,-1.818593E-1,-2.9234904E-1,1.9823885E0,-3.0655685E-1,-2.8874886E-1,-5.6298986E-2,-3.230464E-1,-1.6233735E-1,-3.1169996E-1,-3.1640533E-1,-5.6298986E-2,-2.7302566E-1,1.8108101E0,-2.9524666E-1,1.6059761E0,2.589768E-1,-1.0780156E-1,2.675827E-1,7.2335905E-1,1.8184814E-1,-1.4961702E-1,-2.980314E-1,-2.980314E-1,-2.8860372E-1,-1.6942456E-1,-1.817868E-1,-3.230464E-1,-1.8186744E-1,-3.151291E-1,-2.5244448E-1,-4.92546E-2,-2.6090366E-1,-1.8186818E-1,-3.313806E-1,-2.5936473E-2,-1.8165782E-1,-1.368191E-1,-3.2270625E-1,1.9966617E0,9.6304476E-1,-2.0907333E-1,-2.6712835E-1,-1.919464E-1,-3.229037E-1,-5.6298986E-2,-1.05173334E-1,1.9966617E0,-2.9083118E-1,-5.6298986E-2,-3.0755264E-1,1.9966617E0,-2.5404143E-1,1.1959772E0,5.833653E-1,-2.8856233E-2,-1.793548E-1,1.8054007E-1,1.1695677E0,-1.8009283E-1,1.8052858E-1,-1.6724788E-1,-5.8424033E-2,-1.8164884E-1,1.5778072E-1,1.7532212E-1,1.8168102E-1,-1.8092476E-1,-1.7912398E-1,-1.0582216E-1,1.8862996E-2,-1.4736238E-1,-1.3034464E-1,-1.816052E-1,1.6136608E-1,9.0942435E-2,1.8185143E-1,7.665663E-2,-1.8222035E-1,-1.5887448E-1,-1.6527328E-1,-1.7553887E-1,-1.8059067E-1,-1.7271425E-1,-1.815104E-1,-1.7466752E-1,1.7029141E-1,1.8184142E-1,1.2331539E-1,1.6489068E-1,1.6732442E-1,-1.7518587E-1,-1.7701733E-1,-1.4987756E-1,-1.832354E-1,1.7994653E-1,-1.3507865E-1,-1.8069987E-1,-4.1334685E-2,-1.7978004E-1,1.8148543E-1,-1.5857257E-1,1.662841E-1,-1.22401334E-1,-1.5865226E-1,-1.8270358E-1,4.488851E-2,-1.8490253E-1,1.8137395E-1,1.7350225E-1,-1.712786E-1,-9.779143E-2,1.8044502E-1,-1.6376643E-1,1.8053941E-1,1.8178238E-1,-1.818407E-1,-1.26885045E-2,1.4925839E-1,-1.6204737E-1],"split_indices":[2,2,3,1,1,2,1,2,4,3,0,1,2,0,4,0,0,5,0,0,0,1,0,5,5,1,2,0,5,5,0,4,0,3,0,5,2,0,4,1,4,4,0,4,5,5,5,1,2,1,2,0,0,1,1,2,0,0,4,0,4,5,1,1,0,5,5,0,1,4,5,0,0,2,1,4,0,1,5,4,0,4,5,5,5,1,2,0,0,1,5,0,0,0,0,0,0,0,0,0,0,0,0,0,0,0,0,0,0,0,0,0,0,0,0,0,0,0,0,0,0,0,0,0,0,0,0,0,0,0,0,0,0,0,0,0,0,0,0,0,0,0,0,0,0,0,0,0,0,0,0],"split_type":[0,0,0,0,0,0,0,0,0,0,0,0,0,0,0,0,0,0,0,0,0,0,0,0,0,0,0,0,0,0,0,0,0,0,0,0,0,0,0,0,0,0,0,0,0,0,0,0,0,0,0,0,0,0,0,0,0,0,0,0,0,0,0,0,0,0,0,0,0,0,0,0,0,0,0,0,0,0,0,0,0,0,0,0,0,0,0,0,0,0,0,0,0,0,0,0,0,0,0,0,0,0,0,0,0,0,0,0,0,0,0,0,0,0,0,0,0,0,0,0,0,0,0,0,0,0,0,0,0,0,0,0,0,0,0,0,0,0,0,0,0,0,0,0,0,0,0,0,0,0,0],"sum_hessian":[2.2024485E6,8.827163E5,1.3197321E6,4.3746503E5,4.4525125E5,9.8539175E5,3.3434038E5,2.0905264E4,4.1655978E5,2.818027E5,1.6344855E5,1.3996784E5,8.4542394E5,3.1292988E5,2.1410523E4,1.4036626E4,6.868637E3,1.624997E5,2.5406008E5,1.8013747E5,1.0166523E5,9.484372E4,6.8604836E4,1.1474598E5,2.5221871E4,1.4518894E5,7.00235E5,3.071619E5,5.7679663E3,2.1373625E4,3.6898945E1,2.0100233E3,1.2026603E4,2.478347E3,4.39029E3,1.5599547E5,6.5042354E3,1.11353164E5,6.8784305E4,3.690923E4,5.7934484E4,6.209364E4,5.2652336E4,5.988999E3,1.9232871E4,1.356709E5,9.518025E3,9.982884E4,6.004061E5,6.018106E2,5.166156E3,2.1369402E4,4.2222695E0,1.0211705E3,9.8885284E2,2.4659534E3,1.2393442E1,1.9195109E3,2.4707793E3,1.5333489E5,2.6605732E3,1.222232E3,5.2820034E3,7.758991E4,3.376326E4,6.784875E4,9.3555597E2,1.1014743E4,2.5894488E4,2.0444707E4,3.7489777E4,6.20763E4,1.7340193E1,5.2306754E4,3.4558115E2,5.809774E3,1.7922491E2,1.827893E4,9.539409E2,7.1722625E4,6.3948277E4,8.7991875E3,7.188384E2,9.715264E4,2.6762017E3,1.11468984E5,4.8893716E5,6.486864E1,5.3694196E2,5.1264316E3,3.9723885E1,1.0107575E3,1.0412951E1,2.509863E2,7.378666E2,9.859924E2,1.479961E3,2.2970032E3,1.737762E2,2.4185242E3,2.4204892E2,7.1459546E2,5.0763663E2,1.5827744E2,5.123726E3,3.5085703E4,4.2504203E4,6.7047695E4,8.010521E2,6.3310846E2,3.024475E2,6.2475835E3,1.9646904E4,1.6536627E4,3.9080813E3,3.618016E4,1.3096166E3,6.624673E3,5.545163E4,8.198956E3,4.4107797E4,1.028632E2,2.4271796E2,3.809946E3,1.999828E3,4.9404263E1,1.2982065E2,1.3953645E2,1.8139395E4,1.9844894E2,7.5549194E2,7.171642E4,6.20356E0,6.3648266E4,3.0001187E2,2.8412415E3,5.957946E3,3.309443E2,3.8789407E2,5.9970844E4,3.7181797E4,2.2693809E3,4.0682092E2,1.1054209E5,9.268842E2,7.939974E4,4.0953744E5,5.116682E3,9.749525E0,3.2281975E1,7.4419107E0],"tree_param":{"num_deleted":"0","num_feature":"6","num_nodes":"151","size_leaf_vector":"1"}},{"base_weights":[-6.568259E-5,-1.1479394E0,7.6816475E-1,-1.6336797E0,-6.719424E-1,1.5239166E0,-1.4617666E0,-7.5425845E-1,-1.6778413E0,-9.872489E-2,-1.6636819E0,1.0349448E0,1.6202188E0,-1.6764474E0,1.675848E0,-1.4199446E0,6.0490084E-1,-1.6710587E0,-1.6821738E-1,7.89544E-1,-1.6825671E-1,-1.6508793E0,-1.6813715E-1,1.5481004E0,-1.6164175E0,1.4453057E0,1.6650141E0,-1.682577E-1,-1.3498356E0,1.6816643E0,-1.6435055E-1,1.4580111E-1,-1.6824587E-1,1.5355326E0,7.7394985E-2,-1.6818401E0,-1.4516888E0,2.7803922E-1,1.6256759E0,-1.6219606E0,-1.6692986E0,1.6656505E0,1.4053608E0,-1.494754E0,-1.6512198E0,1.5955391E0,-1.4306344E0,1.6077087E0,1.6770673E0,1.3085794E0,-1.6598079E0,1.6823447E-1,-1.3958608E-1,1.6351081E0,-1.3836272E0,1.5517917E0,-1.5717156E-1,-1.6818114E-1,1.444164E0,-1.6825752E-1,-1.6168363E0,-5.805354E-1,-1.6493871E0,1.1190614E0,-1.6825378E-1,1.6704562E0,-1.6145828E0,-1.6804947E-1,-1.5970556E0,-1.6555275E0,-1.6767677E0,1.5529691E0,1.6819558E0,1.2065936E0,1.544874E0,-1.6041602E0,-1.2874795E0,-1.6685905E0,-1.3261817E0,1.6760434E0,1.4984771E0,-1.5050339E0,-3.3130357E-1,1.6559799E0,-1.453647E0,1.6576139E0,1.6808907E0,-1.6601107E-1,1.6698408E-1,-1.680355E0,6.867314E-1,1.6696104E-1,-1.5523738E-1,-5.2755963E-2,-1.6805798E-1,1.5585403E-1,5.3960443E-2,1.680768E-1,-1.6741167E-1,-1.2180473E-1,-1.6819677E-1,-1.11961186E-1,1.5064257E-2,-1.6832887E-1,-1.3048457E-1,7.7476285E-2,1.4535776E-1,1.6823725E-1,6.934286E-2,-1.4572835E-1,-1.6922657E-1,-1.5218005E-1,-1.6209714E-1,-1.6700888E-1,-1.5936257E-1,-1.6790484E-1,-1.6126166E-1,1.6085829E-1,-1.9517009E-1,1.6824287E-1,1.01334214E-1,1.5855764E-1,-1.7385767E-1,1.5532944E-1,5.8261226E-3,-7.6124884E-2,-1.6483058E-1,-6.042687E-2,-1.4260446E-1,-1.6962695E-1,-1.637206E-1,-1.9927971E-2,-1.657156E-1,1.676345E-1,-1.5243651E-1,1.5142962E-1,-1.5857036E-1,-8.5837476E-2,-1.5505935E-1,1.4706151E-1,-1.6691409E-1,1.6725805E-1,1.5970641E-1,-3.28643E-2,-1.530491E-1,1.6757433E-1,-1.3777672E-1,1.6752157E-1,1.6823596E-1,-1.6824387E-1,1.7641447E-2,1.3346545E-1,-1.6085729E-1],"categories":[],"categories_nodes":[],"categories_segments":[],"categories_sizes":[],"default_left":[0,0,0,0,0,0,0,0,0,0,0,0,0,0,0,0,0,0,0,0,0,0,0,0,0,0,0,0,0,0,0,0,0,0,0,0,0,0,0,0,0,0,0,0,0,0,0,0,0,0,0,0,0,0,0,0,0,0,0,0,0,0,0,0,0,0,0,0,0,0,0,0,0,0,0,0,0,0,0,0,0,0,0,0,0,0,0,0,0,0,0,0,0,0,0,0,0,0,0,0,0,0,0,0,0,0,0,0,0,0,0,0,0,0,0,0,0,0,0,0,0,0,0,0,0,0,0,0,0,0,0,0,0,0,0,0,0,0,0,0,0,0,0,0,0,0,0,0,0,0,0,0,0],"id":2,"left_children":[1,3,5,7,9,11,13,15,17,19,21,23,25,27,29,31,33,35,-1,37,-1,39,-1,41,43,45,47,-1,49,51,-1,53,-1,55,57,59,61,63,65,67,69,71,73,75,77,79,81,83,85,87,89,-1,-1,91,93,95,-1,-1,97,-1,99,101,103,105,-1,107,109,-1,111,113,115,117,119,121,123,125,127,129,131,133,135,137,139,141,143,145,147,-1,-1,149,151,-1,-1,-1,-1,-1,-1,-1,-1,-1,-1,-1,-1,-1,-1,-1,-1,-1,-1,-1,-1,-1,-1,-1,-1,-1,-1,-1,-1,-1,-1,-1,-1,-1,-1,-1,-1,-1,-1,-1,-1,-1,-1,-1,-1,-1,-1,-1,-1,-1,-1,-1,-1,-1,-1,-1,-1,-1,-1,-1,-1,-1,-1],"loss_changes":[1.8939312E6,1.9909338E5,2.1683265E6,1.6550375E4,2.4723906E5,4.52485E4,2.193755E5,1.8440203E4,9E0,3.877529E5,3.33125E1,2.1513414E5,6.288E3,6.080625E2,4.054375E2,5.6232363E3,3.289411E3,3.720625E2,0E0,7.552047E4,0E0,4.6546875E1,0E0,2.2205625E3,1.0610156E2,7.072816E4,4.38875E2,0E0,4.633545E3,4.5945312E1,0E0,4.47862E3,0E0,1.2490625E2,1.0287964E4,4.5E0,1.2776562E3,1.8065311E5,9.727594E3,4.98125E1,3.03125E0,1.3085938E2,1.6574141E3,1.27506836E2,1.1030859E2,1.2130625E3,6.6421094E2,1.641925E4,3.65E1,6.328098E2,2.4386133E2,0E0,0E0,1.1214136E2,2.4572217E2,1.5633789E1,0E0,0E0,1.7793765E3,0E0,4.2442383E1,5.420307E2,6.847461E1,8.829328E3,0E0,7.685E2,8.703857E0,0E0,4.304297E1,1.5300781E1,2.6484375E0,1.7955449E3,1.834375E1,2.7552059E4,4.3996875E2,1.3775684E2,1.8649438E2,1.3652344E1,3.7855835E2,8.4640625E1,3.4439375E3,2.2291992E2,1.2474069E3,1.0428125E2,1.486272E2,4.7793125E3,8.75E-1,0E0,0E0,1.9604492E1,6.818618E1,0E0,0E0,0E0,0E0,0E0,0E0,0E0,0E0,0E0,0E0,0E0,0E0,0E0,0E0,0E0,0E0,0E0,0E0,0E0,0E0,0E0,0E0,0E0,0E0,0E0,0E0,0E0,0E0,0E0,0E0,0E0,0E0,0E0,0E0,0E0,0E0,0E0,0E0,0E0,0E0,0E0,0E0,0E0,0E0,0E0,0E0,0E0,0E0,0E0,0E0,0E0,0E0,0E0,0E0,0E0,0E0,0E0,0E0,0E0,0E0,0E0,0E0],"parents":[2147483647,0,0,1,1,2,2,3,3,4,4,5,5,6,6,7,7,8,8,9,9,10,10,11,11,12,12,13,13,14,14,15,15,16,16,17,17,19,19,21,21,23,23,24,24,25,25,26,26,28,28,29,29,31,31,33,33,34,34,35,35,36,36,37,37,38,38,39,39,40,40,41,41,42,42,43,43,44,44,45,45,46,46,47,47,48,48,49,49,50,50,53,53,54,54,55,55,58,58,60,60,61,61,62,62,63,63,65,65,66,66,68,68,69,69,70,70,71,71,72,72,73,73,74,74,75,75,76,76,77,77,78,78,79,79,80,80,81,81,82,82,83,83,84,84,85,85,86,86,89,89,90,90],"right_children":[2,4,6,8,10,12,14,16,18,20,22,24,26,28,30,32,34,36,-1,38,-1,40,-1,42,44,46,48,-1,50,52,-1,54,-1,56,58,60,62,64,66,68,70,72,74,76,78,80,82,84,86,88,90,-1,-1,92,94,96,-1,-1,98,-1,100,102,104,106,-1,108,110,-1,112,114,116,118,120,122,124,126,128,130,132,134,136,138,140,142,144,146,148,-1,-1,150,152,-1,-1,-1,-1,-1,-1,-1,-1,-1,-1,-1,-1,-1,-1,-1,-1,-1,-1,-1,-1,-1,-1,-1,-1,-1,-1,-1,-1,-1,-1,-1,-1,-1,-1,-1,-1,-1,-1,-1,-1,-1,-1,-1,-1,-1,-1,-1,-1,-1,-1,-1,-1,-1,-1,-1,-1,-1,-1,-1,-1,-1,-1],"split_conditions":[-2.7044755E-1,-2.882784E-1,-2.9234904E-1,-2.959803E-1,-2.088134E-1,-2.4559319E-1,1.3193147E0,-2.8874886E-1,-3.1011847E-1,-2.9234904E-1,-5.6298986E-2,-9.005984E-2,-1.9833809E-1,1.9823885E0,-2.6575935E-1,-5.6298986E-2,-5.6298986E-2,-2.9383373E-1,-1.6821738E-1,9.6304476E-1,-1.6825671E-1,-4.92546E-2,-1.6813715E-1,-3.1215245E-1,-2.5404143E-1,1.3469192E-1,-1.4381742E-1,-1.682577E-1,-3.313806E-1,-1.5101841E-1,-1.6435055E-1,-3.2215312E-1,-1.6824587E-1,-2.9234904E-1,1.9823885E0,-3.0788028E-1,-2.8874886E-1,-5.6298986E-2,-3.230464E-1,-1.6233735E-1,-3.1169996E-1,9.6304476E-1,-2.6032028E-1,-3.229037E-1,1.8108101E0,-2.875641E-1,1.9446477E0,3.9851275E-1,-7.506142E-2,2.675827E-1,6.155981E-1,1.6823447E-1,-1.3958608E-1,-2.980314E-1,-2.980314E-1,6.481431E-1,-1.5717156E-1,-1.6818114E-1,-3.230464E-1,-1.6825752E-1,-2.8874886E-1,-3.230464E-1,-3.151291E-1,-2.8140256E-1,-1.6825378E-1,-3.313806E-1,-2.6460865E-1,-1.6804947E-1,-1.368191E-1,-3.2270625E-1,1.9966617E0,-5.6298986E-2,-3.1685677E-1,-1.6233735E-1,-5.6298986E-2,-8.177435E-2,-3.2051656E-1,2.2967325E-1,1.9966617E0,-2.9083118E-1,-5.6298986E-2,-2.5244448E-1,1.9966617E0,-1.87368E-1,-2.0455115E-1,7.478947E-1,3.9996814E-2,-1.6601107E-1,1.6698408E-1,1.2220691E0,-2.7302566E-1,1.6696104E-1,-1.5523738E-1,-5.2755963E-2,-1.6805798E-1,1.5585403E-1,5.3960443E-2,1.680768E-1,-1.6741167E-1,-1.2180473E-1,-1.6819677E-1,-1.11961186E-1,1.5064257E-2,-1.6832887E-1,-1.3048457E-1,7.7476285E-2,1.4535776E-1,1.6823725E-1,6.934286E-2,-1.4572835E-1,-1.6922657E-1,-1.5218005E-1,-1.6209714E-1,-1.6700888E-1,-1.5936257E-1,-1.6790484E-1,-1.6126166E-1,1.6085829E-1,-1.9517009E-1,1.6824287E-1,1.01334214E-1,1.5855764E-1,-1.7385767E-1,1.5532944E-1,5.8261226E-3,-7.6124884E-2,-1.6483058E-1,-6.042687E-2,-1.4260446E-1,-1.6962695E-1,-1.637206E-1,-1.9927971E-2,-1.657156E-1,1.676345E-1,-1.5243651E-1,1.5142962E-1,-1.5857036E-1,-8.5837476E-2,-1.5505935E-1,1.4706151E-1,-1.6691409E-1,1.6725805E-1,1.5970641E-1,-3.28643E-2,-1.530491E-1,1.6757433E-1,-1.3777672E-1,1.6752157E-1,1.6823596E-1,-1.6824387E-1,1.7641447E-2,1.3346545E-1,-1.6085729E-1],"split_indices":[2,2,3,1,1,2,1,2,4,3,0,1,2,0,4,0,0,5,0,0,0,1,0,5,5,1,2,0,5,5,0,4,0,3,0,5,2,0,4,1,4,0,2,4,5,5,4,1,2,1,2,0,0,1,1,5,0,0,4,0,2,4,4,2,0,5,4,0,1,4,5,0,5,1,0,1,4,1,5,4,0,5,5,5,5,1,2,0,0,1,4,0,0,0,0,0,0,0,0,0,0,0,0,0,0,0,0,0,0,0,0,0,0,0,0,0,0,0,0,0,0,0,0,0,0,0,0,0,0,0,0,0,0,0,0,0,0,0,0,0,0,0,0,0,0,0,0,0,0,0,0,0,0],"split_type":[0,0,0,0,0,0,0,0,0,0,0,0,0,0,0,0,0,0,0,0,0,0,0,0,0,0,0,0,0,0,0,0,0,0,0,0,0,0,0,0,0,0,0,0,0,0,0,0,0,0,0,0,0,0,0,0,0,0,0,0,0,0,0,0,0,0,0,0,0,0,0,0,0,0,0,0,0,0,0,0,0,0,0,0,0,0,0,0,0,0,0,0,0,0,0,0,0,0,0,0,0,0,0,0,0,0,0,0,0,0,0,0,0,0,0,0,0,0,0,0,0,0,0,0,0,0,0,0,0,0,0,0,0,0,0,0,0,0,0,0,0,0,0,0,0,0,0,0,0,0,0,0,0],"sum_hessian":[2.1477225E6,8.610938E5,1.2866286E6,4.2618384E5,4.3490994E5,9.609507E5,3.2567797E5,2.0379066E4,4.0580478E5,2.756104E5,1.5929953E5,1.581188E5,8.028319E5,3.04822E5,2.0855957E4,1.3679234E4,6.6998315E3,1.5832506E5,2.4747973E5,1.7657952E5,9.903088E4,9.247004E4,6.682949E4,1.3247873E5,2.564006E4,1.636927E5,6.391392E5,2.9920262E5,5.6193594E3,2.0819969E4,3.5988705E1,1.9642213E3,1.1715013E4,2.4230857E3,4.276746E3,1.5090198E5,7.4230674E3,1.09558375E5,6.702114E4,3.6015004E4,5.645503E4,7.2643766E4,5.9834965E4,5.71282E3,1.9927242E4,1.5556666E5,8.1260474E3,1.1109213E5,5.2804706E5,5.864623E2,5.032897E3,2.081582E4,4.1485343E0,9.951286E2,9.6909265E2,2.4109705E3,1.21151285E1,1.8698193E3,2.4069268E3,1.4919005E5,1.7119379E3,1.3737233E3,6.049344E3,7.666995E4,3.288842E4,6.6108016E4,9.131261E2,1.0729985E4,2.528502E4,1.9930494E4,3.652454E4,9.195169E3,6.3448598E4,2.4681025E4,3.515394E4,3.7347544E3,1.9780654E3,1.8912389E4,1.0148531E3,8.502756E4,7.053909E4,7.6106143E3,5.154332E2,1.09368086E5,1.7240474E3,8.680724E4,4.412398E5,6.323436E1,5.232279E2,4.989491E3,4.3405697E1,9.849435E2,1.0185143E1,2.502984E2,7.1879425E2,2.3944663E3,1.650432E1,2.2376062E3,1.6932048E2,2.4311055E2,1.4688274E3,7.904305E2,5.832927E2,5.5038965E3,5.454475E2,3.7784176E4,3.888578E4,6.531074E4,7.972796E2,3.084034E2,6.047227E2,6.113258E3,1.9171762E4,1.6113983E4,3.8165115E3,3.5246285E4,1.2782516E3,9.052067E3,1.4310136E2,6.3402242E4,4.6358E1,2.186758E4,2.813445E3,3.4955902E4,1.9803877E2,1.8677318E2,3.5479812E3,3.3443866E2,1.6436268E3,1.002127E4,8.891118E3,2.3076074E2,7.8409235E2,8.502002E4,7.5362015E0,7.017965E4,3.5944702E2,5.0221246E2,7.108402E3,2.1958174E2,2.958515E2,8.530458E4,2.4063512E4,1.1056976E2,1.6134775E3,8.62923E4,5.1494885E2,9.096072E4,3.502791E5,4.983992E3,5.4990244E0,3.4176743E1,9.228951E0],"tree_param":{"num_deleted":"0","num_feature":"6","num_nodes":"153","size_leaf_vector":"1"}},{"base_weights":[-1.2472254E-4,-1.0736066E0,7.189912E-1,-1.5307486E0,-6.273516E-1,1.4258215E0,-1.3699256E0,-7.061283E-1,-1.5721995E0,-9.226094E-2,-1.5578395E0,1.0444256E0,1.5367914E0,-1.5711187E0,1.570528E0,-1.329819E0,5.6557775E-1,-1.5655274E0,-1.5764627E-1,7.3274136E-1,-1.5768604E-1,-1.5449644E0,-1.5756536E-1,1.4027612E0,-1.5556264E0,1.422055E0,1.5668682E0,-1.5768696E-1,-1.2647514E0,1.5759915E0,-1.5403251E-1,1.3596775E-1,-1.5767588E-1,1.4307702E0,7.248587E-2,-1.5761293E0,-1.351249E0,2.5612718E-1,1.5228713E0,-1.515945E0,-1.5634862E0,1.5625933E0,1.2330681E0,-1.5771769E0,-1.1269217E0,1.5153456E0,-1.4036981E0,1.5369192E0,1.5740534E0,1.225505E0,-1.5552429E0,1.5766397E-1,-1.3121948E-1,1.531339E0,-1.2849064E0,1.4459825E0,-1.4736457E-1,-1.5761517E-1,1.3532702E0,-1.5768674E-1,-1.5110749E0,-5.275399E-1,-1.54358E0,1.0263401E0,-1.576833E-1,1.5648774E0,-1.5086731E0,-1.5747769E-1,-1.4910041E0,-1.5496255E0,-1.5710124E0,1.4339668E0,1.5765393E0,1.0118592E0,1.4689351E0,-1.5306847E0,-1.7721792E0,-7.804629E-2,-1.5935774E0,1.5740969E0,1.4450626E0,-1.4803103E0,-8.924494E-1,1.562545E0,-1.4279684E0,1.5647948E0,1.5761912E-1,-1.5558323E-1,1.5642168E-1,-1.5758163E0,5.259186E-1,1.5638918E-1,-1.4557716E-1,-4.769787E-2,-1.5749966E-1,1.3412249E-1,1.5150748E-1,1.5750892E-1,-1.5689397E-1,-1.1235291E-1,-1.5753378E-1,-1.02394514E-1,1.3558904E-2,-1.17401145E-1,-1.576175E-1,1.3684002E-1,6.6964194E-2,1.5766643E-1,6.2863864E-2,-1.5844452E-1,-1.345655E-1,-1.5091798E-1,-1.3864969E-1,-1.5642753E-1,-1.4875656E-1,-1.5733102E-1,-1.5066107E-1,1.4851044E-1,-1.7806618E-1,1.5768199E-1,9.522784E-2,1.3681728E-1,-1.5367143E-1,1.476727E-1,1.4143097E-2,-1.4182119E-1,-1.5561095E-1,-2.2189526E-1,-1.4771903E-1,4.213489E-2,-1.7832309E-1,-1.17215864E-1,-1.6266738E-1,1.5747383E-1,-1.8842368E-1,1.4598839E-1,-9.133822E-2,-1.0215954E-1,-1.579216E-1,1.3508814E-2,-1.6486393E-1,1.5716061E-1,1.5164794E-1,-2.6315754E-2,-1.5466662E-1,1.574968E-1,-1.297151E-1,-1.5767215E-1,-3.928058E-2,1.1926841E-1,-1.516279E-1],"categories":[],"categories_nodes":[],"categories_segments":[],"categories_sizes":[],"default_left":[0,0,0,0,0,0,0,0,0,0,0,0,0,0,0,0,0,0,0,0,0,0,0,0,0,0,0,0,0,0,0,0,0,0,0,0,0,0,0,0,0,0,0,0,0,0,0,0,0,0,0,0,0,0,0,0,0,0,0,0,0,0,0,0,0,0,0,0,0,0,0,0,0,0,0,0,0,0,0,0,0,0,0,0,0,0,0,0,0,0,0,0,0,0,0,0,0,0,0,0,0,0,0,0,0,0,0,0,0,0,0,0,0,0,0,0,0,0,0,0,0,0,0,0,0,0,0,0,0,0,0,0,0,0,0,0,0,0,0,0,0,0,0,0,0,0,0,0,0,0,0],"id":3,"left_children":[1,3,5,7,9,11,13,15,17,19,21,23,25,27,29,31,33,35,-1,37,-1,39,-1,41,43,45,47,-1,49,51,-1,53,-1,55,57,59,61,63,65,67,69,71,73,75,77,79,81,83,85,87,89,-1,-1,91,93,95,-1,-1,97,-1,99,101,103,105,-1,107,109,-1,111,113,115,117,119,121,123,125,127,129,131,133,135,137,139,141,143,145,-1,-1,-1,147,149,-1,-1,-1,-1,-1,-1,-1,-1,-1,-1,-1,-1,-1,-1,-1,-1,-1,-1,-1,-1,-1,-1,-1,-1,-1,-1,-1,-1,-1,-1,-1,-1,-1,-1,-1,-1,-1,-1,-1,-1,-1,-1,-1,-1,-1,-1,-1,-1,-1,-1,-1,-1,-1,-1,-1,-1,-1,-1,-1,-1],"loss_changes":[1.5978671E6,1.6939288E5,1.8301878E6,1.40189375E4,2.0920648E5,3.91965E4,1.8540012E5,1.5572672E4,8.625E0,3.2674334E5,3.275E1,1.9448364E5,2.473375E3,5.1475E2,3.4353906E2,4.7683047E3,2.756301E3,3.44125E2,0E0,6.4576953E4,0E0,4.5515625E1,0E0,4.973875E3,2.3182031E2,3.9284188E4,1.2E2,0E0,3.9151436E3,3.957422E1,0E0,3.7693665E3,0E0,1.05760254E2,8.694476E3,4.5625E0,1.1385586E3,1.510072E5,8.2185E3,4.8640625E1,3.25E0,1.6720312E2,4.641547E3,2.1551562E2,5.939265E2,5.9340625E2,1.8522949E2,8.361641E3,6.625E0,5.3533154E2,2.0827051E2,0E0,0E0,9.554297E1,2.2003503E2,1.4859375E1,0E0,0E0,1.5045405E3,0E0,3.9393066E1,4.4878113E2,6.837891E1,9.188453E3,0E0,7.0128125E2,8.765991E0,0E0,4.429297E1,1.5125E1,2.8203125E0,1.5235215E3,1.340625E1,4.170554E4,4.452422E2,5.3402344E1,6.0664453E2,3.1988376E2,9.808105E0,1.7720312E2,2.2975938E3,1.8624512E2,4.8448105E2,4.3125E1,1.3001721E2,2.5094531E3,0E0,0E0,0E0,4.517578E0,6.7406845E1,0E0,0E0,0E0,0E0,0E0,0E0,0E0,0E0,0E0,0E0,0E0,0E0,0E0,0E0,0E0,0E0,0E0,0E0,0E0,0E0,0E0,0E0,0E0,0E0,0E0,0E0,0E0,0E0,0E0,0E0,0E0,0E0,0E0,0E0,0E0,0E0,0E0,0E0,0E0,0E0,0E0,0E0,0E0,0E0,0E0,0E0,0E0,0E0,0E0,0E0,0E0,0E0,0E0,0E0,0E0,0E0,0E0,0E0,0E0,0E0],"parents":[2147483647,0,0,1,1,2,2,3,3,4,4,5,5,6,6,7,7,8,8,9,9,10,10,11,11,12,12,13,13,14,14,15,15,16,16,17,17,19,19,21,21,23,23,24,24,25,25,26,26,28,28,29,29,31,31,33,33,34,34,35,35,36,36,37,37,38,38,39,39,40,40,41,41,42,42,43,43,44,44,45,45,46,46,47,47,48,48,49,49,50,50,53,53,54,54,55,55,58,58,60,60,61,61,62,62,63,63,65,65,66,66,68,68,69,69,70,70,71,71,72,72,73,73,74,74,75,75,76,76,77,77,78,78,79,79,80,80,81,81,82,82,83,83,84,84,85,85,89,89,90,90],"right_children":[2,4,6,8,10,12,14,16,18,20,22,24,26,28,30,32,34,36,-1,38,-1,40,-1,42,44,46,48,-1,50,52,-1,54,-1,56,58,60,62,64,66,68,70,72,74,76,78,80,82,84,86,88,90,-1,-1,92,94,96,-1,-1,98,-1,100,102,104,106,-1,108,110,-1,112,114,116,118,120,122,124,126,128,130,132,134,136,138,140,142,144,146,-1,-1,-1,148,150,-1,-1,-1,-1,-1,-1,-1,-1,-1,-1,-1,-1,-1,-1,-1,-1,-1,-1,-1,-1,-1,-1,-1,-1,-1,-1,-1,-1,-1,-1,-1,-1,-1,-1,-1,-1,-1,-1,-1,-1,-1,-1,-1,-1,-1,-1,-1,-1,-1,-1,-1,-1,-1,-1,-1,-1,-1,-1,-1,-1],"split_conditions":[-2.7044755E-1,-2.882784E-1,-2.9234904E-1,-2.959803E-1,-2.088134E-1,-2.3214859E-1,1.3193147E0,-2.8874886E-1,-3.1011847E-1,-2.9234904E-1,-5.6298986E-2,-2.3411786E-2,-1.7649807E-1,1.9823885E0,-2.6575935E-1,-5.6298986E-2,-5.6298986E-2,-2.9383373E-1,-1.5764627E-1,9.6304476E-1,-1.5768604E-1,-4.92546E-2,-1.5756536E-1,-3.1215245E-1,1.7340821E0,2.3932597E-1,-1.0780156E-1,-1.5768696E-1,-3.313806E-1,-1.5101841E-1,-1.5403251E-1,-3.2215312E-1,-1.5767588E-1,-2.9234904E-1,1.9823885E0,-3.0788028E-1,-2.8874886E-1,-5.6298986E-2,-3.230464E-1,-1.6233735E-1,-3.1169996E-1,9.6304476E-1,-2.5208336E-1,-2.4559319E-1,1.9966617E0,-2.7560624E-1,1.2495148E0,5.833653E-1,-1.3176215E-2,2.675827E-1,4.881263E-1,1.5766397E-1,-1.3121948E-1,-2.980314E-1,-2.980314E-1,-2.8860372E-1,-1.4736457E-1,-1.5761517E-1,-3.230464E-1,-1.5768674E-1,-2.8874886E-1,-3.230464E-1,-4.92546E-2,-2.5615677E-1,-1.576833E-1,-3.313806E-1,-2.5936473E-2,-1.5747769E-1,2.2917758E-1,-3.2270625E-1,1.9966617E0,-5.6298986E-2,-3.1471094E-1,-1.2244233E-1,-5.6298986E-2,-2.5404143E-1,1.3469192E-1,-5.6298986E-2,-1.4234364E-1,-3.132122E-1,-5.6298986E-2,-2.0684607E-1,-5.6298986E-2,-1.11169495E-1,-1.5409529E-1,1.0280654E0,1.5761912E-1,-1.5558323E-1,1.5642168E-1,1.2220691E0,-2.7061468E-1,1.5638918E-1,-1.4557716E-1,-4.769787E-2,-1.5749966E-1,1.3412249E-1,1.5150748E-1,1.5750892E-1,-1.5689397E-1,-1.1235291E-1,-1.5753378E-1,-1.02394514E-1,1.3558904E-2,-1.17401145E-1,-1.576175E-1,1.3684002E-1,6.6964194E-2,1.5766643E-1,6.2863864E-2,-1.5844452E-1,-1.345655E-1,-1.5091798E-1,-1.3864969E-1,-1.5642753E-1,-1.4875656E-1,-1.5733102E-1,-1.5066107E-1,1.4851044E-1,-1.7806618E-1,1.5768199E-1,9.522784E-2,1.3681728E-1,-1.5367143E-1,1.476727E-1,1.4143097E-2,-1.4182119E-1,-1.5561095E-1,-2.2189526E-1,-1.4771903E-1,4.213489E-2,-1.7832309E-1,-1.17215864E-1,-1.6266738E-1,1.5747383E-1,-1.8842368E-1,1.4598839E-1,-9.133822E-2,-1.0215954E-1,-1.579216E-1,1.3508814E-2,-1.6486393E-1,1.5716061E-1,1.5164794E-1,-2.6315754E-2,-1.5466662E-1,1.574968E-1,-1.297151E-1,-1.5767215E-1,-3.928058E-2,1.1926841E-1,-1.516279E-1],"split_indices":[2,2,3,1,1,2,1,2,4,3,0,1,2,0,4,0,0,5,0,0,0,1,0,5,5,1,2,0,5,5,0,4,0,3,0,5,2,0,4,1,4,0,2,2,5,5,5,1,2,1,2,0,0,1,1,2,0,0,4,0,2,4,1,1,0,5,5,0,4,4,5,0,5,1,0,5,1,0,4,4,0,5,0,5,5,1,0,0,0,1,4,0,0,0,0,0,0,0,0,0,0,0,0,0,0,0,0,0,0,0,0,0,0,0,0,0,0,0,0,0,0,0,0,0,0,0,0,0,0,0,0,0,0,0,0,0,0,0,0,0,0,0,0,0,0,0,0,0,0,0,0],"split_type":[0,0,0,0,0,0,0,0,0,0,0,0,0,0,0,0,0,0,0,0,0,0,0,0,0,0,0,0,0,0,0,0,0,0,0,0,0,0,0,0,0,0,0,0,0,0,0,0,0,0,0,0,0,0,0,0,0,0,0,0,0,0,0,0,0,0,0,0,0,0,0,0,0,0,0,0,0,0,0,0,0,0,0,0,0,0,0,0,0,0,0,0,0,0,0,0,0,0,0,0,0,0,0,0,0,0,0,0,0,0,0,0,0,0,0,0,0,0,0,0,0,0,0,0,0,0,0,0,0,0,0,0,0,0,0,0,0,0,0,0,0,0,0,0,0,0,0,0,0,0,0],"sum_hessian":[2.0698868E6,8.303526E5,1.2395341E6,4.101717E5,4.201809E5,9.261512E5,3.13383E5,1.9631979E4,3.9053972E5,2.6677128E5,1.5340961E5,2.087393E5,7.174119E5,2.933142E5,2.0068816E4,1.31719375E4,6.46004E3,1.5239988E5,2.3813984E5,1.7147947E5,9.529182E4,8.909999E4,6.4309613E4,1.834561E5,2.5283205E4,1.4901144E5,5.6840044E5,2.879057E5,5.40852E3,2.0034125E4,3.469206E1,1.8991863E3,1.1272751E4,2.3444692E3,4.1155713E3,1.4520898E5,7.190888E3,1.06960914E5,6.451855E4,3.4745098E4,5.43549E4,9.4468766E4,8.898733E4,2.4070527E4,1.212677E3,1.442496E5,4.7618477E3,1.1002385E5,4.583766E5,5.64666E2,4.843854E3,2.0030084E4,4.0409102E0,9.581531E2,9.4103326E2,2.3327532E3,1.1715948E1,1.7992845E3,2.3162866E3,1.4355716E5,1.6518264E3,1.361906E3,5.8289824E3,7.5314195E4,3.1646715E4,6.3637254E4,8.812968E2,1.0325798E4,2.44193E4,1.920046E4,3.5154434E4,9.250732E3,8.521803E4,4.5923273E4,4.3064055E4,1.944365E4,4.626878E3,3.7376163E2,8.3891534E2,7.85588E4,6.569079E4,4.1396177E3,6.222303E2,1.0908152E5,9.42323E2,8.61214E4,3.722552E5,6.0909916E1,5.037561E2,4.7966787E3,4.7175076E1,9.482953E2,9.85779E0,2.4931439E2,6.917189E2,9.3520667E2,1.3975465E3,2.1532952E3,1.6299132E2,2.37576E2,1.4142505E3,7.7855273E2,5.833532E2,4.754329E2,5.3535493E3,3.844453E4,3.6869668E4,6.2845367E4,7.9188873E2,5.956937E2,2.8560312E2,2.0790107E4,3.6291926E3,1.551403E4,3.6864316E3,3.3920734E4,1.2337013E3,9.106408E3,1.4432487E2,8.517823E4,3.9806534E1,4.0290727E4,5.6325454E3,4.2812652E4,2.5140242E2,3.5953801E3,1.584827E4,1.8374536E3,2.7894243E3,2.8967715E2,8.4084465E1,6.3738907E1,7.7517645E2,7.854478E4,1.4021544E1,6.528092E4,4.0986765E2,7.362562E2,3.4033613E3,2.641353E2,3.58095E2,9.11243E4,1.7957225E4,8.744266E1,8.548803E2,8.5816805E4,3.0459454E2,4.792679E3,3.9999192E0,3.5877323E1,1.1297753E1],"tree_param":{"num_deleted":"0","num_feature":"6","num_nodes":"151","size_leaf_vector":"1"}},{"base_weights":[-1.9530163E-4,-1.013559E0,6.7942625E-1,-1.4486933E0,-5.9092754E-1,1.3466482E0,-1.2968063E0,-6.675197E-1,-1.4880109E0,-8.701187E-2,-1.4730728E0,9.827153E-1,1.4530417E0,-1.4872615E0,1.4866699E0,-1.2577139E0,5.337944E-1,-1.4813131E0,-1.4922923E-1,6.848232E-1,-1.4927046E-1,-1.4598094E0,-1.4914563E-1,1.3203437E0,-1.4588536E0,1.3375933E0,1.4821162E0,-1.4927134E-1,-1.196911E0,1.4918549E0,-1.4572768E-1,1.2791656E-1,-1.4926057E-1,1.3443595E0,6.856976E-2,-1.4911382E0,-1.2499269E0,2.3708545E-1,1.4407723E0,-1.4299917E0,-1.4788916E0,1.4782386E0,1.1543779E0,-1.4795241E0,-1.0505313E0,1.4290413E0,-1.3360542E0,1.4513402E0,1.4898533E0,1.1590625E0,-1.4718872E0,1.4924794E-1,-1.2411072E-1,1.4483451E0,-1.2020564E0,1.3587103E0,-1.3932793E-1,-1.4920148E-1,1.2808503E0,-1.492664E-1,-1.4038093E0,-3.5560095E-1,-1.4756382E0,9.448231E-1,-1.4926778E-1,1.4805822E0,-1.4227108E0,-1.4905557E-1,-1.4044372E0,-1.4646035E0,-1.4866607E0,1.3492312E0,1.4923064E0,9.546143E-1,1.3913271E0,-1.4443659E0,-1.6228255E0,-7.158264E-2,-1.5027833E0,1.4891508E0,1.3568758E0,-1.4083097E0,-8.472534E-1,1.4762242E0,-1.3322488E0,1.480535E0,1.4920059E-1,-1.4722806E-1,1.4797918E-1,-1.4916426E0,4.8588368E-1,1.4793818E-1,-1.3762541E-1,-4.3161668E-2,-1.4908905E-1,1.3656564E-1,3.6767207E-2,1.4909081E-1,-1.4850006E-1,-1.4705016E-1,-7.591792E-2,2.5090426E-2,-1.23471E-1,-9.8075025E-2,-1.4913338E-1,5.9637893E-2,1.2858126E-1,1.4925021E-1,5.7075646E-2,-1.2594068E-1,-1.5038693E-1,-1.3241215E-1,-1.4301339E-1,-1.4796984E-1,-1.4009435E-1,-1.4890333E-1,-1.4204608E-1,1.3976517E-1,-1.652146E-1,1.4926796E-1,9.9652596E-2,1.2760012E-1,-1.4326029E-1,1.398337E-1,1.9767998E-2,-1.3289231E-1,-1.4706804E-1,-1.9563985E-1,-1.3886933E-1,-1.9550641E-1,3.7243422E-2,-1.094731E-1,-1.5351847E-1,1.4897783E-1,-1.7321692E-1,1.3713218E-1,-1.6769761E-1,-1.1476588E-1,-1.4883786E-1,1.0584899E-1,-1.1925568E-1,1.4862661E-1,1.4255932E-1,-3.2708485E-2,-1.4493473E-1,1.4904653E-1,-1.1546594E-1,-1.4925522E-1,-3.6155112E-2,1.1032914E-1,-1.4295025E-1],"categories":[],"categories_nodes":[],"categories_segments":[],"categories_sizes":[],"default_left":[0,0,0,0,0,0,0,0,0,0,0,0,0,0,0,0,0,0,0,0,0,0,0,0,0,0,0,0,0,0,0,0,0,0,0,0,0,0,0,0,0,0,0,0,0,0,0,0,0,0,0,0,0,0,0,0,0,0,0,0,0,0,0,0,0,0,0,0,0,0,0,0,0,0,0,0,0,0,0,0,0,0,0,0,0,0,0,0,0,0,0,0,0,0,0,0,0,0,0,0,0,0,0,0,0,0,0,0,0,0,0,0,0,0,0,0,0,0,0,0,0,0,0,0,0,0,0,0,0,0,0,0,0,0,0,0,0,0,0,0,0,0,0,0,0,0,0,0,0,0,0],"id":4,"left_children":[1,3,5,7,9,11,13,15,17,19,21,23,25,27,29,31,33,35,-1,37,-1,39,-1,41,43,45,47,-1,49,51,-1,53,-1,55,57,59,61,63,65,67,69,71,73,75,77,79,81,83,85,87,89,-1,-1,91,93,95,-1,-1,97,-1,99,101,103,105,-1,107,109,-1,111,113,115,117,119,121,123,125,127,129,131,133,135,137,139,141,143,145,-1,-1,-1,147,149,-1,-1,-1,-1,-1,-1,-1,-1,-1,-1,-1,-1,-1,-1,-1,-1,-1,-1,-1,-1,-1,-1,-1,-1,-1,-1,-1,-1,-1,-1,-1,-1,-1,-1,-1,-1,-1,-1,-1,-1,-1,-1,-1,-1,-1,-1,-1,-1,-1,-1,-1,-1,-1,-1,-1,-1,-1,-1,-1,-1],"loss_changes":[1.3616229E6,1.4595575E5,1.5604341E6,1.20095625E4,1.7897502E5,3.4254625E4,1.583516E5,1.3287978E4,8.5E0,2.7801666E5,3.35E1,1.6498272E5,2.295875E3,4.4075E2,2.941797E2,4.0904316E3,2.3283296E3,3.285E2,0E0,5.5988188E4,0E0,4.628125E1,0E0,4.60575E3,2.0365234E2,3.367711E4,1.28125E2,0E0,3.3430664E3,3.4453125E1,0E0,3.2022822E3,0E0,9.03501E1,7.4257207E3,1.646875E1,1.1955967E3,1.2718345E5,7.016297E3,4.9335938E1,3.5703125E0,1.6151562E2,4.0563828E3,1.1424219E2,5.2009326E2,5.756875E2,1.5970312E2,7.614172E3,6.5625E0,4.5759357E2,1.79375E2,0E0,0E0,8.2249146E1,2.0152686E2,1.492041E1,0E0,0E0,1.2856326E3,0E0,1.02524414E2,6.376957E2,3.5286133E1,8.758891E3,0E0,6.573125E2,9.294678E0,0E0,4.6371094E1,1.5542969E1,3.1484375E0,1.2912793E3,1.3546875E1,3.56895E4,3.278203E2,5.451953E1,3.5269238E2,3.1211334E2,8.944702E0,1.4946875E2,2.6551562E3,8.1092285E1,3.8899185E2,5.325E1,1.14197754E2,2.1508438E3,0E0,0E0,0E0,4.161133E0,5.7038147E1,0E0,0E0,0E0,0E0,0E0,0E0,0E0,0E0,0E0,0E0,0E0,0E0,0E0,0E0,0E0,0E0,0E0,0E0,0E0,0E0,0E0,0E0,0E0,0E0,0E0,0E0,0E0,0E0,0E0,0E0,0E0,0E0,0E0,0E0,0E0,0E0,0E0,0E0,0E0,0E0,0E0,0E0,0E0,0E0,0E0,0E0,0E0,0E0,0E0,0E0,0E0,0E0,0E0,0E0,0E0,0E0,0E0,0E0,0E0,0E0],"parents":[2147483647,0,0,1,1,2,2,3,3,4,4,5,5,6,6,7,7,8,8,9,9,10,10,11,11,12,12,13,13,14,14,15,15,16,16,17,17,19,19,21,21,23,23,24,24,25,25,26,26,28,28,29,29,31,31,33,33,34,34,35,35,36,36,37,37,38,38,39,39,40,40,41,41,42,42,43,43,44,44,45,45,46,46,47,47,48,48,49,49,50,50,53,53,54,54,55,55,58,58,60,60,61,61,62,62,63,63,65,65,66,66,68,68,69,69,70,70,71,71,72,72,73,73,74,74,75,75,76,76,77,77,78,78,79,79,80,80,81,81,82,82,83,83,84,84,85,85,89,89,90,90],"right_children":[2,4,6,8,10,12,14,16,18,20,22,24,26,28,30,32,34,36,-1,38,-1,40,-1,42,44,46,48,-1,50,52,-1,54,-1,56,58,60,62,64,66,68,70,72,74,76,78,80,82,84,86,88,90,-1,-1,92,94,96,-1,-1,98,-1,100,102,104,106,-1,108,110,-1,112,114,116,118,120,122,124,126,128,130,132,134,136,138,140,142,144,146,-1,-1,-1,148,150,-1,-1,-1,-1,-1,-1,-1,-1,-1,-1,-1,-1,-1,-1,-1,-1,-1,-1,-1,-1,-1,-1,-1,-1,-1,-1,-1,-1,-1,-1,-1,-1,-1,-1,-1,-1,-1,-1,-1,-1,-1,-1,-1,-1,-1,-1,-1,-1,-1,-1,-1,-1,-1,-1,-1,-1,-1,-1,-1,-1],"split_conditions":[-2.7044755E-1,-2.882784E-1,-2.9234904E-1,-2.959803E-1,-2.088134E-1,-2.3214859E-1,1.3193147E0,-2.8874886E-1,-3.1011847E-1,-2.9234904E-1,-5.6298986E-2,-2.3411786E-2,-1.7962356E-1,1.9823885E0,-2.6575935E-1,-5.6298986E-2,-5.6298986E-2,-2.8465414E-1,-1.4922923E-1,9.6304476E-1,-1.4927046E-1,-4.92546E-2,-1.4914563E-1,-3.1215245E-1,1.7340821E0,2.2967325E-1,-1.0780156E-1,-1.4927134E-1,-3.313806E-1,-1.5101841E-1,-1.4572768E-1,-3.2215312E-1,-1.4926057E-1,-2.9234904E-1,1.9823885E0,-3.0655685E-1,-2.8874886E-1,-5.6298986E-2,-3.230464E-1,-1.6233735E-1,-3.1169996E-1,9.6304476E-1,-2.5159618E-1,-2.4559319E-1,1.9966617E0,-2.7560624E-1,1.2495148E0,5.833653E-1,-1.3176215E-2,2.675827E-1,4.881263E-1,1.4924794E-1,-1.2411072E-1,-2.980314E-1,-2.980314E-1,6.481431E-1,-1.3932793E-1,-1.4920148E-1,-3.230464E-1,-1.492664E-1,-3.151291E-1,-2.5244448E-1,-4.92546E-2,-2.8140256E-1,-1.4926778E-1,-3.313806E-1,-2.6460865E-1,-1.4905557E-1,-1.368191E-1,-3.2270625E-1,1.9966617E0,-5.6298986E-2,-3.1685677E-1,-1.1969522E-1,-5.6298986E-2,-2.5404143E-1,1.3469192E-1,1.7006193E-1,-1.4234364E-1,-3.132122E-1,-5.6298986E-2,-3.230464E-1,4.4627267E-1,-1.11169495E-1,-1.4814216E-1,1.0280654E0,1.4920059E-1,-1.4722806E-1,1.4797918E-1,1.2220691E0,-2.7061468E-1,1.4793818E-1,-1.3762541E-1,-4.3161668E-2,-1.4908905E-1,1.3656564E-1,3.6767207E-2,1.4909081E-1,-1.4850006E-1,-1.4705016E-1,-7.591792E-2,2.5090426E-2,-1.23471E-1,-9.8075025E-2,-1.4913338E-1,5.9637893E-2,1.2858126E-1,1.4925021E-1,5.7075646E-2,-1.2594068E-1,-1.5038693E-1,-1.3241215E-1,-1.4301339E-1,-1.4796984E-1,-1.4009435E-1,-1.4890333E-1,-1.4204608E-1,1.3976517E-1,-1.652146E-1,1.4926796E-1,9.9652596E-2,1.2760012E-1,-1.4326029E-1,1.398337E-1,1.9767998E-2,-1.3289231E-1,-1.4706804E-1,-1.9563985E-1,-1.3886933E-1,-1.9550641E-1,3.7243422E-2,-1.094731E-1,-1.5351847E-1,1.4897783E-1,-1.7321692E-1,1.3713218E-1,-1.6769761E-1,-1.1476588E-1,-1.4883786E-1,1.0584899E-1,-1.1925568E-1,1.4862661E-1,1.4255932E-1,-3.2708485E-2,-1.4493473E-1,1.4904653E-1,-1.1546594E-1,-1.4925522E-1,-3.6155112E-2,1.1032914E-1,-1.4295025E-1],"split_indices":[2,2,3,1,1,2,1,2,4,3,0,1,2,0,4,0,0,5,0,0,0,1,0,5,5,1,2,0,5,5,0,4,0,3,0,5,2,0,4,1,4,0,2,2,5,5,5,1,2,1,2,0,0,1,1,5,0,0,4,0,4,5,1,2,0,5,4,0,1,4,5,0,5,1,0,5,1,1,4,4,0,4,4,5,5,1,0,0,0,1,4,0,0,0,0,0,0,0,0,0,0,0,0,0,0,0,0,0,0,0,0,0,0,0,0,0,0,0,0,0,0,0,0,0,0,0,0,0,0,0,0,0,0,0,0,0,0,0,0,0,0,0,0,0,0,0,0,0,0,0,0],"split_type":[0,0,0,0,0,0,0,0,0,0,0,0,0,0,0,0,0,0,0,0,0,0,0,0,0,0,0,0,0,0,0,0,0,0,0,0,0,0,0,0,0,0,0,0,0,0,0,0,0,0,0,0,0,0,0,0,0,0,0,0,0,0,0,0,0,0,0,0,0,0,0,0,0,0,0,0,0,0,0,0,0,0,0,0,0,0,0,0,0,0,0,0,0,0,0,0,0,0,0,0,0,0,0,0,0,0,0,0,0,0,0,0,0,0,0,0,0,0,0,0,0,0,0,0,0,0,0,0,0,0,0,0,0,0,0,0,0,0,0,0,0,0,0,0,0,0,0,0,0,0,0],"sum_hessian":[1.9770786E6,7.93666E5,1.1834126E6,3.9104756E5,4.0261844E5,8.847132E5,2.986994E5,1.8739686E4,3.7230788E5,2.5624336E5,1.4637508E5,2.0013508E5,6.845781E5,2.7957066E5,1.9128744E4,1.2566056E4,6.173631E3,1.4532245E5,2.2698542E5,1.6541702E5,9.082635E4,8.507494E4,6.130014E4,1.7582225E5,2.4312838E4,1.3773E5,5.468481E5,2.7441394E5,5.15672E3,1.9095605E4,3.313868E1,1.8214927E3,1.07445625E4,2.2505637E3,3.9230671E3,1.3939795E5,5.924509E3,1.0388735E5,6.1529664E4,3.3228426E4,5.1846516E4,9.009794E4,8.572431E4,2.3138857E4,1.1739807E3,1.331754E5,4.554595E3,1.09896055E5,4.3695206E5,5.386236E2,4.6180967E3,1.9091695E4,3.9091272E0,9.139814E2,9.075112E2,2.2393289E3,1.123486E1,1.7150415E3,2.208026E3,1.3698825E5,2.4097021E3,1.1944329E3,4.7300757E3,7.3723586E4,3.0163762E4,6.0686445E4,8.432171E2,9.843075E3,2.3385352E4,1.8328436E4,3.3518082E4,8.868366E3,8.122957E4,4.651454E4,3.9209773E4,1.8589172E4,4.5496855E3,3.7133783E2,8.026429E2,7.26461E4,6.052931E4,3.9663938E3,5.882012E2,1.08922805E5,9.7324725E2,8.212655E4,3.548255E5,5.8128952E1,4.8049466E2,4.572198E3,4.5898537E1,9.0451874E2,9.462609E0,2.4813292E2,6.5937836E2,2.2233674E3,1.5961345E1,2.0525984E3,1.5542749E2,2.1826118E3,2.2709016E2,7.072259E2,4.8720694E2,1.4735754E2,4.5827183E3,3.646457E4,3.725901E4,5.9901023E4,7.854209E2,2.8542136E2,5.577958E2,5.6811885E3,1.7704162E4,1.4797452E4,3.5309827E3,3.2337615E4,1.1804657E3,8.728092E3,1.4027379E2,8.116647E4,6.310082E1,4.099581E4,5.5187295E3,3.898068E4,2.290937E2,3.460286E3,1.5128887E4,1.8733422E3,2.6763433E3,7.01909E1,3.011469E2,6.160443E1,7.4103845E2,7.2632484E4,1.3612637E1,6.0243004E4,2.8630508E2,9.357046E2,3.0306892E3,8.991136E1,4.982898E2,9.087131E4,1.8051492E4,1.0194571E2,8.713016E2,8.1818664E4,3.0788196E2,4.5682007E3,3.9976697E0,3.503069E1,1.0867846E1],"tree_param":{"num_deleted":"0","num_feature":"6","num_nodes":"151","size_leaf_vector":"1"}},{"base_weights":[-2.7345668E-4,-9.6403104E-1,6.470381E-1,-1.3819724E0,-5.6053543E-1,1.2816949E0,-1.237442E0,-6.359053E-1,-1.4195818E0,-8.264162E-2,-1.4037734E0,9.313741E-1,1.3846517E0,-1.4191796E0,1.4185787E0,-1.1988295E0,5.0751364E-1,-1.4127561E0,-1.4239474E-1,6.436909E-1,-1.4243817E-1,-1.3898821E0,-1.4230679E-1,1.2516898E0,-1.3793161E0,1.2722553E0,1.4143652E0,-1.4243907E-1,-1.1417416E0,1.4235399E0,-1.3890776E-1,1.2116319E-1,-1.4242826E-1,1.271358E0,6.538292E-2,-1.4235951E0,-1.1977051E0,2.203883E-1,1.3738701E0,-1.3587549E0,-1.4098663E0,1.4095098E0,1.0876809E0,-1.3996052E0,-9.8310167E-1,1.3569114E0,-1.2352781E0,1.384866E0,1.421458E0,1.1048286E0,-1.4041208E0,1.4241473E-1,-1.17972076E-1,1.3805981E0,-1.1308382E0,1.2849832E0,-1.3261002E-1,-1.4236912E-1,1.2220019E0,-1.42439E-1,-1.3541602E0,-4.3995276E-1,-1.3886803E0,8.727798E-1,-1.4243552E-1,1.4119102E0,-1.3512405E0,-1.4221253E-1,-1.3321667E0,-1.394886E0,-1.4180255E0,1.2783476E0,1.4239092E0,8.859804E-1,1.3055093E0,-1.299918E0,-1.4537872E0,-6.524564E-2,-1.4286696E0,1.4211541E0,1.283536E0,-1.3089207E0,-7.6062995E-1,1.408247E0,-1.2551415E0,1.4123375E0,1.4237486E-1,-1.4039885E-1,1.4109309E-1,-1.4213073E0,6.6094184E-1,1.4104389E-1,-1.3095048E-1,-3.9078247E-2,-1.422566E-1,1.17486276E-1,1.3583457E-1,1.4225204E-1,-1.4166759E-1,-9.443916E-2,-1.4242971E-1,-1.9990519E-2,-1.6116147E-1,-1.4255263E-1,-1.0251478E-1,1.2676825E-1,5.463906E-2,1.4241691E-1,5.187089E-2,-1.4336263E-1,-1.1758242E-1,-1.2500566E-1,-1.3585965E-1,-1.410706E-1,-1.3285238E-1,-1.4205186E-1,-1.3488306E-1,1.3244191E-1,-1.551514E-1,1.4243E-1,9.216285E-2,1.2012231E-1,-1.3380621E-1,1.3130873E-1,1.2161638E-2,-1.3758416E-1,-1.0733922E-1,-1.4149724E-1,-1.6012476E-1,3.9760772E-2,-1.7102376E-1,-1.01173125E-1,-1.4614381E-1,1.4218156E-1,-1.6728866E-1,1.2968631E-1,-7.683211E-2,-8.6010866E-2,-1.409813E-1,1.779237E-2,-1.5021662E-1,1.417955E-1,1.3592227E-1,-2.0709632E-2,-1.3701878E-1,1.4215666E-1,-1.0439958E-1,-1.4242858E-1,-6.1308374E-3,1.14793554E-1,-1.3553147E-1],"categories":[],"categories_nodes":[],"categories_segments":[],"categories_sizes":[],"default_left":[0,0,0,0,0,0,0,0,0,0,0,0,0,0,0,0,0,0,0,0,0,0,0,0,0,0,0,0,0,0,0,0,0,0,0,0,0,0,0,0,0,0,0,0,0,0,0,0,0,0,0,0,0,0,0,0,0,0,0,0,0,0,0,0,0,0,0,0,0,0,0,0,0,0,0,0,0,0,0,0,0,0,0,0,0,0,0,0,0,0,0,0,0,0,0,0,0,0,0,0,0,0,0,0,0,0,0,0,0,0,0,0,0,0,0,0,0,0,0,0,0,0,0,0,0,0,0,0,0,0,0,0,0,0,0,0,0,0,0,0,0,0,0,0,0,0,0,0,0,0,0],"id":5,"left_children":[1,3,5,7,9,11,13,15,17,19,21,23,25,27,29,31,33,35,-1,37,-1,39,-1,41,43,45,47,-1,49,51,-1,53,-1,55,57,59,61,63,65,67,69,71,73,75,77,79,81,83,85,87,89,-1,-1,91,93,95,-1,-1,97,-1,99,101,103,105,-1,107,109,-1,111,113,115,117,119,121,123,125,127,129,131,133,135,137,139,141,143,145,-1,-1,-1,147,149,-1,-1,-1,-1,-1,-1,-1,-1,-1,-1,-1,-1,-1,-1,-1,-1,-1,-1,-1,-1,-1,-1,-1,-1,-1,-1,-1,-1,-1,-1,-1,-1,-1,-1,-1,-1,-1,-1,-1,-1,-1,-1,-1,-1,-1,-1,-1,-1,-1,-1,-1,-1,-1,-1,-1,-1,-1,-1,-1,-1],"loss_changes":[1.1696222E6,1.2703256E5,1.3413716E6,1.03815625E4,1.5445006E5,3.02595E4,1.363919E5,1.1431656E4,8.5625E0,2.3840655E5,3.515625E1,1.410525E5,2.16375E3,3.8075E2,2.5404688E2,3.5418418E3,1.9788076E3,3.1890625E2,0E0,4.9056305E4,0E0,4.825E1,0E0,4.3306562E3,1.8514062E2,2.8783938E4,1.05375E2,0E0,2.8785596E3,3.0242188E1,0E0,2.7405725E3,0E0,7.772925E1,6.3955947E3,5.28125E0,9.5536426E2,1.0780836E5,6.0397344E3,5.1285156E1,4.015625E0,1.5926562E2,3.6051172E3,1.1730859E2,4.6350537E2,6.164375E2,1.5380176E2,6.1401094E3,6.5625E0,3.9439148E2,1.5606543E2,0E0,0E0,7.139758E1,1.8762842E2,1.5671875E1,0E0,0E0,1.1078379E3,0E0,4.1824707E1,3.7409467E2,6.9206055E1,9.2715E3,0E0,6.282422E2,9.909668E0,0E0,4.6585938E1,1.6363281E1,3.5585938E0,1.1033398E3,1.3765625E1,2.9883594E4,3.5385938E2,1.3234082E2,7.9521484E1,2.8353934E2,8.947144E0,1.4548438E2,1.6755781E3,1.7232324E2,4.1590228E2,4.5E1,1.0504028E2,1.8854688E3,0E0,0E0,0E0,1.7472656E1,3.7649487E1,0E0,0E0,0E0,0E0,0E0,0E0,0E0,0E0,0E0,0E0,0E0,0E0,0E0,0E0,0E0,0E0,0E0,0E0,0E0,0E0,0E0,0E0,0E0,0E0,0E0,0E0,0E0,0E0,0E0,0E0,0E0,0E0,0E0,0E0,0E0,0E0,0E0,0E0,0E0,0E0,0E0,0E0,0E0,0E0,0E0,0E0,0E0,0E0,0E0,0E0,0E0,0E0,0E0,0E0,0E0,0E0,0E0,0E0,0E0,0E0],"parents":[2147483647,0,0,1,1,2,2,3,3,4,4,5,5,6,6,7,7,8,8,9,9,10,10,11,11,12,12,13,13,14,14,15,15,16,16,17,17,19,19,21,21,23,23,24,24,25,25,26,26,28,28,29,29,31,31,33,33,34,34,35,35,36,36,37,37,38,38,39,39,40,40,41,41,42,42,43,43,44,44,45,45,46,46,47,47,48,48,49,49,50,50,53,53,54,54,55,55,58,58,60,60,61,61,62,62,63,63,65,65,66,66,68,68,69,69,70,70,71,71,72,72,73,73,74,74,75,75,76,76,77,77,78,78,79,79,80,80,81,81,82,82,83,83,84,84,85,85,89,89,90,90],"right_children":[2,4,6,8,10,12,14,16,18,20,22,24,26,28,30,32,34,36,-1,38,-1,40,-1,42,44,46,48,-1,50,52,-1,54,-1,56,58,60,62,64,66,68,70,72,74,76,78,80,82,84,86,88,90,-1,-1,92,94,96,-1,-1,98,-1,100,102,104,106,-1,108,110,-1,112,114,116,118,120,122,124,126,128,130,132,134,136,138,140,142,144,146,-1,-1,-1,148,150,-1,-1,-1,-1,-1,-1,-1,-1,-1,-1,-1,-1,-1,-1,-1,-1,-1,-1,-1,-1,-1,-1,-1,-1,-1,-1,-1,-1,-1,-1,-1,-1,-1,-1,-1,-1,-1,-1,-1,-1,-1,-1,-1,-1,-1,-1,-1,-1,-1,-1,-1,-1,-1,-1,-1,-1,-1,-1,-1,-1],"split_conditions":[-2.7044755E-1,-2.882784E-1,-2.9234904E-1,-2.959803E-1,-2.088134E-1,-2.3214859E-1,1.3193147E0,-2.8874886E-1,-3.1011847E-1,-2.9234904E-1,-5.6298986E-2,-2.3411786E-2,-1.7649807E-1,1.9823885E0,-2.6575935E-1,-5.6298986E-2,-5.6298986E-2,-2.9383373E-1,-1.4239474E-1,9.6304476E-1,-1.4243817E-1,-4.92546E-2,-1.4230679E-1,-3.1215245E-1,1.7340821E0,2.3932597E-1,-1.0780156E-1,-1.4243907E-1,-3.313806E-1,-1.5101841E-1,-1.3890776E-1,-3.2215312E-1,-1.4242826E-1,-2.9234904E-1,1.9823885E0,-3.0788028E-1,-2.8874886E-1,-5.6298986E-2,-3.230464E-1,-1.6233735E-1,-3.1169996E-1,9.6304476E-1,-2.5208336E-1,-3.08406E-1,1.9966617E0,-2.770479E-1,1.2495148E0,5.833653E-1,-7.083415E-3,2.675827E-1,7.2335905E-1,1.4241473E-1,-1.17972076E-1,-2.980314E-1,-2.980314E-1,-2.8860372E-1,-1.3261002E-1,-1.4236912E-1,-3.230464E-1,-1.42439E-1,-2.8874886E-1,-2.0865783E-1,-3.151291E-1,-2.6090366E-1,-1.4243552E-1,-3.313806E-1,-2.5936473E-2,-1.4221253E-1,-1.368191E-1,-3.2270625E-1,1.9966617E0,-5.6298986E-2,-3.1685677E-1,-1.2244233E-1,-5.6298986E-2,-3.230464E-1,-2.4559319E-1,4.5806745E-1,2.087881E0,-3.151291E-1,-5.6298986E-2,-2.0684607E-1,-5.6298986E-2,-1.11169495E-1,-1.5409529E-1,1.0618259E0,1.4237486E-1,-1.4039885E-1,1.4109309E-1,1.1695677E0,-1.8009283E-1,1.4104389E-1,-1.3095048E-1,-3.9078247E-2,-1.422566E-1,1.17486276E-1,1.3583457E-1,1.4225204E-1,-1.4166759E-1,-9.443916E-2,-1.4242971E-1,-1.9990519E-2,-1.6116147E-1,-1.4255263E-1,-1.0251478E-1,1.2676825E-1,5.463906E-2,1.4241691E-1,5.187089E-2,-1.4336263E-1,-1.1758242E-1,-1.2500566E-1,-1.3585965E-1,-1.410706E-1,-1.3285238E-1,-1.4205186E-1,-1.3488306E-1,1.3244191E-1,-1.551514E-1,1.4243E-1,9.216285E-2,1.2012231E-1,-1.3380621E-1,1.3130873E-1,1.2161638E-2,-1.3758416E-1,-1.0733922E-1,-1.4149724E-1,-1.6012476E-1,3.9760772E-2,-1.7102376E-1,-1.01173125E-1,-1.4614381E-1,1.4218156E-1,-1.6728866E-1,1.2968631E-1,-7.683211E-2,-8.6010866E-2,-1.409813E-1,1.779237E-2,-1.5021662E-1,1.417955E-1,1.3592227E-1,-2.0709632E-2,-1.3701878E-1,1.4215666E-1,-1.0439958E-1,-1.4242858E-1,-6.1308374E-3,1.14793554E-1,-1.3553147E-1],"split_indices":[2,2,3,1,1,2,1,2,4,3,0,1,2,0,4,0,0,5,0,0,0,1,0,5,5,1,2,0,5,5,0,4,0,3,0,5,2,0,4,1,4,0,2,4,5,5,5,1,2,1,2,0,0,1,1,2,0,0,4,0,2,5,4,1,0,5,5,0,1,4,5,0,5,1,0,4,2,1,5,4,0,5,0,5,5,1,0,0,0,1,5,0,0,0,0,0,0,0,0,0,0,0,0,0,0,0,0,0,0,0,0,0,0,0,0,0,0,0,0,0,0,0,0,0,0,0,0,0,0,0,0,0,0,0,0,0,0,0,0,0,0,0,0,0,0,0,0,0,0,0,0],"split_type":[0,0,0,0,0,0,0,0,0,0,0,0,0,0,0,0,0,0,0,0,0,0,0,0,0,0,0,0,0,0,0,0,0,0,0,0,0,0,0,0,0,0,0,0,0,0,0,0,0,0,0,0,0,0,0,0,0,0,0,0,0,0,0,0,0,0,0,0,0,0,0,0,0,0,0,0,0,0,0,0,0,0,0,0,0,0,0,0,0,0,0,0,0,0,0,0,0,0,0,0,0,0,0,0,0,0,0,0,0,0,0,0,0,0,0,0,0,0,0,0,0,0,0,0,0,0,0,0,0,0,0,0,0,0,0,0,0,0,0,0,0,0,0,0,0,0,0,0,0,0,0],"sum_hessian":[1.8748391E6,7.532915E5,1.1215476E6,3.7002088E5,3.8327066E5,8.389916E5,2.82556E5,1.7758496E4,3.5226238E5,2.4463062E5,1.3864002E5,1.9056945E5,6.484221E5,2.644608E5,1.8095201E4,1.1899918E4,5.858577E3,1.3754027E5,2.1472211E5,1.5871369E5,8.591694E4,8.064854E4,5.7991484E4,1.673687E5,2.3200756E4,1.3558653E5,5.1283562E5,2.5958098E5,4.879809E3,1.8063773E4,3.1426231E1,1.736054E3,1.0163864E4,2.1471653E3,3.7114119E3,1.309352E5,6.60506E3,1.00470055E5,5.8243625E4,3.155996E4,4.9088574E4,8.528975E4,8.2078945E4,2.2068172E4,1.132584E3,1.3115897E5,4.4275605E3,9.944446E4,4.1339116E5,5.0998148E2,4.3698276E3,1.8060014E4,3.7609305E0,8.654065E2,8.706474E2,2.1364636E3,1.0701683E1,1.6224188E3,2.088993E3,1.2943412E5,1.5010863E3,1.330238E3,5.2748223E3,7.193667E4,2.8533389E4,5.7442266E4,8.0135876E2,9.3123545E3,2.2247605E4,1.7369582E4,3.1718994E4,8.446005E3,7.684375E4,4.2619773E4,3.945917E4,7.779689E3,1.4288483E4,3.7050388E2,7.620801E2,6.992169E4,6.123728E4,3.8313594E3,5.9620105E2,9.857194E4,8.725237E2,8.310566E4,3.302855E5,5.5066803E1,4.5491467E2,4.334069E3,3.5758854E1,8.563825E2,9.023981E0,2.4682954E2,6.238179E2,8.6103217E2,1.2754314E3,1.9418861E3,1.4710696E2,2.2149393E2,1.2795924E3,1.1050155E3,2.252226E2,4.78674E3,4.880821E2,3.2550506E4,3.9386164E4,5.6663977E4,7.782895E2,5.4038837E2,2.6097043E2,5.4291445E3,1.681846E4,1.4009582E4,3.3599995E3,3.059708E4,1.121913E3,8.311227E3,1.347786E2,7.678218E4,6.1567863E1,3.732909E4,5.290682E3,3.9208094E4,2.5107704E2,5.822962E3,1.956727E3,1.1319535E4,2.9689487E3,2.897382E2,8.076569E1,5.785249E1,7.042276E2,6.990728E4,1.4404979E1,6.084247E4,3.9481332E2,7.049523E2,3.126407E3,2.6347897E2,3.3272208E2,8.225541E4,1.6316527E4,8.65819E1,7.859418E2,8.2795E4,3.1065924E2,4.324551E3,9.518134E0,2.914904E1,6.6098123E0],"tree_param":{"num_deleted":"0","num_feature":"6","num_nodes":"151","size_leaf_vector":"1"}},{"base_weights":[-3.617453E-4,-9.223221E-1,6.200318E-1,-1.3268161E0,-5.3457713E-1,1.2273805E0,-1.1884847E0,-6.095477E-1,-1.3630394E0,-7.89224E-2,-1.3461366E0,8.8773125E-1,1.3277844E0,-1.363033E0,1.3624166E0,-1.1499223E0,4.8538265E-1,-1.3559521E0,-1.3675754E-1,6.073739E-1,-1.3680388E-1,-1.3314121E0,-1.3666384E-1,1.1931437E0,-1.3136849E0,1.212002E0,1.3572247E0,-1.3680479E-1,-1.0961455E0,1.3671956E0,-1.3321246E-1,1.15376905E-1,-1.3679375E-1,1.2083703E0,6.274663E-2,-1.3672043E0,-1.1355299E0,2.0531675E-1,1.3184475E0,-1.298541E0,-1.3525946E0,1.3525807E0,1.0296017E0,-1.3338274E0,-9.254152E-1,1.2962964E0,-1.1922063E0,1.3263361E0,1.3650126E0,1.0598133E0,-1.3481351E0,1.367791E-1,-1.1259431E-1,1.3243618E0,-1.0683317E0,1.2213705E0,-1.2689708E-1,-1.3673325E-1,1.1734182E0,-1.3680464E-1,-1.2940406E0,-4.0039963E-1,-1.3302743E0,8.074205E-1,-1.3680114E-1,1.3550401E0,-1.2907336E0,-1.3656382E-1,-1.2705734E0,-1.336697E0,-1.36127E0,1.3545691E0,3.3462057E-1,8.444281E-1,1.2525655E0,-1.2317528E0,-1.388916E0,-6.014645E-2,-1.3669888E0,1.3641496E0,1.2188089E0,-1.2636583E0,-7.2774595E-1,1.349355E0,-1.1850044E0,1.3563502E0,1.367544E-1,-1.3472459E-1,1.3538256E-1,-1.3669581E0,4.3091935E-1,1.3532506E-1,-1.2525079E-1,-3.539212E-2,-1.366182E-1,9.750146E-2,1.2572774E-1,1.3660794E-1,-1.3601665E-1,-8.808034E-2,-1.3667618E-1,-8.578221E-2,1.833915E-2,-9.2908435E-2,-1.3674818E-1,4.478007E-2,1.16241194E-1,1.3678123E-1,4.716769E-2,-1.3446309E-1,-9.938808E-2,-1.2908567E-1,-1.15469374E-1,-1.3534795E-1,-1.2667313E-1,-1.3639227E-1,-1.288083E-1,1.2351668E-1,1.3675918E-1,-1.7150488E-1,1.1779417E-1,1.13178745E-1,-1.2662525E-1,1.2624411E-1,4.3251365E-2,-1.3098876E-1,-9.9343225E-2,-1.4698082E-1,-1.3347E-1,-1.8220937E-1,3.547444E-2,-9.417837E-2,-1.4015199E-1,1.364806E-1,-1.568211E-1,1.23222604E-1,-1.5379237E-1,-1.0010852E-1,-1.3463521E-1,9.841456E-3,-1.4357905E-1,1.3615987E-1,1.2989746E-1,-2.6234929E-2,-1.301792E-1,1.364473E-1,-9.000344E-2,-1.3678978E-1,-3.281334E-2,-1.6098797E-1,9.281279E-2],"categories":[],"categories_nodes":[],"categories_segments":[],"categories_sizes":[],"default_left":[0,0,0,0,0,0,0,0,0,0,0,0,0,0,0,0,0,0,0,0,0,0,0,0,0,0,0,0,0,0,0,0,0,0,0,0,0,0,0,0,0,0,0,0,0,0,0,0,0,0,0,0,0,0,0,0,0,0,0,0,0,0,0,0,0,0,0,0,0,0,0,0,0,0,0,0,0,0,0,0,0,0,0,0,0,0,0,0,0,0,0,0,0,0,0,0,0,0,0,0,0,0,0,0,0,0,0,0,0,0,0,0,0,0,0,0,0,0,0,0,0,0,0,0,0,0,0,0,0,0,0,0,0,0,0,0,0,0,0,0,0,0,0,0,0,0,0,0,0,0,0],"id":6,"left_children":[1,3,5,7,9,11,13,15,17,19,21,23,25,27,29,31,33,35,-1,37,-1,39,-1,41,43,45,47,-1,49,51,-1,53,-1,55,57,59,61,63,65,67,69,71,73,75,77,79,81,83,85,87,89,-1,-1,91,93,95,-1,-1,97,-1,99,101,103,105,-1,107,109,-1,111,113,115,117,119,121,123,125,127,129,131,133,135,137,139,141,143,145,-1,-1,-1,147,149,-1,-1,-1,-1,-1,-1,-1,-1,-1,-1,-1,-1,-1,-1,-1,-1,-1,-1,-1,-1,-1,-1,-1,-1,-1,-1,-1,-1,-1,-1,-1,-1,-1,-1,-1,-1,-1,-1,-1,-1,-1,-1,-1,-1,-1,-1,-1,-1,-1,-1,-1,-1,-1,-1,-1,-1,-1,-1,-1,-1],"loss_changes":[1.0110904E6,1.11519125E5,1.1606464E6,9.040875E3,1.342479E5,2.697425E4,1.1828275E5,9.900246E3,8.8125E0,2.0569772E5,3.759375E1,1.2134891E5,2.0795E3,3.3128125E2,2.2091406E2,3.0905928E3,1.6895438E3,3.19375E2,0E0,4.337702E4,0E0,5.1171875E1,0E0,4.1313438E3,1.7073828E2,2.508711E4,1.1525E2,0E0,2.4954463E3,2.6738281E1,0E0,2.3591873E3,0E0,6.724634E1,5.546041E3,5.796875E0,9.000342E2,9.18184E4,5.234125E3,5.4210938E1,4.5546875E0,1.6198438E2,3.2294531E3,1.15828125E2,4.1552838E2,6.271094E2,1.382456E2,5.669672E3,6.6875E0,3.4220856E2,1.3824512E2,0E0,0E0,6.2404175E1,1.7677411E2,1.6729004E1,0E0,0E0,9.6116724E2,0E0,4.1446045E1,3.5234442E2,7.295801E1,8.948449E3,0E0,6.091172E2,1.0798584E1,0E0,4.8E1,1.7503906E1,4.0351562E0,1.22875E2,2.7474097E2,2.5929191E4,2.869375E2,1.3529492E2,5.754297E1,2.7009335E2,9.25415E0,1.2484375E2,2.0672656E3,7.753613E1,3.285702E2,5.815625E1,9.567786E1,1.6145469E3,0E0,0E0,0E0,3.5219727E0,4.5935966E1,0E0,0E0,0E0,0E0,0E0,0E0,0E0,0E0,0E0,0E0,0E0,0E0,0E0,0E0,0E0,0E0,0E0,0E0,0E0,0E0,0E0,0E0,0E0,0E0,0E0,0E0,0E0,0E0,0E0,0E0,0E0,0E0,0E0,0E0,0E0,0E0,0E0,0E0,0E0,0E0,0E0,0E0,0E0,0E0,0E0,0E0,0E0,0E0,0E0,0E0,0E0,0E0,0E0,0E0,0E0,0E0,0E0,0E0,0E0,0E0],"parents":[2147483647,0,0,1,1,2,2,3,3,4,4,5,5,6,6,7,7,8,8,9,9,10,10,11,11,12,12,13,13,14,14,15,15,16,16,17,17,19,19,21,21,23,23,24,24,25,25,26,26,28,28,29,29,31,31,33,33,34,34,35,35,36,36,37,37,38,38,39,39,40,40,41,41,42,42,43,43,44,44,45,45,46,46,47,47,48,48,49,49,50,50,53,53,54,54,55,55,58,58,60,60,61,61,62,62,63,63,65,65,66,66,68,68,69,69,70,70,71,71,72,72,73,73,74,74,75,75,76,76,77,77,78,78,79,79,80,80,81,81,82,82,83,83,84,84,85,85,89,89,90,90],"right_children":[2,4,6,8,10,12,14,16,18,20,22,24,26,28,30,32,34,36,-1,38,-1,40,-1,42,44,46,48,-1,50,52,-1,54,-1,56,58,60,62,64,66,68,70,72,74,76,78,80,82,84,86,88,90,-1,-1,92,94,96,-1,-1,98,-1,100,102,104,106,-1,108,110,-1,112,114,116,118,120,122,124,126,128,130,132,134,136,138,140,142,144,146,-1,-1,-1,148,150,-1,-1,-1,-1,-1,-1,-1,-1,-1,-1,-1,-1,-1,-1,-1,-1,-1,-1,-1,-1,-1,-1,-1,-1,-1,-1,-1,-1,-1,-1,-1,-1,-1,-1,-1,-1,-1,-1,-1,-1,-1,-1,-1,-1,-1,-1,-1,-1,-1,-1,-1,-1,-1,-1,-1,-1,-1,-1,-1,-1],"split_conditions":[-2.7044755E-1,-2.882784E-1,-2.9234904E-1,-2.959803E-1,-2.088134E-1,-2.3214859E-1,1.3193147E0,-2.8874886E-1,-3.1011847E-1,-2.9234904E-1,-5.6298986E-2,-2.3411786E-2,-1.7962356E-1,1.9823885E0,-2.6575935E-1,-5.6298986E-2,-5.6298986E-2,-2.9383373E-1,-1.3675754E-1,9.6304476E-1,-1.3680388E-1,-4.92546E-2,-1.3666384E-1,-3.1215245E-1,1.7340821E0,2.2967325E-1,-1.0780156E-1,-1.3680479E-1,-3.313806E-1,-1.5101841E-1,-1.3321246E-1,-3.2215312E-1,-1.3679375E-1,-2.9234904E-1,1.9823885E0,-3.0788028E-1,-2.8874886E-1,-5.6298986E-2,-3.230464E-1,-1.6233735E-1,-3.1169996E-1,-3.1702572E-1,-2.5159618E-1,-3.0925757E-1,1.9966617E0,-2.770479E-1,1.2495148E0,5.833653E-1,1.1184835E-2,2.675827E-1,4.881263E-1,1.367791E-1,-1.1259431E-1,-2.980314E-1,-2.980314E-1,-3.230464E-1,-1.2689708E-1,-1.3673325E-1,-3.230464E-1,-1.3680464E-1,-2.8874886E-1,-3.230464E-1,-4.92546E-2,-2.8140256E-1,-1.3680114E-1,-3.313806E-1,-2.8097153E-1,-1.3656382E-1,2.2917758E-1,-3.2270625E-1,1.9966617E0,9.6304476E-1,-2.5159618E-1,-1.1969522E-1,-2.8151339E-2,-3.230464E-1,1.3469192E-1,1.7006193E-1,-1.4234364E-1,-3.151291E-1,-5.6298986E-2,-3.230464E-1,5.14047E-1,-1.4814216E-1,-1.4814216E-1,1.1695677E0,1.367544E-1,-1.3472459E-1,1.3538256E-1,1.2220691E0,3.690516E-1,1.3532506E-1,-1.2525079E-1,-3.539212E-2,-1.366182E-1,9.750146E-2,1.2572774E-1,1.3660794E-1,-1.3601665E-1,-8.808034E-2,-1.3667618E-1,-8.578221E-2,1.833915E-2,-9.2908435E-2,-1.3674818E-1,4.478007E-2,1.16241194E-1,1.3678123E-1,4.716769E-2,-1.3446309E-1,-9.938808E-2,-1.2908567E-1,-1.15469374E-1,-1.3534795E-1,-1.2667313E-1,-1.3639227E-1,-1.288083E-1,1.2351668E-1,1.3675918E-1,-1.7150488E-1,1.1779417E-1,1.13178745E-1,-1.2662525E-1,1.2624411E-1,4.3251365E-2,-1.3098876E-1,-9.9343225E-2,-1.4698082E-1,-1.3347E-1,-1.8220937E-1,3.547444E-2,-9.417837E-2,-1.4015199E-1,1.364806E-1,-1.568211E-1,1.23222604E-1,-1.5379237E-1,-1.0010852E-1,-1.3463521E-1,9.841456E-3,-1.4357905E-1,1.3615987E-1,1.2989746E-1,-2.6234929E-2,-1.301792E-1,1.364473E-1,-9.000344E-2,-1.3678978E-1,-3.281334E-2,-1.6098797E-1,9.281279E-2],"split_indices":[2,2,3,1,1,2,1,2,4,3,0,1,2,0,4,0,0,5,0,0,0,1,0,5,5,1,2,0,5,5,0,4,0,3,0,5,2,0,4,1,4,4,2,4,5,5,5,1,2,1,2,0,0,1,1,4,0,0,4,0,2,4,1,2,0,5,2,0,4,4,5,0,2,1,1,4,1,1,4,4,0,4,1,5,5,1,0,0,0,1,1,0,0,0,0,0,0,0,0,0,0,0,0,0,0,0,0,0,0,0,0,0,0,0,0,0,0,0,0,0,0,0,0,0,0,0,0,0,0,0,0,0,0,0,0,0,0,0,0,0,0,0,0,0,0,0,0,0,0,0,0],"split_type":[0,0,0,0,0,0,0,0,0,0,0,0,0,0,0,0,0,0,0,0,0,0,0,0,0,0,0,0,0,0,0,0,0,0,0,0,0,0,0,0,0,0,0,0,0,0,0,0,0,0,0,0,0,0,0,0,0,0,0,0,0,0,0,0,0,0,0,0,0,0,0,0,0,0,0,0,0,0,0,0,0,0,0,0,0,0,0,0,0,0,0,0,0,0,0,0,0,0,0,0,0,0,0,0,0,0,0,0,0,0,0,0,0,0,0,0,0,0,0,0,0,0,0,0,0,0,0,0,0,0,0,0,0,0,0,0,0,0,0,0,0,0,0,0,0,0,0,0,0,0,0],"sum_hessian":[1.767706E6,7.1103856E5,1.0566675E6,3.480019E5,3.6303662E5,7.910214E5,2.656461E5,1.6730703E4,3.3127122E5,2.3249953E5,1.3053711E5,1.8048406E5,6.105374E5,2.486335E5,1.7012574E4,1.1202131E4,5.5285728E3,1.293947E5,2.0187652E5,1.5172506E5,8.077446E4,7.60114E4,5.4525715E4,1.5849569E5,2.198837E4,1.2377988E5,4.8675747E5,2.4404383E5,4.589673E3,1.6982945E4,2.962815E1,1.646541E3,9.555589E3,2.038879E3,3.4896936E3,1.2310518E5,6.2895205E3,9.692356E4,5.4801504E4,2.9811861E4,4.6199535E4,8.0251414E4,7.824427E4,2.0901611E4,1.0867585E3,1.1958747E5,4.192416E3,9.804908E4,3.8870838E5,4.7996957E2,4.109703E3,1.6979344E4,3.6024365E0,8.145148E2,8.320263E2,2.02874E3,1.0139142E1,1.5253943E3,1.9642992E3,1.21686945E5,1.4182357E3,1.3178596E3,4.971661E3,7.009796E4,2.6825605E4,5.404404E4,7.574632E2,8.756429E3,2.1055432E4,1.6365097E4,2.983444E4,8.009464E4,1.5677618E2,4.2747145E4,3.549713E4,7.334587E3,1.3567023E4,3.675926E2,7.1916595E2,6.374849E4,5.5838977E4,3.6319592E3,5.604567E2,9.715899E4,8.900926E2,8.802292E4,3.0068547E5,5.185488E1,4.281147E2,4.0669055E3,4.2797844E1,8.059542E2,8.56056E0,2.454615E2,5.8656476E2,2.6165872E2,1.7670812E3,1.8259122E3,1.3838696E2,2.1419406E2,1.2040416E3,7.386388E2,5.792208E2,4.2415634E2,4.547505E3,3.4823098E4,3.5274863E4,5.3273234E4,7.7080743E2,6.3808203E2,1.1938117E2,1.7910314E4,3.1451182E3,1.3184262E4,3.1808342E3,2.877388E4,1.0605593E3,7.8859062E3,7.2208734E4,4.539971E1,1.1137647E2,3.762512E4,5.1220205E3,3.5074203E4,4.229265E2,5.520242E3,1.8143447E3,5.433685E3,8.1333384E3,6.941425E1,2.9817834E2,5.6140667E1,6.6302527E2,6.3734758E4,1.3732404E1,5.5569074E4,2.6990317E2,8.7301886E2,2.7589402E3,2.590514E2,3.014053E2,7.814241E4,1.9016584E4,1.0037192E2,7.897207E2,8.770758E4,3.1534354E2,4.0629136E3,3.9918087E0,7.945911E0,3.4851936E1],"tree_param":{"num_deleted":"0","num_feature":"6","num_nodes":"151","size_leaf_vector":"1"}},{"base_weights":[-4.5460468E-4,-9.9357224E-1,5.330105E-1,-6.2012684E-1,-1.3395245E0,1.1267302E0,-1.1667668E0,-8.8025683E-1,9.6995944E-1,-1.5859541E0,-1.3086168E0,6.353774E-1,1.2550138E0,-1.3167108E0,1.3154676E0,2.9221126E-1,-1.3210009E-1,1.3085655E0,-1.3157246E-1,-1.321197E-1,-2.0253408E0,-1.2653224E0,-1.3183254E0,1.1301163E0,-1.2653638E0,1.0696335E0,1.2999855E0,-1.3209975E-1,-1.0947875E0,1.3201272E0,-1.2841095E-1,-1.1157503E0,8.060149E-1,1.3127528E0,-1.3063382E-1,-2.768915E0,-1.3419262E0,-9.313377E-1,-1.291254E0,-1.3204187E-1,-1.3069006E0,1.2739301E0,9.555782E-1,-1.156241E0,-1.3018287E0,1.2257961E0,-1.3180252E0,1.239764E0,1.3151616E0,9.5952857E-1,-1.3041345E0,1.3207144E-1,-1.07822E-1,1.0208648E0,-1.3072138E0,9.582281E-1,-1.3206623E-1,1.3204749E-1,9.6644205E-1,-2.6407444E-1,-3.1621227E-1,-1.3207875E-1,-1.6836916E0,-1.2801137E0,-1.526895E-1,-1.3109581E0,-1.2197177E0,-1.267618E0,-1.3185309E-1,1.0635523E0,1.3188219E0,6.9284034E-1,1.1337918E0,-1.2042934E0,9.276211E-1,-1.3116232E0,-1.0954031E0,1.3171539E0,1.1281333E0,-2.175364E0,-1.1887332E0,1.2846835E0,-1.2415953E0,1.2968019E0,1.3190181E0,-1.3037322E-1,1.3058041E-1,-1.3201965E0,3.7730974E-1,1.2976496E-1,5.493728E-2,-2.1881836E-2,-1.3242793E-1,6.4997755E-2,1.1989683E-1,1.3449825E-1,-1.8540263E-1,-2.5607955E-1,-1.2966557E-1,-1.3327742E-1,-7.504109E-2,3.791309E-2,-9.973117E-2,-1.3226326E-1,-1.3028422E-1,-1.08646415E-1,-1.2937051E-1,-1.3060229E-1,-1.1362002E-1,1.233161E-1,-1.3547234E-1,1.320628E-1,-3.5335127E-2,1.2174131E-1,-1.4935319E-1,1.1457636E-1,-7.545783E-2,-1.2834652E-1,-1.0574724E-1,-1.3729766E-1,2.1632946E-1,-8.7577336E-2,-1.3152325E-1,-2.1400688E-2,-1.326155E-1,1.3174492E-1,-1.3295336E-1,1.14025764E-1,-9.711506E-2,-1.503912E-1,-2.925781E-1,-1.2718037E-1,-4.156814E-2,1.307206E-1,1.2060068E-1,-2.0324777E-1,-1.1854526E-1,1.3123594E-1,-1.0077455E-1,1.3127615E-1,1.3207851E-1,-1.3208412E-1,-4.3032315E-2,9.329438E-2,-1.3007405E-1],"categories":[],"categories_nodes":[],"categories_segments":[],"categories_sizes":[],"default_left":[0,0,0,0,0,0,0,0,0,0,0,0,0,0,0,0,0,0,0,0,0,0,0,0,0,0,0,0,0,0,0,0,0,0,0,0,0,0,0,0,0,0,0,0,0,0,0,0,0,0,0,0,0,0,0,0,0,0,0,0,0,0,0,0,0,0,0,0,0,0,0,0,0,0,0,0,0,0,0,0,0,0,0,0,0,0,0,0,0,0,0,0,0,0,0,0,0,0,0,0,0,0,0,0,0,0,0,0,0,0,0,0,0,0,0,0,0,0,0,0,0,0,0,0,0,0,0,0,0,0,0,0,0,0,0,0,0,0,0,0,0,0,0,0,0],"id":7,"left_children":[1,3,5,7,9,11,13,15,17,19,21,23,25,27,29,31,-1,33,-1,-1,35,37,39,41,43,45,47,-1,49,51,-1,53,55,57,-1,59,61,63,65,-1,67,69,71,73,75,77,79,81,83,85,87,-1,-1,89,91,93,-1,-1,95,-1,-1,-1,97,99,101,103,105,107,-1,109,111,113,115,117,119,121,123,125,127,129,131,133,135,137,139,-1,-1,141,143,-1,-1,-1,-1,-1,-1,-1,-1,-1,-1,-1,-1,-1,-1,-1,-1,-1,-1,-1,-1,-1,-1,-1,-1,-1,-1,-1,-1,-1,-1,-1,-1,-1,-1,-1,-1,-1,-1,-1,-1,-1,-1,-1,-1,-1,-1,-1,-1,-1,-1,-1,-1,-1,-1,-1,-1],"loss_changes":[8.7886256E5,7.48925E4,1.0891021E6,1.15309305E5,2.2899375E3,5.0413438E4,1.0398191E5,1.2380492E5,3.0336031E4,3.8981016E3,1.1075E2,1.5571534E5,5.286E3,2.4921875E2,1.9447656E2,4.73528E4,0E0,3.755078E2,0E0,0E0,6.4022734E3,4.2321094E2,3.5E0,3.2967812E3,1.3458203E2,4.617183E4,4.6475E2,0E0,2.1508428E3,2.3792969E1,0E0,7.1606113E3,1.5525113E4,8.987891E1,0E0,2.958672E2,4.5246094E1,9.596267E2,6.2492188E1,0E0,1.3824219E1,6.788828E2,2.778582E3,8.5974414E2,5.0375E1,1.0355156E3,8.400781E2,1.1454375E4,2.71875E1,3.644247E2,1.23015625E2,0E0,0E0,1.8718909E2,2.9804297E2,3.3203164E3,0E0,0E0,8.001832E2,0E0,0E0,0E0,1.2537085E2,6.708496E1,4.9201056E2,1.6523438E0,9.555078E1,3.7749023E1,0E0,5.1995176E3,1.7974219E2,2.7519348E4,8.0041016E2,9.6075195E1,5.540043E2,3.732422E1,2.3703943E2,4.8664062E1,1.4310469E3,4.9694775E2,4.238252E2,1.7728125E2,7.873633E1,2.5406016E3,2E0,0E0,0E0,2.0092773E0,4.1960674E1,0E0,0E0,0E0,0E0,0E0,0E0,0E0,0E0,0E0,0E0,0E0,0E0,0E0,0E0,0E0,0E0,0E0,0E0,0E0,0E0,0E0,0E0,0E0,0E0,0E0,0E0,0E0,0E0,0E0,0E0,0E0,0E0,0E0,0E0,0E0,0E0,0E0,0E0,0E0,0E0,0E0,0E0,0E0,0E0,0E0,0E0,0E0,0E0,0E0,0E0,0E0,0E0,0E0,0E0,0E0,0E0],"parents":[2147483647,0,0,1,1,2,2,3,3,4,4,5,5,6,6,7,7,8,8,9,9,10,10,11,11,12,12,13,13,14,14,15,15,17,17,20,20,21,21,22,22,23,23,24,24,25,25,26,26,28,28,29,29,31,31,32,32,33,33,35,35,36,36,37,37,38,38,40,40,41,41,42,42,43,43,44,44,45,45,46,46,47,47,48,48,49,49,50,50,53,53,54,54,55,55,58,58,62,62,63,63,64,64,65,65,66,66,67,67,69,69,70,70,71,71,72,72,73,73,74,74,75,75,76,76,77,77,78,78,79,79,80,80,81,81,82,82,83,83,84,84,87,87,88,88],"right_children":[2,4,6,8,10,12,14,16,18,20,22,24,26,28,30,32,-1,34,-1,-1,36,38,40,42,44,46,48,-1,50,52,-1,54,56,58,-1,60,62,64,66,-1,68,70,72,74,76,78,80,82,84,86,88,-1,-1,90,92,94,-1,-1,96,-1,-1,-1,98,100,102,104,106,108,-1,110,112,114,116,118,120,122,124,126,128,130,132,134,136,138,140,-1,-1,142,144,-1,-1,-1,-1,-1,-1,-1,-1,-1,-1,-1,-1,-1,-1,-1,-1,-1,-1,-1,-1,-1,-1,-1,-1,-1,-1,-1,-1,-1,-1,-1,-1,-1,-1,-1,-1,-1,-1,-1,-1,-1,-1,-1,-1,-1,-1,-1,-1,-1,-1,-1,-1,-1,-1,-1,-1],"split_conditions":[-2.7754185E-1,-2.4455647E-1,-2.9234904E-1,1.9823885E0,-2.088134E-1,-2.495137E-1,1.3193147E0,-5.6298986E-2,-3.230464E-1,-2.882784E-1,-3.0925757E-1,-1.0858247E-1,-2.078193E-1,1.9823885E0,-2.6575935E-1,-2.8864908E-1,-1.3210009E-1,-2.9234904E-1,-1.3157246E-1,-1.321197E-1,-5.6298986E-2,-2.8874886E-1,-2.847069E-1,-3.1471094E-1,-2.5244448E-1,9.0870574E-2,-1.4727907E-1,-1.3209975E-1,-3.313806E-1,-1.5101841E-1,-1.2841095E-1,-2.980314E-1,-2.9234904E-1,-3.313806E-1,-1.3063382E-1,-2.8140256E-1,1.9823885E0,-2.8316915E-1,-3.229037E-1,-1.3204187E-1,-1.0858247E-1,9.6304476E-1,-2.6712835E-1,-2.7061468E-1,1.9034774E0,-2.9524666E-1,1.3469192E-1,3.844227E-1,-7.506142E-2,2.675827E-1,4.628529E-1,1.3207144E-1,-1.07822E-1,-3.313806E-1,-2.975428E-1,-2.8445607E-1,-1.3206623E-1,1.3204749E-1,-2.688021E-1,-2.6407444E-1,-3.1621227E-1,-1.3207875E-1,-3.230464E-1,-3.229037E-1,-2.5244448E-1,-3.0788028E-1,-4.92546E-2,2.0733178E-1,-1.3185309E-1,-5.6298986E-2,-3.2195485E-1,-1.919464E-1,-5.6298986E-2,-3.229037E-1,-5.6298986E-2,-1.05173334E-1,2.087881E0,-2.9083118E-1,-5.6298986E-2,-2.3214859E-1,1.5210938E0,-1.87368E-1,4.1245416E-1,7.478947E-1,4.792597E-2,-1.3037322E-1,1.3058041E-1,1.2220691E0,-2.7061468E-1,1.2976496E-1,5.493728E-2,-2.1881836E-2,-1.3242793E-1,6.4997755E-2,1.1989683E-1,1.3449825E-1,-1.8540263E-1,-2.5607955E-1,-1.2966557E-1,-1.3327742E-1,-7.504109E-2,3.791309E-2,-9.973117E-2,-1.3226326E-1,-1.3028422E-1,-1.08646415E-1,-1.2937051E-1,-1.3060229E-1,-1.1362002E-1,1.233161E-1,-1.3547234E-1,1.320628E-1,-3.5335127E-2,1.2174131E-1,-1.4935319E-1,1.1457636E-1,-7.545783E-2,-1.2834652E-1,-1.0574724E-1,-1.3729766E-1,2.1632946E-1,-8.7577336E-2,-1.3152325E-1,-2.1400688E-2,-1.326155E-1,1.3174492E-1,-1.3295336E-1,1.14025764E-1,-9.711506E-2,-1.503912E-1,-2.925781E-1,-1.2718037E-1,-4.156814E-2,1.307206E-1,1.2060068E-1,-2.0324777E-1,-1.1854526E-1,1.3123594E-1,-1.0077455E-1,1.3127615E-1,1.3207851E-1,-1.3208412E-1,-4.3032315E-2,9.329438E-2,-1.3007405E-1],"split_indices":[2,1,3,0,1,2,1,0,4,2,4,1,2,0,4,2,0,3,0,0,0,2,2,5,5,1,2,0,5,5,0,1,3,5,0,2,0,5,4,0,1,0,2,4,5,5,1,1,2,1,2,0,0,5,1,2,0,0,1,0,0,0,4,4,5,5,1,5,0,0,5,1,0,4,0,1,5,4,0,2,5,5,1,1,2,0,0,1,4,0,0,0,0,0,0,0,0,0,0,0,0,0,0,0,0,0,0,0,0,0,0,0,0,0,0,0,0,0,0,0,0,0,0,0,0,0,0,0,0,0,0,0,0,0,0,0,0,0,0,0,0,0,0,0,0],"split_type":[0,0,0,0,0,0,0,0,0,0,0,0,0,0,0,0,0,0,0,0,0,0,0,0,0,0,0,0,0,0,0,0,0,0,0,0,0,0,0,0,0,0,0,0,0,0,0,0,0,0,0,0,0,0,0,0,0,0,0,0,0,0,0,0,0,0,0,0,0,0,0,0,0,0,0,0,0,0,0,0,0,0,0,0,0,0,0,0,0,0,0,0,0,0,0,0,0,0,0,0,0,0,0,0,0,0,0,0,0,0,0,0,0,0,0,0,0,0,0,0,0,0,0,0,0,0,0,0,0,0,0,0,0,0,0,0,0,0,0,0,0,0,0,0,0],"sum_hessian":[1.6588752E6,5.7969444E5,1.0791808E6,2.7877153E5,3.0092294E5,7.998125E5,2.7936828E5,2.395782E5,3.919333E4,3.3530734E4,2.673922E5,1.6558681E5,6.342257E5,2.634543E5,1.5913985E4,6.5455008E4,1.741232E5,3.4136676E4,5.056651E3,2.0925727E4,1.2605007E4,4.900324E4,2.1838895E5,1.3138847E5,3.419835E4,1.2382513E5,5.1040056E5,2.58457E5,4.997293E3,1.5886003E4,2.7983328E1,1.7499754E4,4.7955254E4,3.4082598E4,5.4081078E1,6.0353374E3,6.5696694E3,3.5332974E3,4.546994E4,1.8447464E5,3.3914312E4,7.203095E4,5.935751E4,8.573763E3,2.5624588E4,1.16224086E5,7.601044E3,1.0274996E5,4.076506E5,4.6182593E2,4.535467E3,1.5882564E4,3.438425E0,1.4388412E3,1.6060912E4,4.4752703E4,3.2025479E3,3.3336457E4,7.461375E2,4.557487E3,1.4778506E3,6.191575E3,3.780939E2,2.4398042E3,1.0934932E3,3.5636793E4,9.833148E3,7.7723335E3,2.614198E4,1.2671718E4,5.9359234E4,2.3991727E4,3.5365785E4,8.380928E3,1.9283582E2,2.4458715E4,1.1658733E3,6.004398E4,5.6180105E4,9.9399725E2,6.607047E3,1.00923445E5,1.8265146E3,7.082366E4,3.3682694E5,6.091564E1,4.0091028E2,4.4927646E3,4.2702213E1,9.055151E2,5.333261E2,2.4815288E2,1.581276E4,1.9626316E4,2.5126389E4,6.583079E2,8.782961E1,1.14039764E2,2.6405414E2,2.2178044E3,2.2199982E2,6.7133496E2,4.2215814E2,1.4548055E4,2.108874E4,3.5161458E3,6.3170024E3,6.0077275E3,1.7646058E3,1.1841678E4,8.3004016E2,5.9295402E4,6.3832912E1,1.9349643E4,4.6420845E3,3.514338E4,2.2240694E2,5.4398193E3,2.941108E3,6.7343475E1,1.2549234E2,2.0288062E2,2.4255834E4,2.4229893E2,9.235744E2,6.0037785E4,6.194288E0,5.5857957E4,3.2214987E2,5.261855E2,4.6781177E2,5.965376E3,6.416706E2,7.84502E4,2.247324E4,1.187321E2,1.7077826E3,7.034917E4,4.744805E2,7.434138E4,2.6248556E5,4.489029E3,3.735765E0,3.2413517E1,1.0288696E1],"tree_param":{"num_deleted":"0","num_feature":"6","num_nodes":"145","size_leaf_vector":"1"}},{"base_weights":[-4.809987E-4,-9.5890087E-1,5.152105E-1,-5.9804386E-1,-1.2940176E0,1.087986E0,-1.1316711E0,-8.481105E-1,9.3993497E-1,-1.4965055E0,-1.2679988E0,6.098943E-1,1.213676E0,-1.277106E0,1.2758547E0,2.7524284E-1,-1.2812771E-1,1.2679999E0,-1.275434E-1,-1.2814426E-1,-1.8307858E0,-1.2224591E0,-1.2782471E0,1.0838251E0,-1.2197928E0,1.0141811E0,1.2564526E0,-1.2812744E-1,-1.061397E0,1.2803895E0,-1.24271095E-1,-1.0786952E0,7.546576E-1,1.2720622E0,-1.2661101E-1,-2.3404534E0,-1.2984449E0,-8.836648E-1,-1.2492844E0,-1.2805389E-1,-1.2657568E0,1.2313949E0,9.0768E-1,-1.1053252E0,-1.2584609E0,1.189884E0,-1.2850606E0,1.1735063E0,1.2716008E0,9.292385E-1,-1.2644545E0,1.2809718E-1,-1.0353752E-1,7.876319E-1,-1.2841698E0,8.952376E-1,-1.2809232E-1,1.280697E-1,8.99908E-1,-2.2599266E-1,-2.575954E-1,-1.2810619E-1,-1.5682524E0,-2.5131267E-1,-1.3014864E0,-1.2700824E0,-1.1742345E0,-1.2239412E0,-1.2781858E-1,1.0121816E0,1.2790116E0,6.5547323E-1,1.079817E0,-1.1525807E0,8.339426E-1,-1.2686738E0,-1.045982E0,1.2765702E0,1.0984312E0,-1.8185661E0,-1.1094816E0,1.2419853E0,-1.1414816E0,1.2442437E0,1.2783713E0,-1.2631652E-1,1.2649316E-1,-1.280405E0,3.5198897E-1,1.2449583E-1,2.7451217E-2,-1.4051105E-1,-1.2805039E-1,1.0740995E-1,4.6641916E-2,-6.2640496E-2,1.5043615E-1,-2.2079244E-1,-1.2526114E-1,-7.951801E-2,5.052727E-2,-1.2815583E-1,-1.4956218E-1,-1.2826525E-1,-1.2613599E-1,-1.0376084E-1,-1.2509996E-1,-1.2639914E-1,-1.0882536E-1,1.1724553E-1,-1.3102894E-1,1.280873E-1,-3.1646546E-2,1.1513642E-1,-1.4155166E-1,1.09164074E-1,-6.742104E-2,-1.23574175E-1,-1.0008653E-1,-1.3250332E-1,1.8898024E-1,-8.147747E-2,-1.2725797E-1,-2.5583986E-2,-1.3086957E-1,1.2768474E-1,-1.2728484E-1,1.1084849E-1,-8.025806E-2,-1.330472E-1,-2.4392317E-1,-1.1940248E-1,-3.591339E-2,1.2647559E-1,1.16143465E-1,-1.2542288E-1,-5.6975693E-2,1.263837E-1,-1.0865575E-1,1.2695967E-1,1.2806645E-1,-1.2810963E-1,-3.9740197E-2,-1.5151331E-1,8.277104E-2],"categories":[],"categories_nodes":[],"categories_segments":[],"categories_sizes":[],"default_left":[0,0,0,0,0,0,0,0,0,0,0,0,0,0,0,0,0,0,0,0,0,0,0,0,0,0,0,0,0,0,0,0,0,0,0,0,0,0,0,0,0,0,0,0,0,0,0,0,0,0,0,0,0,0,0,0,0,0,0,0,0,0,0,0,0,0,0,0,0,0,0,0,0,0,0,0,0,0,0,0,0,0,0,0,0,0,0,0,0,0,0,0,0,0,0,0,0,0,0,0,0,0,0,0,0,0,0,0,0,0,0,0,0,0,0,0,0,0,0,0,0,0,0,0,0,0,0,0,0,0,0,0,0,0,0,0,0,0,0,0,0,0,0,0,0],"id":8,"left_children":[1,3,5,7,9,11,13,15,17,19,21,23,25,27,29,31,-1,33,-1,-1,35,37,39,41,43,45,47,-1,49,51,-1,53,55,57,-1,59,61,63,65,-1,67,69,71,73,75,77,79,81,83,85,87,-1,-1,89,91,93,-1,-1,95,-1,-1,-1,97,99,101,103,105,107,-1,109,111,113,115,117,119,121,123,125,127,129,131,133,135,137,139,-1,-1,141,143,-1,-1,-1,-1,-1,-1,-1,-1,-1,-1,-1,-1,-1,-1,-1,-1,-1,-1,-1,-1,-1,-1,-1,-1,-1,-1,-1,-1,-1,-1,-1,-1,-1,-1,-1,-1,-1,-1,-1,-1,-1,-1,-1,-1,-1,-1,-1,-1,-1,-1,-1,-1,-1,-1,-1,-1],"loss_changes":[7.66573E5,6.561359E4,9.512191E5,1.0048087E5,1.4802812E3,4.4958812E4,9.1113E4,1.0935011E5,2.6557605E4,2.3001328E3,1.1478125E2,1.3506181E5,5.0544375E3,2.193125E2,1.709043E2,4.0594895E4,0E0,3.292422E2,0E0,0E0,3.3982031E3,4.153047E2,4.1875E0,3.2145781E3,1.404414E2,4.2261492E4,6.114375E2,0E0,1.8839443E3,2.1279297E1,0E0,6.2725586E3,1.3217834E4,1.0095703E2,0E0,1.15609375E2,2.6759766E1,8.8877637E2,6.478125E1,0E0,1.4871094E1,7.013125E2,2.447789E3,7.432178E2,5.0640625E1,7.6903125E2,6.9367773E2,1.1945883E4,7.475E1,3.1933838E2,1.0944043E2,0E0,0E0,3.8041687E2,4.734375E0,3.3131367E3,0E0,0E0,6.688204E2,0E0,0E0,0E0,7.1295105E1,5.518249E2,5.9213867E0,2.0234375E0,9.5458984E1,3.814258E1,0E0,4.4745967E3,1.64625E2,2.350002E4,6.958828E2,9.85293E1,4.4304114E2,3.945703E1,2.2880627E2,3.6867188E1,9.0485547E2,5.5339404E2,3.5421143E2,1.3275781E2,1.3885962E2,3.7401484E3,5.0625E0,0E0,0E0,2.0454102E0,3.8638725E1,0E0,0E0,0E0,0E0,0E0,0E0,0E0,0E0,0E0,0E0,0E0,0E0,0E0,0E0,0E0,0E0,0E0,0E0,0E0,0E0,0E0,0E0,0E0,0E0,0E0,0E0,0E0,0E0,0E0,0E0,0E0,0E0,0E0,0E0,0E0,0E0,0E0,0E0,0E0,0E0,0E0,0E0,0E0,0E0,0E0,0E0,0E0,0E0,0E0,0E0,0E0,0E0,0E0,0E0,0E0,0E0],"parents":[2147483647,0,0,1,1,2,2,3,3,4,4,5,5,6,6,7,7,8,8,9,9,10,10,11,11,12,12,13,13,14,14,15,15,17,17,20,20,21,21,22,22,23,23,24,24,25,25,26,26,28,28,29,29,31,31,32,32,33,33,35,35,36,36,37,37,38,38,40,40,41,41,42,42,43,43,44,44,45,45,46,46,47,47,48,48,49,49,50,50,53,53,54,54,55,55,58,58,62,62,63,63,64,64,65,65,66,66,67,67,69,69,70,70,71,71,72,72,73,73,74,74,75,75,76,76,77,77,78,78,79,79,80,80,81,81,82,82,83,83,84,84,87,87,88,88],"right_children":[2,4,6,8,10,12,14,16,18,20,22,24,26,28,30,32,-1,34,-1,-1,36,38,40,42,44,46,48,-1,50,52,-1,54,56,58,-1,60,62,64,66,-1,68,70,72,74,76,78,80,82,84,86,88,-1,-1,90,92,94,-1,-1,96,-1,-1,-1,98,100,102,104,106,108,-1,110,112,114,116,118,120,122,124,126,128,130,132,134,136,138,140,-1,-1,142,144,-1,-1,-1,-1,-1,-1,-1,-1,-1,-1,-1,-1,-1,-1,-1,-1,-1,-1,-1,-1,-1,-1,-1,-1,-1,-1,-1,-1,-1,-1,-1,-1,-1,-1,-1,-1,-1,-1,-1,-1,-1,-1,-1,-1,-1,-1,-1,-1,-1,-1,-1,-1,-1,-1,-1,-1],"split_conditions":[-2.7754185E-1,-2.4455647E-1,-2.9234904E-1,1.9823885E0,-2.088134E-1,-2.495137E-1,1.3193147E0,-5.6298986E-2,-3.230464E-1,-2.882784E-1,-3.0925757E-1,-1.0858247E-1,-2.1378998E-1,1.9823885E0,-2.6575935E-1,-2.8864908E-1,-1.2812771E-1,-2.9234904E-1,-1.275434E-1,-1.2814426E-1,-5.6298986E-2,-2.8874886E-1,-2.847069E-1,-3.1471094E-1,-2.5244448E-1,6.082772E-2,-1.7119087E-1,-1.2812744E-1,-3.313806E-1,-1.5101841E-1,-1.24271095E-1,-2.975428E-1,-2.9234904E-1,-3.313806E-1,-1.2661101E-1,-2.8140256E-1,1.9823885E0,-5.6298986E-2,-3.229037E-1,-1.2805389E-1,-1.0858247E-1,9.6304476E-1,-2.6712835E-1,-2.7061468E-1,1.9034774E0,-2.9524666E-1,1.4230585E-1,2.675827E-1,-9.690099E-2,2.675827E-1,4.628529E-1,1.2809718E-1,-1.0353752E-1,-3.2182515E-1,-2.959803E-1,-2.622515E-1,-1.2809232E-1,1.280697E-1,-3.2333744E-1,-2.2599266E-1,-2.575954E-1,-1.2810619E-1,-3.230464E-1,-3.230464E-1,-2.9383373E-1,-3.0788028E-1,-4.92546E-2,2.0733178E-1,-1.2781858E-1,-5.6298986E-2,-3.2195485E-1,-1.919464E-1,-5.6298986E-2,-3.229037E-1,-5.6298986E-2,-1.05173334E-1,2.0762424E0,-2.9083118E-1,-5.6298986E-2,-2.3214859E-1,1.5210938E0,-1.87368E-1,1.1959772E0,6.356243E-1,1.1184835E-2,-1.2631652E-1,1.2649316E-1,1.2220691E0,3.690516E-1,1.2449583E-1,2.7451217E-2,-1.4051105E-1,-1.2805039E-1,1.0740995E-1,4.6641916E-2,-6.2640496E-2,1.5043615E-1,-2.2079244E-1,-1.2526114E-1,-7.951801E-2,5.052727E-2,-1.2815583E-1,-1.4956218E-1,-1.2826525E-1,-1.2613599E-1,-1.0376084E-1,-1.2509996E-1,-1.2639914E-1,-1.0882536E-1,1.1724553E-1,-1.3102894E-1,1.280873E-1,-3.1646546E-2,1.1513642E-1,-1.4155166E-1,1.09164074E-1,-6.742104E-2,-1.23574175E-1,-1.0008653E-1,-1.3250332E-1,1.8898024E-1,-8.147747E-2,-1.2725797E-1,-2.5583986E-2,-1.3086957E-1,1.2768474E-1,-1.2728484E-1,1.1084849E-1,-8.025806E-2,-1.330472E-1,-2.4392317E-1,-1.1940248E-1,-3.591339E-2,1.2647559E-1,1.16143465E-1,-1.2542288E-1,-5.6975693E-2,1.263837E-1,-1.0865575E-1,1.2695967E-1,1.2806645E-1,-1.2810963E-1,-3.9740197E-2,-1.5151331E-1,8.277104E-2],"split_indices":[2,1,3,0,1,2,1,0,4,2,4,1,2,0,4,2,0,3,0,0,0,2,2,5,5,1,2,0,5,5,0,1,3,5,0,2,0,0,4,0,1,0,2,4,5,5,1,1,2,1,2,0,0,4,1,1,0,0,5,0,0,0,4,4,5,5,1,5,0,0,5,1,0,4,0,1,4,4,0,2,5,5,5,1,2,0,0,1,1,0,0,0,0,0,0,0,0,0,0,0,0,0,0,0,0,0,0,0,0,0,0,0,0,0,0,0,0,0,0,0,0,0,0,0,0,0,0,0,0,0,0,0,0,0,0,0,0,0,0,0,0,0,0,0,0],"split_type":[0,0,0,0,0,0,0,0,0,0,0,0,0,0,0,0,0,0,0,0,0,0,0,0,0,0,0,0,0,0,0,0,0,0,0,0,0,0,0,0,0,0,0,0,0,0,0,0,0,0,0,0,0,0,0,0,0,0,0,0,0,0,0,0,0,0,0,0,0,0,0,0,0,0,0,0,0,0,0,0,0,0,0,0,0,0,0,0,0,0,0,0,0,0,0,0,0,0,0,0,0,0,0,0,0,0,0,0,0,0,0,0,0,0,0,0,0,0,0,0,0,0,0,0,0,0,0,0,0,0,0,0,0,0,0,0,0,0,0,0,0,0,0,0,0],"sum_hessian":[1.5509836E6,5.425836E5,1.00840006E6,2.6125953E5,2.8132406E5,7.481859E5,2.6021419E5,2.2472153E5,3.6538E4,3.2026242E4,2.4929783E5,1.5575205E5,5.924338E5,2.4539095E5,1.4823228E4,6.2538227E4,1.621833E5,3.182552E4,4.7124834E3,1.94912E4,1.2535043E4,4.5817977E4,2.0347984E5,1.23709E5,3.204305E4,1.0460724E5,4.8782656E5,2.407341E5,4.656858E3,1.4797076E4,2.6151611E1,1.6353183E4,4.6185043E4,3.177508E4,5.0438633E1,6.402163E3,6.13288E3,3.364134E3,4.2453844E4,1.7184703E5,3.1632814E4,6.731131E4,5.6397688E4,8.0986025E3,2.3944447E4,9.718135E4,7.4258916E3,7.5345016E4,4.1248153E5,4.3072757E2,4.2261304E3,1.4793804E4,3.2725923E0,1.621575E3,1.4731607E4,4.3202016E4,2.9830298E3,3.105216E4,7.2292E2,4.7787275E3,1.6234357E3,5.7670728E3,3.6580716E2,1.3390898E3,2.0250442E3,3.3229355E4,9.224486E3,7.270822E3,2.4361994E4,1.2015895E4,5.529542E4,2.2879945E4,3.3517742E4,7.9063486E3,1.92254E2,2.2841584E4,1.1028632E3,4.9884125E4,4.7297223E4,1.8364366E3,5.5894546E3,7.3180734E4,2.164276E3,8.186721E4,3.3061434E5,5.6827248E1,3.7390033E2,4.1850415E3,4.108892E1,8.566476E2,7.649274E2,4.2215234E2,1.4309455E4,3.0485074E4,1.271694E4,2.0506685E2,5.178531E2,1.1888407E2,2.469231E2,7.790342E2,5.6005566E2,1.8434181E3,1.8162617E2,1.3552574E4,1.9676783E4,3.3236257E3,5.9008604E3,5.607398E3,1.663424E3,1.1240671E4,7.7522327E2,5.523118E4,6.423939E1,1.846017E4,4.4197764E3,3.329369E4,2.2404953E2,5.1023877E3,2.8039607E3,6.305893E1,1.2919507E2,1.9666766E2,2.2644916E4,2.7568423E2,8.2717896E2,4.9879203E4,4.9223394E0,4.704882E4,2.4840366E2,1.029767E3,8.0666974E2,5.0229204E3,5.665342E2,5.7041266E4,1.6139472E4,1.8067764E3,3.574996E2,8.11852E4,6.8200775E2,6.8614945E4,2.6199939E5,4.1813174E3,3.7241569E0,7.8995748E0,3.3189342E1],"tree_param":{"num_deleted":"0","num_feature":"6","num_nodes":"145","size_leaf_vector":"1"}},{"base_weights":[-5.322899E-4,-9.288419E-1,4.9979734E-1,-5.784837E-1,-1.2554142E0,1.0542958E0,-1.1017809E0,-8.194941E-1,9.142741E-1,-1.4255129E0,-1.2331359E0,5.8718324E-1,1.1780359E0,-1.2433757E0,1.2421104E0,2.593726E-1,-1.24744974E-1,1.2333261E0,-1.2409768E-1,-1.2475889E-1,-1.6883907E0,-1.1848694E0,-1.2440414E0,1.0424782E0,-1.1796851E0,9.895419E-1,1.2245516E0,-1.24744765E-1,-1.03277E0,1.2465415E0,-1.20677404E-1,-1.0078247E0,7.223524E-1,1.2372824E0,-1.2314653E-1,-2.0605164E0,-1.2616323E0,-8.3909297E-1,-1.212862E0,-1.24655545E-1,-1.2303611E0,1.1945032E0,8.642071E-1,-1.0594754E0,-1.2207649E0,1.1373334E0,-1.1866046E0,1.1599833E0,1.240954E0,9.03147E-1,-1.2304419E0,1.2471217E-1,-9.965044E-2,7.9845405E-1,-1.2371058E0,8.554495E-1,-1.24706976E-1,1.246806E-1,8.4250396E-1,-2.0050369E-1,-2.2179835E-1,-1.2472295E-1,-1.4775875E0,-1.2027202E0,-1.04205824E-1,-1.2350018E0,-1.1335267E0,-1.1855675E0,-1.2437349E-1,9.659885E-1,1.245077E0,6.4620346E-1,1.0505748E0,-1.105814E0,7.6187354E-1,-1.2315618E0,-9.9962926E-1,1.2422383E0,1.0287778E0,-1.781238E0,-1.0713673E0,1.203619E0,-1.1529775E0,1.2232724E0,1.2456075E0,-1.2282785E-1,1.2297698E-1,-1.2435129E0,6.7399657E-1,1.19901E-1,4.556792E-2,-3.1969853E-2,-1.2522504E-1,5.470055E-2,1.0924252E-1,1.20205306E-1,-1.6251454E-1,-1.9678567E-1,-1.21436514E-1,-1.2586091E-1,-6.887684E-2,3.5416584E-2,-8.797379E-2,-1.2486153E-1,-1.22557454E-1,-1.2582041E-1,-1.0362344E-1,-1.2277513E-1,-1.0443052E-1,1.1177901E-1,-1.272531E-1,1.2471117E-1,-2.0807192E-2,1.0737373E-1,-1.4182845E-1,1.06225885E-1,-1.7283158E-1,-1.1936512E-1,-9.48467E-2,-1.2840198E-1,1.6894464E-1,-7.5840324E-2,-1.2358053E-1,-1.3935423E-2,-1.250692E-1,1.2425257E-1,-1.2172637E-1,1.0400047E-1,-8.425737E-2,-1.3687181E-1,-2.1504433E-1,-1.1574402E-1,-3.457403E-2,1.2297793E-1,1.11381486E-1,-1.9211456E-1,-1.0970342E-1,1.2376722E-1,-9.754197E-2,1.23939596E-1,1.24732606E-1,-1.2477022E-1,-1.5850792E-2,1.0749531E-1,-1.2555537E-1],"categories":[],"categories_nodes":[],"categories_segments":[],"categories_sizes":[],"default_left":[0,0,0,0,0,0,0,0,0,0,0,0,0,0,0,0,0,0,0,0,0,0,0,0,0,0,0,0,0,0,0,0,0,0,0,0,0,0,0,0,0,0,0,0,0,0,0,0,0,0,0,0,0,0,0,0,0,0,0,0,0,0,0,0,0,0,0,0,0,0,0,0,0,0,0,0,0,0,0,0,0,0,0,0,0,0,0,0,0,0,0,0,0,0,0,0,0,0,0,0,0,0,0,0,0,0,0,0,0,0,0,0,0,0,0,0,0,0,0,0,0,0,0,0,0,0,0,0,0,0,0,0,0,0,0,0,0,0,0,0,0,0,0,0,0],"id":9,"left_children":[1,3,5,7,9,11,13,15,17,19,21,23,25,27,29,31,-1,33,-1,-1,35,37,39,41,43,45,47,-1,49,51,-1,53,55,57,-1,59,61,63,65,-1,67,69,71,73,75,77,79,81,83,85,87,-1,-1,89,91,93,-1,-1,95,-1,-1,-1,97,99,101,103,105,107,-1,109,111,113,115,117,119,121,123,125,127,129,131,133,135,137,139,-1,-1,141,143,-1,-1,-1,-1,-1,-1,-1,-1,-1,-1,-1,-1,-1,-1,-1,-1,-1,-1,-1,-1,-1,-1,-1,-1,-1,-1,-1,-1,-1,-1,-1,-1,-1,-1,-1,-1,-1,-1,-1,-1,-1,-1,-1,-1,-1,-1,-1,-1,-1,-1,-1,-1,-1,-1,-1,-1],"loss_changes":[6.7123506E5,5.7908906E4,8.339594E5,8.7846945E4,9.9090625E2,4.0318562E4,8.0154125E4,9.706556E4,2.3341916E4,1.4164648E3,1.2046875E2,1.17522E5,4.834E3,1.9403125E2,1.508086E2,3.5031215E4,0E0,2.8983594E2,0E0,0E0,1.9410781E3,4.123828E2,4.96875E0,3.1470234E3,1.4651953E2,3.5108297E4,4.67E2,0E0,1.6564795E3,1.9117188E1,0E0,6.618214E3,1.1464293E4,1.0993359E2,0E0,5.2658203E1,1.58984375E1,8.555137E2,6.8E1,0E0,1.6140625E1,7.233047E2,2.1716406E3,6.449092E2,5.201953E1,1.1627656E3,4.7381348E2,9.046148E3,2.75E1,2.8091812E2,9.855322E1,0E0,0E0,2.4664075E2,1.965918E2,2.993629E3,0E0,0E0,6.2163837E2,0E0,0E0,0E0,4.2933044E1,6.065869E1,3.7747534E2,2.4296875E0,1.0340723E2,3.9131836E1,0E0,3.8633057E3,1.5202344E2,2.1753945E4,9.377031E2,1.0172656E2,3.625979E2,4.174414E1,2.2520898E2,3.8257812E1,1.0563867E3,1.6847412E2,3.6296924E2,2.0527344E2,6.922388E1,2.3295078E3,1.4375E0,0E0,0E0,1.7524414E1,2.2553307E1,0E0,0E0,0E0,0E0,0E0,0E0,0E0,0E0,0E0,0E0,0E0,0E0,0E0,0E0,0E0,0E0,0E0,0E0,0E0,0E0,0E0,0E0,0E0,0E0,0E0,0E0,0E0,0E0,0E0,0E0,0E0,0E0,0E0,0E0,0E0,0E0,0E0,0E0,0E0,0E0,0E0,0E0,0E0,0E0,0E0,0E0,0E0,0E0,0E0,0E0,0E0,0E0,0E0,0E0,0E0,0E0],"parents":[2147483647,0,0,1,1,2,2,3,3,4,4,5,5,6,6,7,7,8,8,9,9,10,10,11,11,12,12,13,13,14,14,15,15,17,17,20,20,21,21,22,22,23,23,24,24,25,25,26,26,28,28,29,29,31,31,32,32,33,33,35,35,36,36,37,37,38,38,40,40,41,41,42,42,43,43,44,44,45,45,46,46,47,47,48,48,49,49,50,50,53,53,54,54,55,55,58,58,62,62,63,63,64,64,65,65,66,66,67,67,69,69,70,70,71,71,72,72,73,73,74,74,75,75,76,76,77,77,78,78,79,79,80,80,81,81,82,82,83,83,84,84,87,87,88,88],"right_children":[2,4,6,8,10,12,14,16,18,20,22,24,26,28,30,32,-1,34,-1,-1,36,38,40,42,44,46,48,-1,50,52,-1,54,56,58,-1,60,62,64,66,-1,68,70,72,74,76,78,80,82,84,86,88,-1,-1,90,92,94,-1,-1,96,-1,-1,-1,98,100,102,104,106,108,-1,110,112,114,116,118,120,122,124,126,128,130,132,134,136,138,140,-1,-1,142,144,-1,-1,-1,-1,-1,-1,-1,-1,-1,-1,-1,-1,-1,-1,-1,-1,-1,-1,-1,-1,-1,-1,-1,-1,-1,-1,-1,-1,-1,-1,-1,-1,-1,-1,-1,-1,-1,-1,-1,-1,-1,-1,-1,-1,-1,-1,-1,-1,-1,-1,-1,-1,-1,-1,-1,-1],"split_conditions":[-2.7754185E-1,-2.4455647E-1,-2.9234904E-1,1.9823885E0,-2.088134E-1,-2.495137E-1,1.3193147E0,-5.6298986E-2,-3.230464E-1,-2.882784E-1,-3.0925757E-1,-1.0858247E-1,-2.078193E-1,1.9823885E0,-2.6575935E-1,-2.8855112E-1,-1.24744974E-1,-2.9234904E-1,-1.2409768E-1,-1.2475889E-1,-5.6298986E-2,-2.8874886E-1,-2.847069E-1,-3.1471094E-1,-2.5244448E-1,9.0870574E-2,-1.4727907E-1,-1.24744765E-1,-3.313806E-1,-1.5101841E-1,-1.20677404E-1,-2.975428E-1,-2.9234904E-1,-3.313806E-1,-1.2314653E-1,-2.8140256E-1,1.9823885E0,-2.8316915E-1,-3.229037E-1,-1.24655545E-1,-1.0858247E-1,9.6304476E-1,-2.655519E-1,-2.7061468E-1,1.9034774E0,-2.9524666E-1,1.4230585E-1,3.844227E-1,-5.8170944E-2,2.675827E-1,9.470691E-1,1.2471217E-1,-9.965044E-2,-3.2182515E-1,-2.9701382E-1,-2.8445607E-1,-1.24706976E-1,1.246806E-1,-2.688021E-1,-2.0050369E-1,-2.2179835E-1,-1.2472295E-1,-3.230464E-1,-3.229037E-1,-2.5244448E-1,-3.0788028E-1,-2.9644132E-1,2.0733178E-1,-1.2437349E-1,-5.6298986E-2,-3.2333744E-1,-1.851485E-1,-5.6298986E-2,-3.229037E-1,-5.6298986E-2,-1.05173334E-1,2.087881E0,-2.9083118E-1,-5.6298986E-2,-2.3214859E-1,1.5210938E0,-1.87368E-1,4.1245416E-1,8.122151E-1,6.434406E-2,-1.2282785E-1,1.2297698E-1,1.1098168E0,-1.9432938E-1,1.19901E-1,4.556792E-2,-3.1969853E-2,-1.2522504E-1,5.470055E-2,1.0924252E-1,1.20205306E-1,-1.6251454E-1,-1.9678567E-1,-1.21436514E-1,-1.2586091E-1,-6.887684E-2,3.5416584E-2,-8.797379E-2,-1.2486153E-1,-1.22557454E-1,-1.2582041E-1,-1.0362344E-1,-1.2277513E-1,-1.0443052E-1,1.1177901E-1,-1.272531E-1,1.2471117E-1,-2.0807192E-2,1.0737373E-1,-1.4182845E-1,1.06225885E-1,-1.7283158E-1,-1.1936512E-1,-9.48467E-2,-1.2840198E-1,1.6894464E-1,-7.5840324E-2,-1.2358053E-1,-1.3935423E-2,-1.250692E-1,1.2425257E-1,-1.2172637E-1,1.0400047E-1,-8.425737E-2,-1.3687181E-1,-2.1504433E-1,-1.1574402E-1,-3.457403E-2,1.2297793E-1,1.11381486E-1,-1.9211456E-1,-1.0970342E-1,1.2376722E-1,-9.754197E-2,1.23939596E-1,1.24732606E-1,-1.2477022E-1,-1.5850792E-2,1.0749531E-1,-1.2555537E-1],"split_indices":[2,1,3,0,1,2,1,0,4,2,4,1,2,0,4,2,0,3,0,0,0,2,2,5,5,1,2,0,5,5,0,1,3,5,0,2,0,5,4,0,1,0,2,4,5,5,1,1,2,1,2,0,0,4,1,2,0,0,1,0,0,0,4,4,5,5,5,5,0,0,5,1,0,4,0,1,5,4,0,2,5,5,1,1,2,0,0,1,5,0,0,0,0,0,0,0,0,0,0,0,0,0,0,0,0,0,0,0,0,0,0,0,0,0,0,0,0,0,0,0,0,0,0,0,0,0,0,0,0,0,0,0,0,0,0,0,0,0,0,0,0,0,0,0,0],"split_type":[0,0,0,0,0,0,0,0,0,0,0,0,0,0,0,0,0,0,0,0,0,0,0,0,0,0,0,0,0,0,0,0,0,0,0,0,0,0,0,0,0,0,0,0,0,0,0,0,0,0,0,0,0,0,0,0,0,0,0,0,0,0,0,0,0,0,0,0,0,0,0,0,0,0,0,0,0,0,0,0,0,0,0,0,0,0,0,0,0,0,0,0,0,0,0,0,0,0,0,0,0,0,0,0,0,0,0,0,0,0,0,0,0,0,0,0,0,0,0,0,0,0,0,0,0,0,0,0,0,0,0,0,0,0,0,0,0,0,0,0,0,0,0,0,0],"sum_hessian":[1.4451901E6,5.061257E5,9.3906444E5,2.441721E5,2.6195361E5,6.975567E5,2.4150772E5,2.1023022E5,3.394188E4,3.0328309E4,2.316253E5,1.4608805E5,5.514687E5,2.277498E5,1.3757929E4,5.970801E4,1.505222E5,2.9565574E4,4.376304E3,1.8090096E4,1.2238214E4,4.2709246E4,1.8891605E5,1.1615666E5,2.9931385E4,1.09156945E5,4.4231172E5,2.2342503E5,4.3247676E3,1.3733569E4,2.435938E1,1.5977012E4,4.3731E4,2.9518691E4,4.6882824E1,6.5355254E3,5.702689E3,3.2009417E3,3.9508305E4,1.5951245E5,2.9403594E4,6.2690285E4,5.3466375E4,7.6302256E3,2.2301158E4,1.0221552E5,6.9414214E3,8.961523E4,3.526965E5,4.0034848E2,3.9244192E3,1.3730462E4,3.1077554E0,1.7993373E3,1.4177674E4,4.09632E4,2.7678022E3,2.8821252E4,6.974401E2,4.8429644E3,1.692561E3,5.3524854E3,3.502035E2,2.1409487E3,1.0599928E3,3.0877025E4,8.631281E3,6.7810415E3,2.262255E4,1.1363799E4,5.132649E4,2.4643773E4,2.8822602E4,7.441298E3,1.8892766E2,2.1258635E4,1.0425236E3,5.1976523E4,5.0238996E4,1.124493E3,5.816928E3,8.795634E4,1.6588832E3,7.3538586E4,2.791579E5,5.2831062E1,3.4751743E2,3.8980125E3,2.6406729E1,8.28583E2,9.7075433E2,2.3060197E2,1.3947072E4,1.779926E4,2.316394E4,6.091908E2,8.8249344E1,1.20076645E2,2.3012685E2,1.9296621E3,2.1128667E2,6.665672E2,3.9342563E2,1.2579817E4,1.8297207E4,3.7779778E3,4.853303E3,5.215804E3,1.5652374E3,1.0642589E4,7.2120966E2,5.125486E4,7.162649E1,2.041626E4,4.227513E3,2.8702537E4,1.20064835E2,4.7712266E3,2.6700715E3,5.8816113E1,1.3011154E2,1.9055716E2,2.1068078E4,2.3586816E2,8.0665533E2,5.1970945E4,5.578897E0,4.9939836E4,2.9916162E2,5.3331616E2,5.911769E2,5.199568E3,6.173605E2,6.81046E4,1.9851742E4,1.10346855E2,1.5485364E3,7.306053E4,4.7805072E2,6.065271E4,2.185052E5,3.8828706E3,1.5141679E1,2.2230232E1,4.1764965E0],"tree_param":{"num_deleted":"0","num_feature":"6","num_nodes":"145","size_leaf_vector":"1"}},{"base_weights":[-6.0796656E-4,-8.0498606E-1,5.453152E-1,-1.1788322E0,-4.580771E-1,1.0755155E0,-1.0584446E0,-5.204925E-1,-1.212837E0,-6.378413E-2,-1.1899395E0,7.53252E-1,1.1737686E0,-1.2138994E0,1.2131763E0,-1.0242504E0,4.623545E-1,-1.2041441E0,-1.21841945E-1,5.054911E-1,-1.2184199E-1,-1.1704543E0,-1.2173929E-1,1.0293351E0,-1.138871E0,1.0539796E0,1.2065074E0,-1.2184203E-1,-9.7385716E-1,1.2174928E0,-1.1749482E-1,1.3909242E-2,-1.21828616E-1,1.0733955E0,5.556467E-2,-1.2179792E0,-9.4917583E-1,1.6984034E-1,1.1693376E0,-1.1296101E0,-1.197329E0,1.2053345E0,8.688151E-1,-1.1822008E0,-1.04448676E-1,1.130515E0,-1.0294023E0,1.1735489E0,1.2145079E0,9.378121E-1,-1.1981126E0,1.2180735E-1,-8.555175E-3,1.1704564E0,-9.746506E-1,1.0838517E0,-1.10078156E-1,-1.21747985E-1,1.0438918E0,-1.2191091E-1,-1.1228186E0,-2.813794E-1,-1.1674793E0,6.239723E-1,-1.2183439E-1,1.2027252E0,-1.1304847E0,-1.2451767E0,-1.0803235E0,-1.1758525E0,-1.2091701E0,1.2076131E0,1.8941406E-2,6.034387E-1,1.0084014E0,-1.420101E0,-1.099651E0,1.1924701E-1,-1.2979555E0,1.2136194E0,1.040766E0,-1.1127971E0,-5.6812924E-1,1.1952319E0,-1.0322509E0,1.2027912E0,1.2174634E-1,-1.192655E-1,1.1992252E-1,-1.217273E0,3.17105E-1,1.1996081E-1,-1.1439221E-1,-4.4256393E-2,-1.2530509E-1,8.024905E-2,1.1250402E-1,1.2157308E-1,-1.20849706E-1,-6.492271E-2,-1.21655695E-1,-8.606504E-3,-1.3686852E-1,-6.614009E-2,-1.21821225E-1,1.01889305E-1,3.262412E-2,1.21812604E-1,3.3961143E-2,-9.037147E-2,-1.24541916E-1,-1.2207379E-1,-1.318699E-1,-9.57756E-2,-1.1202693E-1,-1.1988073E-1,-1.08296685E-1,-1.2129974E-1,-1.1054691E-1,1.07547596E-1,1.2183484E-1,-1.8695109E-1,1.0310557E-1,1.0289406E-1,-1.5649597E-1,9.073699E-2,1.1455466E-1,-1.1665727E-1,-1.9098653E-1,-1.1312218E-1,-6.1449744E-2,-1.9334145E-1,-1.0484214E-1,1.214314E-1,-1.5421663E-1,1.0532241E-1,-7.226014E-2,-7.546264E-2,-1.2584427E-1,1.2561433E-1,-9.416049E-2,1.20899044E-1,1.1272776E-1,-1.4183316E-1,-5.5311617E-2,1.2140634E-1,-1.0311532E-1,-1.2185716E-1,-5.0124418E-2,8.16316E-2,-1.2585257E-1],"categories":[],"categories_nodes":[],"categories_segments":[],"categories_sizes":[],"default_left":[0,0,0,0,0,0,0,0,0,0,0,0,0,0,0,0,0,0,0,0,0,0,0,0,0,0,0,0,0,0,0,0,0,0,0,0,0,0,0,0,0,0,0,0,0,0,0,0,0,0,0,0,0,0,0,0,0,0,0,0,0,0,0,0,0,0,0,0,0,0,0,0,0,0,0,0,0,0,0,0,0,0,0,0,0,0,0,0,0,0,0,0,0,0,0,0,0,0,0,0,0,0,0,0,0,0,0,0,0,0,0,0,0,0,0,0,0,0,0,0,0,0,0,0,0,0,0,0,0,0,0,0,0,0,0,0,0,0,0,0,0,0,0,0,0,0,0,0,0,0,0],"id":10,"left_children":[1,3,5,7,9,11,13,15,17,19,21,23,25,27,29,31,33,35,-1,37,-1,39,-1,41,43,45,47,-1,49,51,-1,53,-1,55,57,59,61,63,65,67,69,71,73,75,77,79,81,83,85,87,89,-1,-1,91,93,95,-1,-1,97,-1,99,101,103,105,-1,107,109,111,113,115,117,119,121,123,125,127,129,-1,131,133,135,137,139,141,143,145,-1,-1,-1,147,149,-1,-1,-1,-1,-1,-1,-1,-1,-1,-1,-1,-1,-1,-1,-1,-1,-1,-1,-1,-1,-1,-1,-1,-1,-1,-1,-1,-1,-1,-1,-1,-1,-1,-1,-1,-1,-1,-1,-1,-1,-1,-1,-1,-1,-1,-1,-1,-1,-1,-1,-1,-1,-1,-1,-1,-1,-1,-1,-1,-1],"loss_changes":[5.8971094E5,7.041309E4,6.80232E5,5.8495312E3,8.126512E4,1.9035625E4,7.019089E4,6.356124E3,1.05625E1,1.202982E5,5.13125E1,7.3383445E4,1.805625E3,2.0071875E2,1.3267383E2,1.7096562E3,1.0813439E3,3.4190625E2,0E0,2.7313322E4,0E0,6.1984375E1,0E0,3.4622734E3,8.01625E2,1.5771367E4,9.4E1,0E0,1.4775437E3,9.71875E0,0E0,1.5302842E3,0E0,4.072058E1,3.2887395E3,8.546875E0,7.300786E2,5.1327516E4,3.1622148E3,1.2917188E2,7.421875E0,1.5804688E2,2.374496E3,3.3560352E2,1.1164086E3,7.102578E2,1.3419995E2,3.3830547E3,8.65625E0,2.0312137E2,8.988623E1,0E0,0E0,4.298761E1,1.06345276E2,1.9156128E1,0E0,0E0,5.7099475E2,0E0,4.7823364E1,2.6229654E2,9.6132324E1,7.213008E3,0E0,5.389531E2,1.4240906E1,1.0686523E1,7.761133E1,2.5136719E1,7.5410156E0,8.147656E1,2.1810359E2,2.039527E4,5.811289E2,5.465049E2,1.9459473E2,0E0,5.7524597E1,9.66875E1,1.0085078E3,1.5384497E2,3.68216E2,6.410156E1,1.2663751E2,1.4800469E3,0E0,0E0,0E0,2.2197266E0,3.1931183E1,0E0,0E0,0E0,0E0,0E0,0E0,0E0,0E0,0E0,0E0,0E0,0E0,0E0,0E0,0E0,0E0,0E0,0E0,0E0,0E0,0E0,0E0,0E0,0E0,0E0,0E0,0E0,0E0,0E0,0E0,0E0,0E0,0E0,0E0,0E0,0E0,0E0,0E0,0E0,0E0,0E0,0E0,0E0,0E0,0E0,0E0,0E0,0E0,0E0,0E0,0E0,0E0,0E0,0E0,0E0,0E0,0E0,0E0,0E0,0E0],"parents":[2147483647,0,0,1,1,2,2,3,3,4,4,5,5,6,6,7,7,8,8,9,9,10,10,11,11,12,12,13,13,14,14,15,15,16,16,17,17,19,19,21,21,23,23,24,24,25,25,26,26,28,28,29,29,31,31,33,33,34,34,35,35,36,36,37,37,38,38,39,39,40,40,41,41,42,42,43,43,44,44,45,45,46,46,47,47,48,48,49,49,50,50,53,53,54,54,55,55,58,58,60,60,61,61,62,62,63,63,65,65,66,66,67,67,68,68,69,69,70,70,71,71,72,72,73,73,74,74,75,75,76,76,78,78,79,79,80,80,81,81,82,82,83,83,84,84,85,85,89,89,90,90],"right_children":[2,4,6,8,10,12,14,16,18,20,22,24,26,28,30,32,34,36,-1,38,-1,40,-1,42,44,46,48,-1,50,52,-1,54,-1,56,58,60,62,64,66,68,70,72,74,76,78,80,82,84,86,88,90,-1,-1,92,94,96,-1,-1,98,-1,100,102,104,106,-1,108,110,112,114,116,118,120,122,124,126,128,130,-1,132,134,136,138,140,142,144,146,-1,-1,-1,148,150,-1,-1,-1,-1,-1,-1,-1,-1,-1,-1,-1,-1,-1,-1,-1,-1,-1,-1,-1,-1,-1,-1,-1,-1,-1,-1,-1,-1,-1,-1,-1,-1,-1,-1,-1,-1,-1,-1,-1,-1,-1,-1,-1,-1,-1,-1,-1,